{"learner":{"attributes":{"scikit_learn":"{\"_estimator_type\": \"regressor\"}"},"feature_names":["lagged_1","lagged_2","lagged_3","city","temperature_2m_mean","precipitation_sum","wind_speed_10m_max","wind_direction_10m_dominant"],"feature_types":["float","float","float","c","float","float","float","float"],"gradient_booster":{"model":{"gbtree_model_param":{"num_parallel_tree":"1","num_trees":"100"},"iteration_indptr":[0,1,2,3,4,5,6,7,8,9,10,11,12,13,14,15,16,17,18,19,20,21,22,23,24,25,26,27,28,29,30,31,32,33,34,35,36,37,38,39,40,41,42,43,44,45,46,47,48,49,50,51,52,53,54,55,56,57,58,59,60,61,62,63,64,65,66,67,68,69,70,71,72,73,74,75,76,77,78,79,80,81,82,83,84,85,86,87,88,89,90,91,92,93,94,95,96,97,98,99,100],"tree_info":[0,0,0,0,0,0,0,0,0,0,0,0,0,0,0,0,0,0,0,0,0,0,0,0,0,0,0,0,0,0,0,0,0,0,0,0,0,0,0,0,0,0,0,0,0,0,0,0,0,0,0,0,0,0,0,0,0,0,0,0,0,0,0,0,0,0,0,0,0,0,0,0,0,0,0,0,0,0,0,0,0,0,0,0,0,0,0,0,0,0,0,0,0,0,0,0,0,0,0,0],"trees":[{"base_weights":[1.5503922E-8,-3.2889554E-1,4.9608764E-1,-1.0984956E-1,-5.0443417E-1,7.1448874E-1,8.501314E-3,-4.212067E-1,1.9689133E-2,-5.921858E-1,-3.7887865E-1,4.6777153E-1,9.864621E-1,3.9941865E-1,-9.281666E-2,-4.4308192E-1,1.9222869E-1,-7.366871E-2,1.9539663E-1,-5.991377E-1,2.1455956E-1,-2.2005002E-1,-4.6475005E-1,-6.039295E-2,5.1898587E-1,8.573361E-1,1.2907118E0,4.6351083E-2,5.7989734E-1,-1.9236012E-1,1.8079852E-1,-6.033547E-2,-3.7873086E-2,-3.7759885E-2,5.7154216E-2,-4.8834722E-2,-5.1902286E-3,1.3986726E-2,5.530097E-2,-6.847956E-2,-5.3273547E-2,-6.774783E-3,3.312446E-2,-4.096729E-2,-1.520963E-2,-4.720775E-2,-3.3483028E-3,-1.964481E-2,2.7028715E-2,3.931146E-2,6.2482353E-2,9.497552E-2,6.720985E-2,8.691235E-3,1.3582587E-1,1.8145075E-2,-1.0890978E-2,3.992526E-2,1.0172553E-1,-2.6966337E-2,3.4302126E-3,8.578631E-3,6.926423E-2],"categories":[],"categories_nodes":[],"categories_segments":[],"categories_sizes":[],"default_left":[0,0,0,0,0,0,0,0,0,0,0,0,0,0,0,0,0,0,0,0,0,0,0,0,0,0,0,0,0,0,0,0,0,0,0,0,0,0,0,0,0,0,0,0,0,0,0,0,0,0,0,0,0,0,0,0,0,0,0,0,0,0,0],"id":0,"left_children":[1,3,5,7,9,11,13,15,17,19,21,23,25,27,29,31,33,35,37,39,41,43,45,47,49,51,53,55,57,59,61,-1,-1,-1,-1,-1,-1,-1,-1,-1,-1,-1,-1,-1,-1,-1,-1,-1,-1,-1,-1,-1,-1,-1,-1,-1,-1,-1,-1,-1,-1,-1,-1],"loss_changes":[3.1881662E2,4.5124557E1,8.294916E1,2.114268E1,6.9591675E0,3.563864E1,9.621955E0,2.151703E0,6.1001577E0,2.2709808E0,3.5938568E0,7.7134247E0,8.911484E0,3.1591806E0,5.291443E0,1.3082371E0,1.5126731E0,2.1679885E0,2.4843373E0,1.7908936E0,1.5420532E-1,1.1875916E0,5.3720474E-1,1.2228564E0,3.20475E0,2.477417E0,5.8991165E0,3.9732417E-1,2.2010698E0,2.4973354E0,2.4694138E0,0E0,0E0,0E0,0E0,0E0,0E0,0E0,0E0,0E0,0E0,0E0,0E0,0E0,0E0,0E0,0E0,0E0,0E0,0E0,0E0,0E0,0E0,0E0,0E0,0E0,0E0,0E0,0E0,0E0,0E0,0E0,0E0],"parents":[2147483647,0,0,1,1,2,2,3,3,4,4,5,5,6,6,7,7,8,8,9,9,10,10,11,11,12,12,13,13,14,14,15,15,16,16,17,17,18,18,19,19,20,20,21,21,22,22,23,23,24,24,25,25,26,26,27,27,28,28,29,29,30,30],"right_children":[2,4,6,8,10,12,14,16,18,20,22,24,26,28,30,32,34,36,38,40,42,44,46,48,50,52,54,56,58,60,62,-1,-1,-1,-1,-1,-1,-1,-1,-1,-1,-1,-1,-1,-1,-1,-1,-1,-1,-1,-1,-1,-1,-1,-1,-1,-1,-1,-1,-1,-1,-1,-1],"split_conditions":[5.166E0,2.4224153E2,2.2862158E2,2.394E0,2.73E0,1.008E1,1.1901798E1,1.5645665E1,6.745667E0,1.5714416E1,1.420062E1,2.9187601E1,2.121E1,-1.5876669E0,1.4716499E1,-5.1730833E0,1.806E0,-9.125167E0,1.6710249E1,2.1E0,1.386E0,-4.554334E0,3.5840445E2,7.637333E0,7.14E0,1.764E1,3.7037495E1,9.957108E0,1.1592E1,1.092E1,2.2134E1,-6.033547E-2,-3.7873086E-2,-3.7759885E-2,5.7154216E-2,-4.8834722E-2,-5.1902286E-3,1.3986726E-2,5.530097E-2,-6.847956E-2,-5.3273547E-2,-6.774783E-3,3.312446E-2,-4.096729E-2,-1.520963E-2,-4.720775E-2,-3.3483028E-3,-1.964481E-2,2.7028715E-2,3.931146E-2,6.2482353E-2,9.497552E-2,6.720985E-2,8.691235E-3,1.3582587E-1,1.8145075E-2,-1.0890978E-2,3.992526E-2,1.0172553E-1,-2.6966337E-2,3.4302126E-3,8.578631E-3,6.926423E-2],"split_indices":[0,7,7,0,0,0,6,4,4,4,6,7,0,4,4,4,1,4,4,0,0,4,7,4,0,6,7,6,0,0,0,0,0,0,0,0,0,0,0,0,0,0,0,0,0,0,0,0,0,0,0,0,0,0,0,0,0,0,0,0,0,0,0],"split_type":[0,0,0,0,0,0,0,0,0,0,0,0,0,0,0,0,0,0,0,0,0,0,0,0,0,0,0,0,0,0,0,0,0,0,0,0,0,0,0,0,0,0,0,0,0,0,0,0,0,0,0,0,0,0,0,0,0,0,0,0,0,0,0],"sum_hessian":[1.952E3,1.174E3,7.78E2,5.23E2,6.51E2,5.37E2,2.41E2,1.53E2,3.7E2,3.81E2,2.7E2,2.83E2,2.54E2,4.9E1,1.92E2,1.48E2,5E0,2.42E2,1.28E2,3.78E2,3E0,9.6E1,1.74E2,2.5E1,2.58E2,1.81E2,7.3E1,1.7E1,3.2E1,1.41E2,5.1E1,4E1,1.08E2,2E0,3E0,1.1E1,2.31E2,1.12E2,1.6E1,1.61E2,2.17E2,1E0,2E0,2.4E1,7.2E1,1.71E2,3E0,1.8E1,7E0,1.2E2,1.38E2,1.18E2,6.3E1,4E0,6.9E1,9E0,8E0,2.4E1,8E0,1.05E2,3.6E1,4.4E1,7E0],"tree_param":{"num_deleted":"0","num_feature":"8","num_nodes":"63","size_leaf_vector":"1"}},{"base_weights":[1.8097436E-4,-2.962321E-1,4.472736E-1,-9.898587E-2,-4.543008E-1,6.4381295E-1,8.490888E-3,-3.7959787E-1,1.7761381E-2,-5.324788E-1,-3.4029767E-1,4.2137885E-1,8.890187E-1,2.1384613E-1,-1.5585619E-1,-3.994329E-1,1.7623824E-1,-6.652414E-2,1.763941E-1,-5.387516E-1,1.9969103E-1,-1.972603E-1,-4.1770396E-1,2.0244095E-2,4.7768193E-1,7.7249366E-1,1.1635935E0,1.1995549E-1,7.09381E-1,-2.0517522E-1,3.2276657E-1,-5.1447958E-2,-3.2664515E-2,-3.5242558E-2,5.286765E-2,-1.7562157E-2,1.0995874E-3,1.2600434E-2,5.0096173E-2,-3.00515E-2,-5.5820208E-2,-6.436044E-3,3.0916167E-2,-2.2417571E-2,1.7697489E-2,-3.1949736E-2,-4.5285933E-2,-2.0257648E-2,3.8486045E-2,3.522124E-2,5.8273256E-2,8.760131E-2,6.325989E-2,7.99594E-3,1.2243731E-1,5.8014877E-2,2.9918884E-3,3.975572E-2,1.0104882E-1,-1.3547651E-2,-3.6351614E-2,-1.013688E-2,7.0079245E-2],"categories":[],"categories_nodes":[],"categories_segments":[],"categories_sizes":[],"default_left":[0,0,0,0,0,0,0,0,0,0,0,0,0,0,0,0,0,0,0,0,0,0,0,0,0,0,0,0,0,0,0,0,0,0,0,0,0,0,0,0,0,0,0,0,0,0,0,0,0,0,0,0,0,0,0,0,0,0,0,0,0,0,0],"id":1,"left_children":[1,3,5,7,9,11,13,15,17,19,21,23,25,27,29,31,33,35,37,39,41,43,45,47,49,51,53,55,57,59,61,-1,-1,-1,-1,-1,-1,-1,-1,-1,-1,-1,-1,-1,-1,-1,-1,-1,-1,-1,-1,-1,-1,-1,-1,-1,-1,-1,-1,-1,-1,-1,-1],"loss_changes":[2.589521E2,3.658972E1,6.7173965E1,1.7173338E1,5.6297607E0,2.8969055E1,8.200717E0,1.7682495E0,4.9721684E0,1.8757935E0,2.8848953E0,6.4045067E0,7.2598114E0,4.939723E0,3.2529263E0,1.0796719E0,1.3042474E0,2.0570388E0,2.046657E0,1.6023712E0,1.3552132E-1,1.0066516E0,4.5259476E-1,3.0027485E0,3.0767365E0,2.0815125E0,4.775955E0,3.7945929E0,1.1944437E0,1.3081994E0,2.1553824E0,0E0,0E0,0E0,0E0,0E0,0E0,0E0,0E0,0E0,0E0,0E0,0E0,0E0,0E0,0E0,0E0,0E0,0E0,0E0,0E0,0E0,0E0,0E0,0E0,0E0,0E0,0E0,0E0,0E0,0E0,0E0,0E0],"parents":[2147483647,0,0,1,1,2,2,3,3,4,4,5,5,6,6,7,7,8,8,9,9,10,10,11,11,12,12,13,13,14,14,15,15,16,16,17,17,18,18,19,19,20,20,21,21,22,22,23,23,24,24,25,25,26,26,27,27,28,28,29,29,30,30],"right_children":[2,4,6,8,10,12,14,16,18,20,22,24,26,28,30,32,34,36,38,40,42,44,46,48,50,52,54,56,58,60,62,-1,-1,-1,-1,-1,-1,-1,-1,-1,-1,-1,-1,-1,-1,-1,-1,-1,-1,-1,-1,-1,-1,-1,-1,-1,-1,-1,-1,-1,-1,-1,-1],"split_conditions":[5.166E0,2.4224153E2,2.2862158E2,2.394E0,2.814E0,1.008E1,1.4145756E1,1.5645665E1,6.745667E0,1.5714416E1,1.420062E1,4.3784424E1,2.121E1,1.575E1,2.2134E1,-3.6293335E0,1.806E0,8.961805E1,1.6710249E1,1.1090103E1,1.386E0,1.4399831E1,2.7910394E2,7.637333E0,7.14E0,1.6299694E1,3.7037495E1,2.438614E2,3E-1,1.9633205E1,1.4851916E1,-5.1447958E-2,-3.2664515E-2,-3.5242558E-2,5.286765E-2,-1.7562157E-2,1.0995874E-3,1.2600434E-2,5.0096173E-2,-3.00515E-2,-5.5820208E-2,-6.436044E-3,3.0916167E-2,-2.2417571E-2,1.7697489E-2,-3.1949736E-2,-4.5285933E-2,-2.0257648E-2,3.8486045E-2,3.522124E-2,5.8273256E-2,8.760131E-2,6.325989E-2,7.99594E-3,1.2243731E-1,5.8014877E-2,2.9918884E-3,3.975572E-2,1.0104882E-1,-1.3547651E-2,-3.6351614E-2,-1.013688E-2,7.0079245E-2],"split_indices":[0,7,7,0,0,0,6,4,4,4,6,7,0,0,0,4,1,7,4,6,0,4,7,4,0,6,7,7,5,6,4,0,0,0,0,0,0,0,0,0,0,0,0,0,0,0,0,0,0,0,0,0,0,0,0,0,0,0,0,0,0,0,0],"split_type":[0,0,0,0,0,0,0,0,0,0,0,0,0,0,0,0,0,0,0,0,0,0,0,0,0,0,0,0,0,0,0,0,0,0,0,0,0,0,0,0,0,0,0,0,0,0,0,0,0,0,0,0,0,0,0,0,0,0,0,0,0,0,0],"sum_hessian":[1.952E3,1.174E3,7.78E2,5.23E2,6.51E2,5.37E2,2.41E2,1.53E2,3.7E2,3.84E2,2.67E2,2.83E2,2.54E2,1.07E2,1.34E2,1.48E2,5E0,2.42E2,1.28E2,3.81E2,3E0,9.5E1,1.72E2,3.5E1,2.48E2,1.81E2,7.3E1,9.1E1,1.6E1,1.22E2,1.2E1,5.5E1,9.3E1,2E0,3E0,1E2,1.42E2,1.12E2,1.6E1,3E1,3.51E2,1E0,2E0,8.9E1,6E0,4.8E1,1.24E2,2.2E1,1.3E1,1.15E2,1.33E2,1.01E2,8E1,4E0,6.9E1,1.4E1,7.7E1,9E0,7E0,8.6E1,3.6E1,6E0,6E0],"tree_param":{"num_deleted":"0","num_feature":"8","num_nodes":"63","size_leaf_vector":"1"}},{"base_weights":[3.8883212E-4,-2.667481E-1,4.0332276E-1,-7.7597044E-2,-4.0193996E-1,5.870529E-1,2.125439E-2,-3.3629695E-1,3.072884E-2,-4.9931732E-1,-3.2200122E-1,4.3735802E-1,8.952652E-1,1.9927725E-1,-1.2056137E-1,-3.552312E-1,1.6155194E-1,-4.3771338E-2,2.0763966E-1,-5.066901E-1,1.8584192E-1,-1.8495072E-1,-3.745375E-1,9.9519E-2,4.8222974E-1,3.4253344E-1,9.5805365E-1,9.873659E-2,5.884043E-1,-1.8531251E-1,1.6209394E-1,-4.9599733E-2,-2.979262E-2,-3.2893054E-2,4.8902582E-2,-1.5126774E-2,5.406471E-3,1.5715027E-2,4.5381244E-2,-1.3846807E-2,-5.1490247E-2,-6.1142445E-3,2.8855085E-2,-2.1149246E-2,2.2443013E-2,-2.4412757E-2,-4.055786E-2,-1.2188198E-2,3.855982E-2,3.2378066E-2,5.660808E-2,8.850994E-2,1.3884256E-2,8.487235E-2,1.15408495E-1,3.5480694E-3,6.0756136E-2,2.8506476E-2,7.032989E-2,-6.0363085E-4,-2.62703E-2,3.8383543E-2,-1.4343068E-3],"categories":[],"categories_nodes":[],"categories_segments":[],"categories_sizes":[],"default_left":[0,0,0,0,0,0,0,0,0,0,0,0,0,0,0,0,0,0,0,0,0,0,0,0,0,0,0,0,0,0,0,0,0,0,0,0,0,0,0,0,0,0,0,0,0,0,0,0,0,0,0,0,0,0,0,0,0,0,0,0,0,0,0],"id":2,"left_children":[1,3,5,7,9,11,13,15,17,19,21,23,25,27,29,31,33,35,37,39,41,43,45,47,49,51,53,55,57,59,61,-1,-1,-1,-1,-1,-1,-1,-1,-1,-1,-1,-1,-1,-1,-1,-1,-1,-1,-1,-1,-1,-1,-1,-1,-1,-1,-1,-1,-1,-1,-1,-1],"loss_changes":[2.1032564E2,3.0015533E1,5.4671356E1,1.3770065E1,5.171417E0,2.3876923E1,6.436623E0,1.4242172E0,4.5825095E0,1.6449661E0,2.6595802E0,5.3487625E0,5.60643E0,4.3628125E0,2.6289577E0,9.815521E-1,1.1245767E0,2.5848489E0,1.2088819E0,8.480072E-1,1.191127E-1,1.210093E0,1.0061111E0,2.770541E0,3.988556E0,1.9769099E0,2.2996063E0,2.9073846E0,6.011114E-1,1.6078303E0,1.0618374E0,0E0,0E0,0E0,0E0,0E0,0E0,0E0,0E0,0E0,0E0,0E0,0E0,0E0,0E0,0E0,0E0,0E0,0E0,0E0,0E0,0E0,0E0,0E0,0E0,0E0,0E0,0E0,0E0,0E0,0E0,0E0,0E0],"parents":[2147483647,0,0,1,1,2,2,3,3,4,4,5,5,6,6,7,7,8,8,9,9,10,10,11,11,12,12,13,13,14,14,15,15,16,16,17,17,18,18,19,19,20,20,21,21,22,22,23,23,24,24,25,25,26,26,27,27,28,28,29,29,30,30],"right_children":[2,4,6,8,10,12,14,16,18,20,22,24,26,28,30,32,34,36,38,40,42,44,46,48,50,52,54,56,58,60,62,-1,-1,-1,-1,-1,-1,-1,-1,-1,-1,-1,-1,-1,-1,-1,-1,-1,-1,-1,-1,-1,-1,-1,-1,-1,-1,-1,-1,-1,-1,-1,-1],"split_conditions":[5.166E0,2.3499347E2,2.2549973E2,2.394E0,2.394E0,1.386E1,1.4145756E1,1.5645665E1,9.285249E0,1.5714416E1,1.3450708E1,4.499987E1,4.797905E1,1.5345666E1,1.638E1,-5.1730833E0,1.806E0,1.2481423E2,1.6710249E1,8.913181E0,1.386E0,1.1046E1,2.6039294E2,7.637333E0,7.14E0,1.2144331E1,2.31E1,1.575E1,7.434E0,2.5476802E2,1.7698677E1,-4.9599733E-2,-2.979262E-2,-3.2893054E-2,4.8902582E-2,-1.5126774E-2,5.406471E-3,1.5715027E-2,4.5381244E-2,-1.3846807E-2,-5.1490247E-2,-6.1142445E-3,2.8855085E-2,-2.1149246E-2,2.2443013E-2,-2.4412757E-2,-4.055786E-2,-1.2188198E-2,3.855982E-2,3.2378066E-2,5.660808E-2,8.850994E-2,1.3884256E-2,8.487235E-2,1.15408495E-1,3.5480694E-3,6.0756136E-2,2.8506476E-2,7.032989E-2,-6.0363085E-4,-2.62703E-2,3.8383543E-2,-1.4343068E-3],"split_indices":[0,7,7,0,0,0,6,4,4,4,6,7,7,4,0,4,1,7,4,6,0,2,7,4,0,6,0,0,2,7,6,0,0,0,0,0,0,0,0,0,0,0,0,0,0,0,0,0,0,0,0,0,0,0,0,0,0,0,0,0,0,0,0],"split_type":[0,0,0,0,0,0,0,0,0,0,0,0,0,0,0,0,0,0,0,0,0,0,0,0,0,0,0,0,0,0,0,0,0,0,0,0,0,0,0,0,0,0,0,0,0,0,0,0,0,0,0,0,0,0,0,0,0,0,0,0,0,0,0],"sum_hessian":[1.952E3,1.174E3,7.78E2,4.9E2,6.84E2,5.25E2,2.53E2,1.44E2,3.46E2,3.06E2,3.78E2,3.55E2,1.7E2,1.12E2,1.41E2,1.39E2,5E0,2.44E2,1.02E2,3.03E2,3E0,1.06E2,2.72E2,4.2E1,3.13E2,1.8E1,1.52E2,9E1,2.2E1,1.15E2,2.6E1,3.8E1,1.01E2,2E0,3E0,1.16E2,1.28E2,8.6E1,1.6E1,7E0,2.96E2,1E0,2E0,1E2,6E0,5.4E1,2.18E2,2.4E1,1.8E1,1.1E2,2.03E2,4E0,1.4E1,1.01E2,5.1E1,8.1E1,9E0,7E0,1.5E1,3.5E1,8E1,1.1E1,1.5E1],"tree_param":{"num_deleted":"0","num_feature":"8","num_nodes":"63","size_leaf_vector":"1"}},{"base_weights":[5.921375E-4,-2.4017395E-1,3.6374947E-1,-6.986177E-2,-3.619011E-1,5.2339715E-1,7.3271035E-3,-3.031043E-1,2.7804028E-2,-4.300983E-1,-2.6864225E-1,3.399797E-1,7.2562134E-1,3.1998983E-1,-7.371157E-2,-3.2027513E-1,1.4806497E-1,-3.5231356E-2,2.1372898E-1,-2.369034E-1,-4.5186624E-1,-2.0212631E-1,-3.7072745E-1,1.2249983E-2,3.8599694E-1,6.308009E-1,9.4902265E-1,2.7664866E-2,4.6974313E-1,-1.5442373E-1,1.4811227E-1,-3.9217323E-2,-2.3128232E-2,-3.0700183E-2,4.5234885E-2,-1.818202E-2,5.603645E-3,2.9525548E-2,-4.4271243E-3,7.539639E-3,-2.628597E-2,-5.609415E-2,-4.0893953E-2,-2.306206E-2,1.0257296E-2,-2.6667995E-2,-4.347196E-2,-1.7154137E-2,3.1331792E-2,2.8617252E-2,4.6953153E-2,2.720975E-2,6.613905E-2,3.323124E-2,1.02930084E-1,1.4983705E-2,-1.1115587E-2,2.4581147E-2,6.660429E-2,-8.081146E-3,-3.27767E-2,7.122487E-3,5.6208987E-2],"categories":[],"categories_nodes":[],"categories_segments":[],"categories_sizes":[],"default_left":[0,0,0,0,0,0,0,0,0,0,0,0,0,0,0,0,0,0,0,0,0,0,0,0,0,0,0,0,0,0,0,0,0,0,0,0,0,0,0,0,0,0,0,0,0,0,0,0,0,0,0,0,0,0,0,0,0,0,0,0,0,0,0],"id":3,"left_children":[1,3,5,7,9,11,13,15,17,19,21,23,25,27,29,31,33,35,37,39,41,43,45,47,49,51,53,55,57,59,61,-1,-1,-1,-1,-1,-1,-1,-1,-1,-1,-1,-1,-1,-1,-1,-1,-1,-1,-1,-1,-1,-1,-1,-1,-1,-1,-1,-1,-1,-1,-1,-1],"loss_changes":[1.7084981E2,2.4334373E1,4.432283E1,1.1193319E1,4.2410507E0,1.9708496E1,6.155328E0,1.1707277E0,4.0743175E0,1.5499039E0,1.9078312E0,4.2783356E0,4.8030243E0,2.1758366E0,3.4783213E0,8.050747E-1,9.6968883E-1,3.4886878E0,1.8640509E0,3.6027694E-1,1.423439E0,1.5777674E0,6.4310646E-1,2.0457594E0,1.9419937E0,1.8170471E0,3.3215714E0,3.219358E-1,1.2868843E0,1.78546E0,1.6151074E0,0E0,0E0,0E0,0E0,0E0,0E0,0E0,0E0,0E0,0E0,0E0,0E0,0E0,0E0,0E0,0E0,0E0,0E0,0E0,0E0,0E0,0E0,0E0,0E0,0E0,0E0,0E0,0E0,0E0,0E0,0E0,0E0],"parents":[2147483647,0,0,1,1,2,2,3,3,4,4,5,5,6,6,7,7,8,8,9,9,10,10,11,11,12,12,13,13,14,14,15,15,16,16,17,17,18,18,19,19,20,20,21,21,22,22,23,23,24,24,25,25,26,26,27,27,28,28,29,29,30,30],"right_children":[2,4,6,8,10,12,14,16,18,20,22,24,26,28,30,32,34,36,38,40,42,44,46,48,50,52,54,56,58,60,62,-1,-1,-1,-1,-1,-1,-1,-1,-1,-1,-1,-1,-1,-1,-1,-1,-1,-1,-1,-1,-1,-1,-1,-1,-1,-1,-1,-1,-1,-1,-1,-1],"split_conditions":[5.166E0,2.3499347E2,2.2862158E2,2.394E0,2.73E0,1.008E1,1.1901798E1,1.5645665E1,5.334E0,1.1753876E1,1.8272436E1,4.3784424E1,2.121E1,-1.5876669E0,1.4716499E1,9.450655E1,1.806E0,8.961805E1,2.0910349E2,1.386E0,-6.3147507E0,1.092E1,2.8216498E2,7.637333E0,7.14E0,4.284E0,5.241714E1,9.957108E0,6.006E0,3.1012305E2,2.2134E1,-3.9217323E-2,-2.3128232E-2,-3.0700183E-2,4.5234885E-2,-1.818202E-2,5.603645E-3,2.9525548E-2,-4.4271243E-3,7.539639E-3,-2.628597E-2,-5.609415E-2,-4.0893953E-2,-2.306206E-2,1.0257296E-2,-2.6667995E-2,-4.347196E-2,-1.7154137E-2,3.1331792E-2,2.8617252E-2,4.6953153E-2,2.720975E-2,6.613905E-2,3.323124E-2,1.02930084E-1,1.4983705E-2,-1.1115587E-2,2.4581147E-2,6.660429E-2,-8.081146E-3,-3.27767E-2,7.122487E-3,5.6208987E-2],"split_indices":[0,7,7,0,0,0,6,4,2,6,6,7,0,4,4,7,1,7,7,2,4,2,7,4,0,1,7,6,2,7,0,0,0,0,0,0,0,0,0,0,0,0,0,0,0,0,0,0,0,0,0,0,0,0,0,0,0,0,0,0,0,0,0],"split_type":[0,0,0,0,0,0,0,0,0,0,0,0,0,0,0,0,0,0,0,0,0,0,0,0,0,0,0,0,0,0,0,0,0,0,0,0,0,0,0,0,0,0,0,0,0,0,0,0,0,0,0,0,0,0,0,0,0,0,0,0,0,0,0],"sum_hessian":[1.952E3,1.174E3,7.78E2,4.9E2,6.84E2,5.37E2,2.41E2,1.44E2,3.46E2,3.93E2,2.91E2,2.83E2,2.54E2,4.9E1,1.92E2,1.39E2,5E0,2.59E2,8.7E1,4.1E1,3.52E2,1.78E2,1.13E2,3.5E1,2.48E2,1.81E2,7.3E1,1.7E1,3.2E1,1.41E2,5.1E1,7.5E1,6.4E1,2E0,3E0,9.9E1,1.6E2,6.6E1,2.1E1,3E0,3.8E1,9.6E1,2.56E2,1.63E2,1.5E1,4.5E1,6.8E1,2.2E1,1.3E1,1.15E2,1.33E2,1.5E1,1.66E2,9E0,6.4E1,9E0,8E0,1.6E1,1.6E1,1E2,4.1E1,4.4E1,7E0],"tree_param":{"num_deleted":"0","num_feature":"8","num_nodes":"63","size_leaf_vector":"1"}},{"base_weights":[6.3677225E-4,-2.1635568E-1,3.2793522E-1,-6.294746E-2,-3.2600105E-1,4.7721806E-1,1.7499352E-2,-2.731236E-1,2.5059702E-2,-4.0610778E-1,-2.6025233E-1,3.5404536E-1,7.30857E-1,1.7177851E-1,-1.0539533E-1,-4.111077E-1,-2.2027776E-1,-3.8868565E-2,1.748043E-1,-4.1263524E-1,1.9150499E-1,-1.4405923E-1,-3.048399E-1,7.95903E-2,3.9050245E-1,3.6661652E-1,8.026624E-1,8.984554E-2,5.264447E-1,-1.3785271E-1,2.936747E-1,-4.5964163E-2,-3.0281061E-2,-2.3905693E-2,1.3568091E-2,-4.1623283E-2,-1.926668E-3,-6.7130364E-3,2.1633407E-2,-4.6327285E-2,-3.4752753E-2,-3.7638366E-3,2.8043224E-2,-2.8008506E-2,-6.8158656E-3,-3.08813E-2,3.8792055E-2,-6.21328E-3,3.7759762E-2,2.7602522E-2,4.6575837E-2,5.3194474E-2,-7.825433E-3,7.141737E-2,1.0032278E-1,1.10556E-4,3.9404426E-2,5.6501675E-2,-1.2249845E-2,-7.480696E-3,-2.7595898E-2,-1.9224783E-3,5.5762846E-2],"categories":[],"categories_nodes":[],"categories_segments":[],"categories_sizes":[],"default_left":[0,0,0,0,0,0,0,0,0,0,0,0,0,0,0,0,0,0,0,0,0,0,0,0,0,0,0,0,0,0,0,0,0,0,0,0,0,0,0,0,0,0,0,0,0,0,0,0,0,0,0,0,0,0,0,0,0,0,0,0,0,0,0],"id":4,"left_children":[1,3,5,7,9,11,13,15,17,19,21,23,25,27,29,31,33,35,37,39,41,43,45,47,49,51,53,55,57,59,61,-1,-1,-1,-1,-1,-1,-1,-1,-1,-1,-1,-1,-1,-1,-1,-1,-1,-1,-1,-1,-1,-1,-1,-1,-1,-1,-1,-1,-1,-1,-1,-1],"loss_changes":[1.3877553E2,1.9743565E1,3.609266E1,9.088873E0,3.5021439E0,1.6174217E1,4.833967E0,9.667654E-1,3.3285954E0,1.2765961E0,1.9195976E0,3.5309944E0,4.178131E0,3.2363522E0,1.8797776E0,6.5802574E-2,7.476883E-1,1.7968609E0,1.0594618E0,8.412552E-1,9.206334E-2,1.0856245E0,8.7120056E-1,1.8395455E0,2.57658E0,2.2481189E0,1.8037109E0,2.5100608E0,5.948663E-1,1.1286821E0,9.1922104E-1,0E0,0E0,0E0,0E0,0E0,0E0,0E0,0E0,0E0,0E0,0E0,0E0,0E0,0E0,0E0,0E0,0E0,0E0,0E0,0E0,0E0,0E0,0E0,0E0,0E0,0E0,0E0,0E0,0E0,0E0,0E0,0E0],"parents":[2147483647,0,0,1,1,2,2,3,3,4,4,5,5,6,6,7,7,8,8,9,9,10,10,11,11,12,12,13,13,14,14,15,15,16,16,17,17,18,18,19,19,20,20,21,21,22,22,23,23,24,24,25,25,26,26,27,27,28,28,29,29,30,30],"right_children":[2,4,6,8,10,12,14,16,18,20,22,24,26,28,30,32,34,36,38,40,42,44,46,48,50,52,54,56,58,60,62,-1,-1,-1,-1,-1,-1,-1,-1,-1,-1,-1,-1,-1,-1,-1,-1,-1,-1,-1,-1,-1,-1,-1,-1,-1,-1,-1,-1,-1,-1,-1,-1],"split_conditions":[5.166E0,2.3499347E2,2.2549973E2,2.394E0,2.394E0,1.386E1,1.4145756E1,-5.1730833E0,9.074834E0,1.5714416E1,1.3450708E1,4.499987E1,5.7625446E1,1.604775E1,2.31E1,1.974E0,1.5645665E1,-9.125167E0,2.646E0,2.1E0,1.386E0,-3.1272497E0,2.226E1,1.2420665E1,7.434E0,1.5646544E1,2.604E1,1.092E1,2.2134E1,1.9633205E1,1.4851916E1,-4.5964163E-2,-3.0281061E-2,-2.3905693E-2,1.3568091E-2,-4.1623283E-2,-1.926668E-3,-6.7130364E-3,2.1633407E-2,-4.6327285E-2,-3.4752753E-2,-3.7638366E-3,2.8043224E-2,-2.8008506E-2,-6.8158656E-3,-3.08813E-2,3.8792055E-2,-6.21328E-3,3.7759762E-2,2.7602522E-2,4.6575837E-2,5.3194474E-2,-7.825433E-3,7.141737E-2,1.0032278E-1,1.10556E-4,3.9404426E-2,5.6501675E-2,-1.2249845E-2,-7.480696E-3,-2.7595898E-2,-1.9224783E-3,5.5762846E-2],"split_indices":[0,7,7,0,0,0,6,4,4,4,6,7,7,4,0,0,4,4,0,0,0,4,1,4,0,6,0,0,1,6,4,0,0,0,0,0,0,0,0,0,0,0,0,0,0,0,0,0,0,0,0,0,0,0,0,0,0,0,0,0,0,0,0],"split_type":[0,0,0,0,0,0,0,0,0,0,0,0,0,0,0,0,0,0,0,0,0,0,0,0,0,0,0,0,0,0,0,0,0,0,0,0,0,0,0,0,0,0,0,0,0,0,0,0,0,0,0,0,0,0,0,0,0,0,0,0,0,0,0],"sum_hessian":[1.952E3,1.174E3,7.78E2,4.9E2,6.84E2,5.25E2,2.53E2,1.44E2,3.46E2,3.06E2,3.78E2,3.55E2,1.7E2,1.12E2,1.41E2,3.8E1,1.06E2,2.43E2,1.03E2,3.03E2,3E0,1.06E2,2.72E2,4.2E1,3.13E2,2.9E1,1.41E2,9.2E1,2E1,1.31E2,1E1,2.4E1,1.4E1,1.01E2,5E0,1.1E1,2.32E2,1.5E1,8.8E1,1.67E2,1.36E2,1E0,2E0,3.7E1,6.9E1,2.71E2,1E0,2.9E1,1.3E1,1.26E2,1.87E2,2.1E1,8E0,1.01E2,4E1,7.2E1,2E1,1.9E1,1E0,9.1E1,4E1,5E0,5E0],"tree_param":{"num_deleted":"0","num_feature":"8","num_nodes":"63","size_leaf_vector":"1"}},{"base_weights":[6.890299E-4,-1.9488943E-1,2.9568774E-1,-7.085507E-2,-3.0618545E-1,4.256972E-1,5.4366193E-3,-2.533694E-1,3.3405437E-3,-1.3168755E-1,-3.3036622E-1,2.7463678E-1,5.9226763E-1,2.6012278E-1,-6.735962E-2,-2.6627383E-1,1.2437421E-1,-4.5958154E-2,1.5219884E-1,-3.8685942E-1,-1.00643806E-1,-4.484261E-1,-2.9508895E-1,-4.9700566E-2,3.0613536E-1,5.149239E-1,7.744879E-1,2.5726864E-2,3.766061E-1,-1.3926643E-1,1.24765396E-1,-3.4932893E-2,-2.162697E-2,-2.9558038E-2,4.0824663E-2,-1.6120637E-2,1.1895744E-3,2.3893591E-2,-1.1410035E-2,-4.1181784E-2,-1.0607517E-2,-1.6251815E-2,3.9159856E-4,-4.9536094E-2,-3.834262E-2,-1.8013554E-2,-3.2940876E-2,-1.4232154E-2,1.1272514E-2,2.0355014E-2,3.725631E-2,4.7470078E-2,8.0069624E-2,1.7722512E-3,8.174785E-2,1.2839352E-2,-7.9512475E-3,2.5786955E-2,7.041635E-2,-6.745199E-3,-3.1352554E-2,-4.136641E-2,1.6617259E-2],"categories":[],"categories_nodes":[],"categories_segments":[],"categories_sizes":[],"default_left":[0,0,0,0,0,0,0,0,0,0,0,0,0,0,0,0,0,0,0,0,0,0,0,0,0,0,0,0,0,0,0,0,0,0,0,0,0,0,0,0,0,0,0,0,0,0,0,0,0,0,0,0,0,0,0,0,0,0,0,0,0,0,0],"id":5,"left_children":[1,3,5,7,9,11,13,15,17,19,21,23,25,27,29,31,33,35,37,39,41,43,45,47,49,51,53,55,57,59,61,-1,-1,-1,-1,-1,-1,-1,-1,-1,-1,-1,-1,-1,-1,-1,-1,-1,-1,-1,-1,-1,-1,-1,-1,-1,-1,-1,-1,-1,-1,-1,-1],"loss_changes":[1.12736725E2,1.6198635E1,2.9393555E1,7.5436087E0,2.5683556E0,1.3374611E1,4.504249E0,8.1792355E-1,2.920387E0,5.710199E-1,2.129181E0,2.916607E0,3.1950607E0,1.4646847E0,2.6284294E0,5.7233334E-1,8.359508E-1,1.9955177E0,2.3139663E0,1.23797655E-2,4.535061E-1,1.8530655E-1,1.6015816E0,4.0718788E-1,1.6891193E0,1.7119408E0,2.393013E0,2.1549574E-1,1.2185674E0,1.7058287E0,1.2280722E0,0E0,0E0,0E0,0E0,0E0,0E0,0E0,0E0,0E0,0E0,0E0,0E0,0E0,0E0,0E0,0E0,0E0,0E0,0E0,0E0,0E0,0E0,0E0,0E0,0E0,0E0,0E0,0E0,0E0,0E0,0E0,0E0],"parents":[2147483647,0,0,1,1,2,2,3,3,4,4,5,5,6,6,7,7,8,8,9,9,10,10,11,11,12,12,13,13,14,14,15,15,16,16,17,17,18,18,19,19,20,20,21,21,22,22,23,23,24,24,25,25,26,26,27,27,28,28,29,29,30,30],"right_children":[2,4,6,8,10,12,14,16,18,20,22,24,26,28,30,32,34,36,38,40,42,44,46,48,50,52,54,56,58,60,62,-1,-1,-1,-1,-1,-1,-1,-1,-1,-1,-1,-1,-1,-1,-1,-1,-1,-1,-1,-1,-1,-1,-1,-1,-1,-1,-1,-1,-1,-1,-1,-1],"split_conditions":[5.166E0,2.4928273E2,2.2862158E2,2.394E0,1.1753876E1,1.008E1,1.2144331E1,1.5645665E1,5.334E0,-1.1256416E1,-5.90225E0,2.9187601E1,2.121E1,-1.5876669E0,1.4716499E1,-3.6293335E0,1.806E0,8.961805E1,2.154154E2,2E-1,3.15E0,2.31E0,1.4830076E1,5.1748333E0,6E-1,1.8710249E1,3.7037495E1,9.957108E0,1.1592E1,3.1012305E2,2.226E0,-3.4932893E-2,-2.162697E-2,-2.9558038E-2,4.0824663E-2,-1.6120637E-2,1.1895744E-3,2.3893591E-2,-1.1410035E-2,-4.1181784E-2,-1.0607517E-2,-1.6251815E-2,3.9159856E-4,-4.9536094E-2,-3.834262E-2,-1.8013554E-2,-3.2940876E-2,-1.4232154E-2,1.1272514E-2,2.0355014E-2,3.725631E-2,4.7470078E-2,8.0069624E-2,1.7722512E-3,8.174785E-2,1.2839352E-2,-7.9512475E-3,2.5786955E-2,7.041635E-2,-6.745199E-3,-3.1352554E-2,-4.136641E-2,1.6617259E-2],"split_indices":[0,7,7,0,6,0,6,4,2,4,4,7,0,4,4,4,1,7,7,5,0,1,6,4,5,4,7,6,0,7,2,0,0,0,0,0,0,0,0,0,0,0,0,0,0,0,0,0,0,0,0,0,0,0,0,0,0,0,0,0,0,0,0],"split_type":[0,0,0,0,0,0,0,0,0,0,0,0,0,0,0,0,0,0,0,0,0,0,0,0,0,0,0,0,0,0,0,0,0,0,0,0,0,0,0,0,0,0,0,0,0,0,0,0,0,0,0,0,0,0,0,0,0,0,0,0,0,0,0],"sum_hessian":[1.952E3,1.174E3,7.78E2,5.56E2,6.18E2,5.37E2,2.41E2,1.6E2,3.96E2,7.6E1,5.42E2,2.83E2,2.54E2,5.3E1,1.88E2,1.55E2,5E0,2.98E2,9.8E1,7E0,6.9E1,1.22E2,4.2E2,2.5E1,2.58E2,1.81E2,7.3E1,1.8E1,3.5E1,1.37E2,5.1E1,5.6E1,9.9E1,2E0,3E0,9.9E1,1.99E2,7.4E1,2.4E1,6E0,1E0,4.3E1,2.6E1,6.7E1,5.5E1,9.8E1,3.22E2,1.6E1,9E0,1.03E2,1.55E2,1.61E2,2E1,4E0,6.9E1,9E0,9E0,2.7E1,8E0,9.8E1,3.9E1,3E0,4.8E1],"tree_param":{"num_deleted":"0","num_feature":"8","num_nodes":"63","size_leaf_vector":"1"}},{"base_weights":[6.455922E-4,-1.7561685E-1,2.6650918E-1,-4.992096E-2,-2.654578E-1,4.0480995E-1,4.4339553E-2,-1.8716061E-1,4.424976E-2,-3.154254E-1,-1.8701199E-1,3.1434527E-1,6.434193E-1,-1.3265633E-2,3.0700883E-1,-2.7290928E-1,-9.8682836E-2,-1.2690244E-2,2.216643E-1,-1.6326848E-1,-3.324828E-1,-1.3333292E-1,-2.7089384E-1,6.072079E-2,3.5252294E-1,2.7130103E-1,7.0412415E-1,3.4199306E-1,-4.6072535E-2,5.149028E-1,1.4799108E-1,-2.8751446E-2,3.0003095E-2,-1.2971873E-2,4.0916603E-2,-1.2165467E-2,5.580341E-3,5.5141788E-2,1.3099817E-2,-3.223361E-2,-1.18966345E-2,-4.1794054E-2,-3.0019825E-2,-1.9831076E-2,-1.8234825E-3,-1.6757032E-2,-3.328528E-2,-8.045371E-3,3.3927478E-2,2.5832085E-2,4.2927936E-2,4.5926888E-2,-2.4383537E-2,7.181089E-2,1.4701033E-2,1.3695337E-2,5.5384137E-2,1.1696501E-2,-1.3220605E-2,2.1257909E-2,6.619701E-2,2.8757483E-2,-2.9375474E-3],"categories":[],"categories_nodes":[],"categories_segments":[],"categories_sizes":[],"default_left":[0,0,0,0,0,0,0,0,0,0,0,0,0,0,0,0,0,0,0,0,0,0,0,0,0,0,0,0,0,0,0,0,0,0,0,0,0,0,0,0,0,0,0,0,0,0,0,0,0,0,0,0,0,0,0,0,0,0,0,0,0,0,0],"id":6,"left_children":[1,3,5,7,9,11,13,15,17,19,21,23,25,27,29,31,33,35,37,39,41,43,45,47,49,51,53,55,57,59,61,-1,-1,-1,-1,-1,-1,-1,-1,-1,-1,-1,-1,-1,-1,-1,-1,-1,-1,-1,-1,-1,-1,-1,-1,-1,-1,-1,-1,-1,-1,-1,-1],"loss_changes":[9.1567825E1,1.3255604E1,2.3917778E1,6.3539443E0,2.6260338E0,1.0158897E1,4.5434065E0,1.4904385E0,2.9525924E0,1.0279999E0,1.175107E0,3.3675728E0,2.768177E0,2.894526E0,1.7089753E0,9.314208E-1,1.629231E0,1.6636572E0,2.0504868E0,2.7172244E-1,9.0639114E-1,1.2378688E0,6.1001205E-1,1.8755575E0,2.0872116E0,2.0485673E0,7.670326E-1,8.3633304E-1,3.2032235E0,8.8190365E-1,8.0068713E-1,0E0,0E0,0E0,0E0,0E0,0E0,0E0,0E0,0E0,0E0,0E0,0E0,0E0,0E0,0E0,0E0,0E0,0E0,0E0,0E0,0E0,0E0,0E0,0E0,0E0,0E0,0E0,0E0,0E0,0E0,0E0,0E0],"parents":[2147483647,0,0,1,1,2,2,3,3,4,4,5,5,6,6,7,7,8,8,9,9,10,10,11,11,12,12,13,13,14,14,15,15,16,16,17,17,18,18,19,19,20,20,21,21,22,22,23,23,24,24,25,25,26,26,27,27,28,28,29,29,30,30],"right_children":[2,4,6,8,10,12,14,16,18,20,22,24,26,28,30,32,34,36,38,40,42,44,46,48,50,52,54,56,58,60,62,-1,-1,-1,-1,-1,-1,-1,-1,-1,-1,-1,-1,-1,-1,-1,-1,-1,-1,-1,-1,-1,-1,-1,-1,-1,-1,-1,-1,-1,-1,-1,-1],"split_conditions":[5.166E0,2.3499347E2,2.1048608E2,2.73E0,2.94E0,1.6044E1,1.604775E1,9.450655E1,5.334E0,1.1753876E1,1.8272436E1,4.499987E1,5.56196E1,1.0163227E1,1.3797912E1,2.4906E1,1.5645665E1,8.961805E1,3.486E0,-1.0568919E1,-6.3147507E0,3E-1,2.8216498E2,1.2420665E1,8.064E0,1.5646544E1,2.21E1,6.846E0,2.473327E2,6.006E0,8.064E0,-2.8751446E-2,3.0003095E-2,-1.2971873E-2,4.0916603E-2,-1.2165467E-2,5.580341E-3,5.5141788E-2,1.3099817E-2,-3.223361E-2,-1.18966345E-2,-4.1794054E-2,-3.0019825E-2,-1.9831076E-2,-1.8234825E-3,-1.6757032E-2,-3.328528E-2,-8.045371E-3,3.3927478E-2,2.5832085E-2,4.2927936E-2,4.5926888E-2,-2.4383537E-2,7.181089E-2,1.4701033E-2,1.3695337E-2,5.5384137E-2,1.1696501E-2,-1.3220605E-2,2.1257909E-2,6.619701E-2,2.8757483E-2,-2.9375474E-3],"split_indices":[0,7,7,0,0,0,4,7,2,6,6,7,7,6,6,2,4,7,1,4,4,5,7,4,0,6,5,0,7,2,2,0,0,0,0,0,0,0,0,0,0,0,0,0,0,0,0,0,0,0,0,0,0,0,0,0,0,0,0,0,0,0,0],"split_type":[0,0,0,0,0,0,0,0,0,0,0,0,0,0,0,0,0,0,0,0,0,0,0,0,0,0,0,0,0,0,0,0,0,0,0,0,0,0,0,0,0,0,0,0,0,0,0,0,0,0,0,0,0,0,0,0,0,0,0,0,0,0,0],"sum_hessian":[1.952E3,1.174E3,7.78E2,4.9E2,6.84E2,4.79E2,2.99E2,1.99E2,2.91E2,4.16E2,2.68E2,3.49E2,1.3E2,2.46E2,5.3E1,1E2,9.9E1,2.21E2,7E1,4.3E1,3.73E2,1.65E2,1.03E2,4.6E1,3.03E2,1.9E1,1.11E2,2E1,2.26E2,2.2E1,3.1E1,9.8E1,2E0,9.4E1,5E0,8.5E1,1.36E2,1.4E1,5.6E1,8E0,3.5E1,9.9E1,2.74E2,1.05E2,6E1,4E1,6.3E1,3.1E1,1.5E1,1.38E2,1.65E2,1.4E1,5E0,1.08E2,3E0,1.1E1,9E0,7.8E1,1.48E2,8E0,1.4E1,1.7E1,1.4E1],"tree_param":{"num_deleted":"0","num_feature":"8","num_nodes":"63","size_leaf_vector":"1"}},{"base_weights":[7.2784873E-4,-1.4991428E-1,2.5386348E-1,-4.5777358E-2,-2.4534222E-1,3.5729572E-1,6.557752E-3,-1.7259364E-1,3.466678E-2,-2.85249E-1,-1.6187258E-1,2.7940848E-1,5.674856E-1,1.462426E-1,-1.1069104E-1,-1.8143588E-1,3.6793044E-1,-1.2651377E-2,1.8329331E-1,-2.8927588E-1,2.1694177E-1,1.916023E-1,-1.7507024E-1,2.5958565E-1,6.392499E-1,2.4524814E-1,6.1687434E-1,8.330958E-2,4.449013E-1,-1.4763843E-1,2.62128E-1,-2.5154917E-2,-1.2435045E-2,4.933722E-2,-4.197359E-4,-7.216533E-3,9.327901E-3,4.5116775E-2,9.122468E-3,-3.592155E-2,-2.5329461E-2,-4.276097E-4,2.9210642E-2,2.7548237E-2,-4.0025236E-3,-1.830143E-2,4.1288935E-2,1.9821182E-2,3.4377847E-2,6.9571584E-2,-1.8856818E-2,4.1640382E-2,-2.2351576E-2,5.3295642E-2,7.580344E-2,3.787255E-2,2.3036264E-3,1.3379603E-2,6.492954E-2,-1.663446E-2,2.7097745E-2,-1.7336825E-3,4.9790483E-2],"categories":[],"categories_nodes":[],"categories_segments":[],"categories_sizes":[],"default_left":[0,0,0,0,0,0,0,0,0,0,0,0,0,0,0,0,0,0,0,0,0,0,0,0,0,0,0,0,0,0,0,0,0,0,0,0,0,0,0,0,0,0,0,0,0,0,0,0,0,0,0,0,0,0,0,0,0,0,0,0,0,0,0],"id":7,"left_children":[1,3,5,7,9,11,13,15,17,19,21,23,25,27,29,31,33,35,37,39,41,43,45,47,49,51,53,55,57,59,61,-1,-1,-1,-1,-1,-1,-1,-1,-1,-1,-1,-1,-1,-1,-1,-1,-1,-1,-1,-1,-1,-1,-1,-1,-1,-1,-1,-1,-1,-1,-1,-1],"loss_changes":[7.451159E1,1.2162298E1,1.8645035E1,5.994338E0,2.0823364E0,8.256187E0,3.55381E0,1.1564684E0,2.534103E0,9.343529E-1,1.0085373E0,2.5232315E0,2.0449715E0,1.823689E0,1.6641138E0,8.692703E-1,1.8879223E-1,1.7341197E0,2.1045089E0,9.86084E-1,6.7760125E-2,1.6645768E-1,1.0190616E0,1.7868958E0,1.0193152E0,1.697705E0,1.0056572E0,1.4691484E0,9.9412394E-1,8.9079094E-1,7.334367E-1,0E0,0E0,0E0,0E0,0E0,0E0,0E0,0E0,0E0,0E0,0E0,0E0,0E0,0E0,0E0,0E0,0E0,0E0,0E0,0E0,0E0,0E0,0E0,0E0,0E0,0E0,0E0,0E0,0E0,0E0,0E0,0E0],"parents":[2147483647,0,0,1,1,2,2,3,3,4,4,5,5,6,6,7,7,8,8,9,9,10,10,11,11,12,12,13,13,14,14,15,15,16,16,17,17,18,18,19,19,20,20,21,21,22,22,23,23,24,24,25,25,26,26,27,27,28,28,29,29,30,30],"right_children":[2,4,6,8,10,12,14,16,18,20,22,24,26,28,30,32,34,36,38,40,42,44,46,48,50,52,54,56,58,60,62,-1,-1,-1,-1,-1,-1,-1,-1,-1,-1,-1,-1,-1,-1,-1,-1,-1,-1,-1,-1,-1,-1,-1,-1,-1,-1,-1,-1,-1,-1,-1,-1],"split_conditions":[5.586E0,2.4928273E2,2.2862158E2,2.73E0,3.15E0,1.6044E1,1.433234E1,1.7491497E1,5.586E0,1.5714416E1,9.779817E0,1.8710249E1,5.56196E1,1.575E1,2.31E1,9.450655E1,1.8212332E1,4.158E0,3.486E0,1.974E0,1.386E0,1.0269166E0,1.6364416E1,8.946E0,1.9446E1,1.5646544E1,2.604E1,2.4623654E2,1E-1,1.7862331E1,1.4851916E1,-2.5154917E-2,-1.2435045E-2,4.933722E-2,-4.197359E-4,-7.216533E-3,9.327901E-3,4.5116775E-2,9.122468E-3,-3.592155E-2,-2.5329461E-2,-4.276097E-4,2.9210642E-2,2.7548237E-2,-4.0025236E-3,-1.830143E-2,4.1288935E-2,1.9821182E-2,3.4377847E-2,6.9571584E-2,-1.8856818E-2,4.1640382E-2,-2.2351576E-2,5.3295642E-2,7.580344E-2,3.787255E-2,2.3036264E-3,1.3379603E-2,6.492954E-2,-1.663446E-2,2.7097745E-2,-1.7336825E-3,4.9790483E-2],"split_indices":[0,7,7,0,0,0,6,4,2,4,6,4,7,0,0,7,4,0,1,0,0,4,4,0,1,6,0,7,5,4,4,0,0,0,0,0,0,0,0,0,0,0,0,0,0,0,0,0,0,0,0,0,0,0,0,0,0,0,0,0,0,0,0],"split_type":[0,0,0,0,0,0,0,0,0,0,0,0,0,0,0,0,0,0,0,0,0,0,0,0,0,0,0,0,0,0,0,0,0,0,0,0,0,0,0,0,0,0,0,0,0,0,0,0,0,0,0,0,0,0,0,0,0,0,0,0,0,0,0],"sum_hessian":[1.952E3,1.224E3,7.28E2,5.86E2,6.38E2,5.13E2,2.15E2,2.27E2,3.59E2,4.3E2,2.08E2,3.76E2,1.37E2,9.8E1,1.17E2,2.24E2,3E0,2.73E2,8.6E1,4.27E2,3E0,7E0,2.01E2,3.58E2,1.8E1,1.9E1,1.18E2,8.2E1,1.6E1,1.07E2,1E1,9.9E1,1.25E2,2E0,1E0,1.75E2,9.8E1,2.1E1,6.5E1,1.42E2,2.85E2,1E0,2E0,5E0,2E0,1.99E2,2E0,2.09E2,1.49E2,1.7E1,1E0,1.4E1,5E0,7.7E1,4.1E1,1.3E1,6.9E1,7E0,9E0,1.03E2,4E0,5E0,5E0],"tree_param":{"num_deleted":"0","num_feature":"8","num_nodes":"63","size_leaf_vector":"1"}},{"base_weights":[9.1727043E-4,-1.3485609E-1,2.2906741E-1,-4.1084304E-2,-2.2078596E-1,3.4842342E-1,5.1284123E-2,-1.5528457E-1,3.135665E-2,-2.567994E-1,-1.4546262E-1,2.3847617E-1,4.746075E-1,9.60943E-2,-2.2757122E-1,-1.7150861E-1,1.2622914E-1,-1.9282153E-2,1.6321036E-1,-1.8124065E-1,-2.8470576E-1,5.297443E-3,-1.7478342E-1,2.79587E-3,2.7832857E-1,2.3523535E-1,5.3225964E-1,3.5623845E-2,2.8683487E-1,-3.4283337E-1,-8.94043E-2,-2.4687318E-2,-1.1975301E-2,-1.38286995E-2,3.7271254E-2,-3.2615045E-3,3.1863492E-2,1.0588098E-2,4.020419E-2,-2.674458E-2,-8.596547E-3,-2.8818358E-2,1.7072765E-2,-2.8938043E-3,2.7785698E-2,-1.8348664E-2,3.8536336E-2,-1.41027225E-2,2.039618E-2,3.4171887E-2,1.9951059E-2,2.9802622E-4,3.6911406E-2,2.8480148E-2,5.7964165E-2,1.2282052E-3,4.6388466E-2,-8.644976E-3,3.3682454E-2,-4.2708855E-2,-2.1975195E-2,2.4011785E-2,-1.6167985E-2],"categories":[],"categories_nodes":[],"categories_segments":[],"categories_sizes":[],"default_left":[0,0,0,0,0,0,0,0,0,0,0,0,0,0,0,0,0,0,0,0,0,0,0,0,0,0,0,0,0,0,0,0,0,0,0,0,0,0,0,0,0,0,0,0,0,0,0,0,0,0,0,0,0,0,0,0,0,0,0,0,0,0,0],"id":8,"left_children":[1,3,5,7,9,11,13,15,17,19,21,23,25,27,29,31,33,35,37,39,41,43,45,47,49,51,53,55,57,59,61,-1,-1,-1,-1,-1,-1,-1,-1,-1,-1,-1,-1,-1,-1,-1,-1,-1,-1,-1,-1,-1,-1,-1,-1,-1,-1,-1,-1,-1,-1,-1,-1],"loss_changes":[6.0528416E1,9.861731E0,1.5451153E1,4.860989E0,1.6960297E0,5.9357033E0,3.6955626E0,1.0629916E0,2.406836E0,8.571949E-1,9.2479086E-1,2.2064428E0,2.6624527E0,2.9194603E0,6.222913E-1,8.129525E-1,8.991261E-1,1.1863045E0,1.3266377E0,9.5438147E-1,5.449619E-1,3.3463293E-1,9.238477E-1,1.0413948E0,9.360781E-1,1.2737541E0,1.7343788E0,1.9335994E0,1.1674013E0,1.3429213E-1,5.1515007E-1,0E0,0E0,0E0,0E0,0E0,0E0,0E0,0E0,0E0,0E0,0E0,0E0,0E0,0E0,0E0,0E0,0E0,0E0,0E0,0E0,0E0,0E0,0E0,0E0,0E0,0E0,0E0,0E0,0E0,0E0,0E0,0E0],"parents":[2147483647,0,0,1,1,2,2,3,3,4,4,5,5,6,6,7,7,8,8,9,9,10,10,11,11,12,12,13,13,14,14,15,15,16,16,17,17,18,18,19,19,20,20,21,21,22,22,23,23,24,24,25,25,26,26,27,27,28,28,29,29,30,30],"right_children":[2,4,6,8,10,12,14,16,18,20,22,24,26,28,30,32,34,36,38,40,42,44,46,48,50,52,54,56,58,60,62,-1,-1,-1,-1,-1,-1,-1,-1,-1,-1,-1,-1,-1,-1,-1,-1,-1,-1,-1,-1,-1,-1,-1,-1,-1,-1,-1,-1,-1,-1,-1,-1],"split_conditions":[5.586E0,2.4928273E2,2.0686707E2,2.73E0,3.15E0,1.092E1,2.1068459E1,1.5645665E1,1.0701917E1,1.3779114E1,1.2261157E1,4.499987E1,5.9796844E1,1.5868581E1,9.24E0,2.1E0,5E-1,8.736E0,5.499999E0,-5.598084E0,1.5714416E1,8.736E0,1.6364416E1,7.637333E0,6.51E0,9.87E0,1.1081666E0,2.31E1,2.688E0,5.586E0,9.87E0,-2.4687318E-2,-1.1975301E-2,-1.38286995E-2,3.7271254E-2,-3.2615045E-3,3.1863492E-2,1.0588098E-2,4.020419E-2,-2.674458E-2,-8.596547E-3,-2.8818358E-2,1.7072765E-2,-2.8938043E-3,2.7785698E-2,-1.8348664E-2,3.8536336E-2,-1.41027225E-2,2.039618E-2,3.4171887E-2,1.9951059E-2,2.9802622E-4,3.6911406E-2,2.8480148E-2,5.7964165E-2,1.2282052E-3,4.6388466E-2,-8.644976E-3,3.3682454E-2,-4.2708855E-2,-2.1975195E-2,2.4011785E-2,-1.6167985E-2],"split_indices":[0,7,7,0,0,0,6,4,4,6,6,7,7,4,0,0,5,1,5,4,4,2,4,4,1,1,4,0,2,1,0,0,0,0,0,0,0,0,0,0,0,0,0,0,0,0,0,0,0,0,0,0,0,0,0,0,0,0,0,0,0,0,0],"split_type":[0,0,0,0,0,0,0,0,0,0,0,0,0,0,0,0,0,0,0,0,0,0,0,0,0,0,0,0,0,0,0,0,0,0,0,0,0,0,0,0,0,0,0,0,0,0,0,0,0,0,0,0,0,0,0,0,0,0,0,0,0,0,0],"sum_hessian":[1.952E3,1.224E3,7.28E2,5.86E2,6.38E2,4.35E2,2.93E2,2.27E2,3.59E2,4.3E2,2.08E2,2.34E2,2.01E2,2.53E2,4E1,2.15E2,1.2E1,2.6E2,9.9E1,1.18E2,3.12E2,3.4E1,1.74E2,3.4E1,2E2,4E1,1.61E2,1.93E2,6E1,2.1E1,1.9E1,8.6E1,1.29E2,6E0,6E0,2.51E2,9E0,8.1E1,1.8E1,6.1E1,5.7E1,3.1E2,2E0,3.1E1,3E0,1.72E2,2E0,2E1,1.4E1,1.09E2,9.1E1,1.5E1,2.5E1,2.7E1,1.34E2,1.84E2,9E0,7E0,5.3E1,1.1E1,1E1,3E0,1.6E1],"tree_param":{"num_deleted":"0","num_feature":"8","num_nodes":"63","size_leaf_vector":"1"}},{"base_weights":[9.6075295E-4,-9.9968284E-2,2.5220025E-1,-3.1957432E-4,-1.838202E-1,3.3706027E-1,3.0273864E-2,-7.60358E-2,1.20643005E-1,-4.7228646E-2,-2.0429944E-1,2.6908657E-1,4.666247E-1,5.0825393E-1,-2.44773E-3,-1.5687321E-1,2.7566683E-3,-8.5412055E-2,1.5522756E-1,-1.1210169E-1,3.1363662E-2,-3.0859664E-1,-1.77788E-1,3.0245763E-1,9.232354E-2,1.9760597E-1,5.079167E-1,-3.839286E-2,6.497147E-1,-3.0979274E-2,3.531222E-1,-3.3277187E-2,-1.30082965E-2,-4.247138E-3,2.9412422E-2,-1.4639543E-3,-2.9610297E-2,1.6641615E-2,-2.547854E-2,-1.7246908E-2,-3.8135413E-3,1.5191989E-2,-3.1870634E-3,-3.356093E-2,-2.4488177E-2,-1.1969342E-2,-2.2860825E-2,1.3824101E-2,3.5866316E-2,1.8931702E-2,-7.2861235E-3,6.0580786E-2,2.1151488E-3,4.3543287E-2,6.304364E-2,2.0380229E-2,-2.6139159E-2,9.166407E-3,7.1634136E-2,-1.2481101E-2,4.3757292E-3,1.2438099E-3,6.349526E-2],"categories":[],"categories_nodes":[],"categories_segments":[],"categories_sizes":[],"default_left":[0,0,0,0,0,0,0,0,0,0,0,0,0,0,0,0,0,0,0,0,0,0,0,0,0,0,0,0,0,0,0,0,0,0,0,0,0,0,0,0,0,0,0,0,0,0,0,0,0,0,0,0,0,0,0,0,0,0,0,0,0,0,0],"id":9,"left_children":[1,3,5,7,9,11,13,15,17,19,21,23,25,27,29,31,33,35,37,39,41,43,45,47,49,51,53,55,57,59,61,-1,-1,-1,-1,-1,-1,-1,-1,-1,-1,-1,-1,-1,-1,-1,-1,-1,-1,-1,-1,-1,-1,-1,-1,-1,-1,-1,-1,-1,-1,-1,-1],"loss_changes":[4.9548134E1,1.1647836E1,1.05360985E1,5.852506E0,2.1079006E0,3.4412575E0,2.4411259E0,2.503598E0,1.7663331E0,5.133682E-1,1.7645493E0,1.5529461E0,1.4325829E0,7.982354E-1,1.5022484E0,8.709116E-1,2.6480885E0,5.3246576E-1,1.010356E0,2.390061E-1,3.5551304E-1,1.4500237E-1,1.5285435E0,2.0271416E0,7.187551E-1,1.4277672E0,7.822914E-1,2.1529981E-1,2.3178554E-1,9.66196E-1,1.0482688E0,0E0,0E0,0E0,0E0,0E0,0E0,0E0,0E0,0E0,0E0,0E0,0E0,0E0,0E0,0E0,0E0,0E0,0E0,0E0,0E0,0E0,0E0,0E0,0E0,0E0,0E0,0E0,0E0,0E0,0E0,0E0,0E0],"parents":[2147483647,0,0,1,1,2,2,3,3,4,4,5,5,6,6,7,7,8,8,9,9,10,10,11,11,12,12,13,13,14,14,15,15,16,16,17,17,18,18,19,19,20,20,21,21,22,22,23,23,24,24,25,25,26,26,27,27,28,28,29,29,30,30],"right_children":[2,4,6,8,10,12,14,16,18,20,22,24,26,28,30,32,34,36,38,40,42,44,46,48,50,52,54,56,58,60,62,-1,-1,-1,-1,-1,-1,-1,-1,-1,-1,-1,-1,-1,-1,-1,-1,-1,-1,-1,-1,-1,-1,-1,-1,-1,-1,-1,-1,-1,-1,-1,-1],"split_conditions":[7.14E0,2.3710179E2,2.2862158E2,4.158E0,1.1659777E1,1.6044E1,9.957108E0,1.6649999E-1,2.9187601E1,3.36E0,-5.90225E0,2.0696087E1,5.56196E1,-1.5876669E0,1.7862331E1,-9.125167E0,2.5050413E1,1.8044046E1,2.28E1,-4.4272504E0,9.779817E0,1E-1,1.7698677E1,9.097761E1,7.7E0,1.3084402E1,2.604E1,1.4448E1,2.688E0,7.14E0,8.106E0,-3.3277187E-2,-1.30082965E-2,-4.247138E-3,2.9412422E-2,-1.4639543E-3,-2.9610297E-2,1.6641615E-2,-2.547854E-2,-1.7246908E-2,-3.8135413E-3,1.5191989E-2,-3.1870634E-3,-3.356093E-2,-2.4488177E-2,-1.1969342E-2,-2.2860825E-2,1.3824101E-2,3.5866316E-2,1.8931702E-2,-7.2861235E-3,6.0580786E-2,2.1151488E-3,4.3543287E-2,6.304364E-2,2.0380229E-2,-2.6139159E-2,9.166407E-3,7.1634136E-2,-1.2481101E-2,4.3757292E-3,1.2438099E-3,6.349526E-2],"split_indices":[0,7,7,0,6,0,6,4,7,0,4,6,7,4,4,4,6,6,5,4,6,5,6,7,5,6,0,0,2,2,1,0,0,0,0,0,0,0,0,0,0,0,0,0,0,0,0,0,0,0,0,0,0,0,0,0,0,0,0,0,0,0,0],"split_type":[0,0,0,0,0,0,0,0,0,0,0,0,0,0,0,0,0,0,0,0,0,0,0,0,0,0,0,0,0,0,0,0,0,0,0,0,0,0,0,0,0,0,0,0,0,0,0,0,0,0,0,0,0,0,0,0,0,0,0,0,0,0,0],"sum_hessian":[1.952E3,1.393E3,5.59E2,6.37E2,7.56E2,4.04E2,1.55E2,3.92E2,2.45E2,9.9E1,6.57E2,2.67E2,1.37E2,9E0,1.46E2,1.93E2,1.99E2,3.5E1,2.1E2,5.4E1,4.5E1,1.31E2,5.26E2,2.24E2,4.3E1,1.9E1,1.18E2,2E0,7E0,1.36E2,1E1,2.4E1,1.69E2,1.73E2,2.6E1,2.7E1,8E0,2.05E2,5E0,2.9E1,2.5E1,1.5E1,3E1,8.9E1,4.2E1,2.47E2,2.79E2,5.8E1,1.66E2,2.7E1,1.6E1,5E0,1.4E1,7.7E1,4.1E1,1E0,1E0,1E0,6E0,6E1,7.6E1,5E0,5E0],"tree_param":{"num_deleted":"0","num_feature":"8","num_nodes":"63","size_leaf_vector":"1"}},{"base_weights":[9.667551E-4,-9.706538E-2,2.1239154E-1,-1.0351131E-2,-1.7045234E-1,3.1473437E-1,5.3812467E-2,-1.7312156E-1,3.3817146E-2,-1.0803983E-1,-2.0919985E-1,1.1801874E-1,3.6014023E-1,9.549248E-2,-1.8965799E-1,-1.8509127E-1,1.07095994E-1,-1.274716E-1,6.284531E-2,-2.2487871E-1,-5.8264878E-2,-2.1352279E-1,2.1392481E-1,2.1783319E-1,-1.0410044E-1,3.2046834E-1,5.8223414E-1,1.670516E-1,-5.866341E-2,-2.7572635E-1,5.455921E-3,-2.5473608E-2,-1.5440295E-2,-2.2788676E-2,3.3155907E-2,-1.0994859E-2,-5.0553303E-2,1.4231835E-3,1.4356493E-2,-3.0293217E-2,-1.6165365E-2,-7.870953E-3,7.922527E-3,-2.9500201E-2,-1.8588355E-2,-3.736468E-3,3.9390605E-2,-1.1294008E-2,3.3710327E-2,-3.7126478E-2,6.313818E-3,3.581907E-2,1.6923277E-2,-5.968177E-3,5.981795E-2,2.8139373E-2,7.856055E-3,-1.1232589E-2,3.511381E-2,-2.9609883E-2,1.0660673E-2,-1.263203E-2,3.0058846E-2],"categories":[],"categories_nodes":[],"categories_segments":[],"categories_sizes":[],"default_left":[0,0,0,0,0,0,0,0,0,0,0,0,0,0,0,0,0,0,0,0,0,0,0,0,0,0,0,0,0,0,0,0,0,0,0,0,0,0,0,0,0,0,0,0,0,0,0,0,0,0,0,0,0,0,0,0,0,0,0,0,0,0,0],"id":10,"left_children":[1,3,5,7,9,11,13,15,17,19,21,23,25,27,29,31,33,35,37,39,41,43,45,47,49,51,53,55,57,59,61,-1,-1,-1,-1,-1,-1,-1,-1,-1,-1,-1,-1,-1,-1,-1,-1,-1,-1,-1,-1,-1,-1,-1,-1,-1,-1,-1,-1,-1,-1,-1,-1],"loss_changes":[4.049932E1,8.493768E0,1.0029079E1,4.412889E0,1.7258492E0,3.3159447E0,2.4941874E0,4.5921278E-1,2.2693768E0,1.6094644E0,8.5964775E-1,1.6189672E0,2.5007324E0,2.315333E0,6.0605705E-1,2.2996521E-1,5.2670544E-1,4.346503E-1,1.6068217E0,3.6062956E-1,5.599904E-1,9.383087E-1,2.4085513E-1,2.0106397E0,1.0510855E0,1.428379E0,4.9630165E-1,1.4248047E0,1.5128366E0,2.2629309E-1,5.046678E-1,0E0,0E0,0E0,0E0,0E0,0E0,0E0,0E0,0E0,0E0,0E0,0E0,0E0,0E0,0E0,0E0,0E0,0E0,0E0,0E0,0E0,0E0,0E0,0E0,0E0,0E0,0E0,0E0,0E0,0E0,0E0,0E0],"parents":[2147483647,0,0,1,1,2,2,3,3,4,4,5,5,6,6,7,7,8,8,9,9,10,10,11,11,12,12,13,13,14,14,15,15,16,16,17,17,18,18,19,19,20,20,21,21,22,22,23,23,24,24,25,25,26,26,27,27,28,28,29,29,30,30],"right_children":[2,4,6,8,10,12,14,16,18,20,22,24,26,28,30,32,34,36,38,40,42,44,46,48,50,52,54,56,58,60,62,-1,-1,-1,-1,-1,-1,-1,-1,-1,-1,-1,-1,-1,-1,-1,-1,-1,-1,-1,-1,-1,-1,-1,-1,-1,-1,-1,-1,-1,-1,-1,-1],"split_conditions":[6.426E0,2.3844594E2,2.0686707E2,2.226E0,1.4707222E1,5.7625446E1,2.1068459E1,1.5645665E1,3.0256403E1,-7.27725E0,1.5868581E1,1.584409E1,2.31E1,2.9827795E2,1.8000001E0,-5.1730833E0,1.806E0,1.6600002E1,7.7915E0,-1.1256416E1,5.334E0,2.1E0,3.9E0,4.578E0,2.1E0,1.9881649E1,4.983334E-2,1.405845E1,2.2134E1,2.8019936E1,1.302E1,-2.5473608E-2,-1.5440295E-2,-2.2788676E-2,3.3155907E-2,-1.0994859E-2,-5.0553303E-2,1.4231835E-3,1.4356493E-2,-3.0293217E-2,-1.6165365E-2,-7.870953E-3,7.922527E-3,-2.9500201E-2,-1.8588355E-2,-3.736468E-3,3.9390605E-2,-1.1294008E-2,3.3710327E-2,-3.7126478E-2,6.313818E-3,3.581907E-2,1.6923277E-2,-5.968177E-3,5.981795E-2,2.8139373E-2,7.856055E-3,-1.1232589E-2,3.511381E-2,-2.9609883E-2,1.0660673E-2,-1.263203E-2,3.0058846E-2],"split_indices":[0,7,7,0,6,7,6,4,7,4,4,6,0,7,5,4,1,5,4,4,0,0,5,2,5,6,4,6,0,6,0,0,0,0,0,0,0,0,0,0,0,0,0,0,0,0,0,0,0,0,0,0,0,0,0,0,0,0,0,0,0,0,0],"split_type":[0,0,0,0,0,0,0,0,0,0,0,0,0,0,0,0,0,0,0,0,0,0,0,0,0,0,0,0,0,0,0,0,0,0,0,0,0,0,0,0,0,0,0,0,0,0,0,0,0,0,0,0,0,0,0,0,0,0,0,0,0,0,0],"sum_hessian":[1.952E3,1.334E3,6.18E2,6.12E2,7.22E2,3.75E2,2.43E2,1.3E2,4.82E2,2.78E2,4.44E2,7.1E1,3.04E2,2.08E2,3.5E1,1.25E2,5E0,7.3E1,4.09E2,8.2E1,1.96E2,4.4E2,4E0,4.9E1,2.2E1,2.6E2,4.4E1,1.42E2,6.6E1,2.4E1,1.1E1,3.6E1,8.9E1,2E0,3E0,7.1E1,2E0,2.56E2,1.53E2,3.5E1,4.7E1,1.71E2,2.5E1,1.09E2,3.31E2,2E0,2E0,1.3E1,3.6E1,8E0,1.4E1,2.07E2,5.3E1,1E0,4.3E1,6.1E1,8.1E1,5.9E1,7E0,2.3E1,1E0,8E0,3E0],"tree_param":{"num_deleted":"0","num_feature":"8","num_nodes":"63","size_leaf_vector":"1"}},{"base_weights":[8.810332E-4,-8.138743E-2,2.0566918E-1,-1.5281437E-1,-1.0305438E-3,2.9330462E-1,5.9327595E-2,-9.485745E-2,-1.8948573E-1,5.9323438E-2,-1.0477527E-1,1.7748795E-1,3.7340224E-1,2.8884307E-1,1.5154263E-2,-1.5740007E-1,-3.0339394E-2,-1.9255367E-1,2.0149407E-1,1.2791848E-2,1.4806701E-1,1.3624463E-2,-1.349059E-1,-5.8528405E-2,2.157188E-1,3.3919534E-1,6.5859646E-1,2.5323303E-3,4.0803367E-1,-9.892643E-2,8.0067344E-2,-1.6404893E-2,2.1421103E-2,-1.1906159E-2,1.422922E-2,-2.4648162E-2,-1.664613E-2,6.999374E-5,2.6819214E-2,-3.3523478E-3,8.6513525E-3,2.0875912E-2,1.5547615E-3,-1.1719291E-3,2.0143187E-2,-1.4644379E-2,2.4909848E-2,2.3842862E-2,-1.9320646E-2,8.27387E-3,2.7285105E-2,2.960462E-2,5.1689465E-2,6.847349E-2,2.735207E-2,4.1167423E-2,-1.3412967E-2,2.3980837E-2,5.8504462E-2,-1.5479653E-2,1.1565723E-2,1.2721397E-2,-5.618367E-3],"categories":[],"categories_nodes":[],"categories_segments":[],"categories_sizes":[],"default_left":[0,0,0,0,0,0,0,0,0,0,0,0,0,0,0,0,0,0,0,0,0,0,0,0,0,0,0,0,0,0,0,0,0,0,0,0,0,0,0,0,0,0,0,0,0,0,0,0,0,0,0,0,0,0,0,0,0,0,0,0,0,0,0],"id":11,"left_children":[1,3,5,7,9,11,13,15,17,19,21,23,25,27,29,31,33,35,37,39,41,43,45,47,49,51,53,55,57,59,61,-1,-1,-1,-1,-1,-1,-1,-1,-1,-1,-1,-1,-1,-1,-1,-1,-1,-1,-1,-1,-1,-1,-1,-1,-1,-1,-1,-1,-1,-1,-1,-1],"loss_changes":[3.2920116E1,8.000912E0,7.1644363E0,1.5505409E0,4.1199603E0,3.1805477E0,2.1348386E0,1.1573417E0,5.7977295E-1,1.7159278E0,8.651633E-1,1.3209758E0,1.7862606E0,1.1592355E0,1.3260694E0,3.9587522E-1,2.2071657E0,5.8935356E-1,5.338259E-2,9.384577E-1,1.1468861E0,2.4034786E-1,8.9158344E-1,8.8593143E-1,9.271064E-1,1.2731438E0,2.408123E-2,6.7027336E-1,5.743668E-1,7.971759E-1,7.394577E-1,0E0,0E0,0E0,0E0,0E0,0E0,0E0,0E0,0E0,0E0,0E0,0E0,0E0,0E0,0E0,0E0,0E0,0E0,0E0,0E0,0E0,0E0,0E0,0E0,0E0,0E0,0E0,0E0,0E0,0E0,0E0,0E0],"parents":[2147483647,0,0,1,1,2,2,3,3,4,4,5,5,6,6,7,7,8,8,9,9,10,10,11,11,12,12,13,13,14,14,15,15,16,16,17,17,18,18,19,19,20,20,21,21,22,22,23,23,24,24,25,25,26,26,27,27,28,28,29,29,30,30],"right_children":[2,4,6,8,10,12,14,16,18,20,22,24,26,28,30,32,34,36,38,40,42,44,46,48,50,52,54,56,58,60,62,-1,-1,-1,-1,-1,-1,-1,-1,-1,-1,-1,-1,-1,-1,-1,-1,-1,-1,-1,-1,-1,-1,-1,-1,-1,-1,-1,-1,-1,-1,-1,-1],"split_conditions":[7.14E0,3.15E0,2.0686707E2,2.4346936E2,2.558965E2,1.3504114E2,1.1966953E1,2.3524995E-1,1.5714416E1,8.751917E0,1.2429127E1,5.46E0,1.8710249E1,-1.4168333E0,9.24E0,8.316E0,1.6000001E0,1.974E0,1.386E0,1.7000002E0,6.846E0,1.20694E1,1.604775E1,1.0636766E1,4.678987E1,2.226E1,2.0311928E2,2.4346936E2,1.1592E1,1.604775E1,2.9336243E2,-1.6404893E-2,2.1421103E-2,-1.1906159E-2,1.422922E-2,-2.4648162E-2,-1.664613E-2,6.999374E-5,2.6819214E-2,-3.3523478E-3,8.6513525E-3,2.0875912E-2,1.5547615E-3,-1.1719291E-3,2.0143187E-2,-1.4644379E-2,2.4909848E-2,2.3842862E-2,-1.9320646E-2,8.27387E-3,2.7285105E-2,2.960462E-2,5.1689465E-2,6.847349E-2,2.735207E-2,4.1167423E-2,-1.3412967E-2,2.3980837E-2,5.8504462E-2,-1.5479653E-2,1.1565723E-2,1.2721397E-2,-5.618367E-3],"split_indices":[0,0,7,7,7,7,6,4,4,4,6,1,4,4,0,1,5,0,0,5,1,6,4,6,7,0,7,7,0,4,7,0,0,0,0,0,0,0,0,0,0,0,0,0,0,0,0,0,0,0,0,0,0,0,0,0,0,0,0,0,0,0,0],"split_type":[0,0,0,0,0,0,0,0,0,0,0,0,0,0,0,0,0,0,0,0,0,0,0,0,0,0,0,0,0,0,0,0,0,0,0,0,0,0,0,0,0,0,0,0,0,0,0,0,0,0,0,0,0,0,0,0,0,0,0,0,0,0,0],"sum_hessian":[1.952E3,1.393E3,5.59E2,7.37E2,6.56E2,3.49E2,2.1E2,2.87E2,4.5E2,4.15E2,2.41E2,1.44E2,2.05E2,3.3E1,1.77E2,1.45E2,1.42E2,4.47E2,3E0,2.73E2,1.42E2,4.9E1,1.92E2,2E1,1.24E2,1.85E2,2E1,1E1,2.3E1,6.4E1,1.13E2,1.43E2,2E0,9.4E1,4.8E1,1.43E2,3.04E2,1E0,2E0,1.68E2,1.05E2,9.7E1,4.5E1,4.4E1,5E0,1.87E2,5E0,6E0,1.4E1,3.8E1,8.6E1,1.51E2,3.4E1,1.8E1,2E0,2E0,8E0,1.3E1,1E1,5.1E1,1.3E1,8.4E1,2.9E1],"tree_param":{"num_deleted":"0","num_feature":"8","num_nodes":"63","size_leaf_vector":"1"}},{"base_weights":[9.877825E-4,-1.1447113E-1,1.20779894E-1,-1.7589192E-1,-7.525223E-2,1.9127776E-1,-1.993324E-2,-1.8228757E-1,1.4988801E-1,-8.8319555E-3,-1.2179596E-1,1.09374076E-1,2.840466E-1,2.0126883E-2,-1.8430845E-1,-1.5141916E-1,-2.3072447E-1,-1.532352E-1,3.6240898E-2,-5.2638095E-2,1.4903073E-1,-5.2225787E-2,-1.5284884E-1,-1.3224531E-2,1.5338641E-1,2.5851783E-1,4.8198983E-1,2.4331207E-3,3.2959393E-1,-2.0505977E-1,2.9907098E-2,-2.5866434E-2,-1.3968639E-2,-9.656764E-3,-2.4201786E-2,6.649494E-5,-2.0475691E-2,-1.8505214E-2,-2.1058144E-3,7.159471E-3,4.9033336E-2,-6.8751923E-3,2.0548798E-2,-1.5732406E-2,2.6357641E-2,8.0868965E-3,-1.8105157E-2,1.9837048E-2,4.310876E-3,2.3015931E-2,4.0089343E-2,2.8763846E-2,5.539844E-2,8.46364E-3,-5.540941E-3,4.2587355E-2,-1.6538918E-2,-2.9958457E-2,-1.399636E-2],"categories":[],"categories_nodes":[],"categories_segments":[],"categories_sizes":[],"default_left":[0,0,0,0,0,0,0,0,0,0,0,0,0,0,0,0,0,0,0,0,0,0,0,0,0,0,0,0,0,0,0,0,0,0,0,0,0,0,0,0,0,0,0,0,0,0,0,0,0,0,0,0,0,0,0,0,0,0,0],"id":12,"left_children":[1,3,5,7,9,11,13,15,17,19,21,23,25,27,29,31,33,35,-1,37,39,41,43,45,47,49,51,53,55,57,-1,-1,-1,-1,-1,-1,-1,-1,-1,-1,-1,-1,-1,-1,-1,-1,-1,-1,-1,-1,-1,-1,-1,-1,-1,-1,-1,-1,-1],"loss_changes":[2.70259E1,2.3835754E0,9.517069E0,8.3366585E-1,1.8816159E0,4.8241234E0,2.11746E0,5.332289E-1,5.708941E-1,1.750514E0,7.6542425E-1,1.8420143E0,1.3863182E0,1.417388E0,6.9326496E-1,2.595644E-1,1.9783163E-1,3.185293E-2,0E0,8.240656E-1,1.418496E0,4.9113718E-1,5.0177383E-1,1.4516618E0,1.2365928E0,9.8575974E-1,3.0239677E-1,1.1743816E0,7.3763E-1,3.3341432E-1,0E0,0E0,0E0,0E0,0E0,0E0,0E0,0E0,0E0,0E0,0E0,0E0,0E0,0E0,0E0,0E0,0E0,0E0,0E0,0E0,0E0,0E0,0E0,0E0,0E0,0E0,0E0,0E0,0E0],"parents":[2147483647,0,0,1,1,2,2,3,3,4,4,5,5,6,6,7,7,8,8,9,9,10,10,11,11,12,12,13,13,14,14,15,15,16,16,17,17,19,19,20,20,21,21,22,22,23,23,24,24,25,25,26,26,27,27,28,28,29,29],"right_children":[2,4,6,8,10,12,14,16,18,20,22,24,26,28,30,32,34,36,-1,38,40,42,44,46,48,50,52,54,56,58,-1,-1,-1,-1,-1,-1,-1,-1,-1,-1,-1,-1,-1,-1,-1,-1,-1,-1,-1,-1,-1,-1,-1,-1,-1,-1,-1,-1,-1],"split_conditions":[4.2E0,2.226E0,2.2970793E2,1.5714416E1,2.2778206E2,9.24E0,1.9633205E1,3.0651764E2,1.806E0,5.46E0,1.3779114E1,6.485821E1,1.8710249E1,2.2134E1,3.2669675E2,1.386E0,1.097262E1,1.386E0,3.6240898E-2,3.0256403E1,2.5050413E1,1.092E1,2.2134E1,1.6454008E1,6.72E0,2.604E1,1.3504114E2,2.7910394E2,1.8272436E1,4.284E0,2.9907098E-2,-2.5866434E-2,-1.3968639E-2,-9.656764E-3,-2.4201786E-2,6.649494E-5,-2.0475691E-2,-1.8505214E-2,-2.1058144E-3,7.159471E-3,4.9033336E-2,-6.8751923E-3,2.0548798E-2,-1.5732406E-2,2.6357641E-2,8.0868965E-3,-1.8105157E-2,1.9837048E-2,4.310876E-3,2.3015931E-2,4.0089343E-2,2.8763846E-2,5.539844E-2,8.46364E-3,-5.540941E-3,4.2587355E-2,-1.6538918E-2,-2.9958457E-2,-1.399636E-2],"split_indices":[0,0,7,4,7,0,6,7,1,2,6,7,4,0,7,0,6,0,0,7,6,2,1,6,1,0,7,7,6,2,0,0,0,0,0,0,0,0,0,0,0,0,0,0,0,0,0,0,0,0,0,0,0,0,0,0,0,0,0],"split_type":[0,0,0,0,0,0,0,0,0,0,0,0,0,0,0,0,0,0,0,0,0,0,0,0,0,0,0,0,0,0,0,0,0,0,0,0,0,0,0,0,0,0,0,0,0,0,0,0,0,0,0,0,0,0,0,0,0,0,0],"sum_hessian":[1.952E3,9.94E2,9.58E2,3.86E2,6.08E2,6.38E2,3.2E2,3.79E2,7E0,2.51E2,3.57E2,3.4E2,2.98E2,2.58E2,6.2E1,2.34E2,1.45E2,3E0,4E0,1.97E2,5.4E1,1.11E2,2.46E2,9E1,2.5E2,2.66E2,3.2E1,2.45E2,1.3E1,6E1,2E0,2.1E1,2.13E2,1.2E1,1.33E2,1E0,2E0,3.7E1,1.6E2,4.5E1,9E0,1.05E2,6E0,2.44E2,2E0,5.8E1,3.2E1,1.77E2,7.3E1,2.24E2,4.2E1,1E1,2.2E1,1.01E2,1.44E2,1.1E1,2E0,2.3E1,3.7E1],"tree_param":{"num_deleted":"0","num_feature":"8","num_nodes":"59","size_leaf_vector":"1"}},{"base_weights":[9.803039E-4,-7.137523E-2,1.5702821E-1,-1.2464299E-1,-5.517405E-3,2.3393928E-1,3.786598E-2,-1.9616427E-1,-1.0272711E-1,6.1370034E-2,-6.421009E-2,1.4451067E-1,2.980916E-1,7.374989E-2,-1.7151189E-1,-2.4824545E-1,-1.6300277E-1,-3.751487E-2,-1.378894E-1,1.5260014E-2,2.1064706E-1,-7.3576145E-2,3.6375943E-1,1.9979747E-1,1.2497507E-2,2.6990888E-1,5.496196E-1,1.2985376E-1,-4.7094908E-2,-2.4031082E-1,-1.3888121E-2,-2.5076032E-2,-4.3647173E-3,-1.1984753E-2,-2.4958806E-2,-4.844196E-3,2.7068093E-2,-6.244856E-3,-1.6981205E-2,-2.6944068E-3,1.7089989E-2,-2.0288078E-2,2.4059856E-2,1.1770715E-3,-1.0147224E-2,-1.1767586E-3,5.1632375E-2,2.3223976E-2,-2.5478674E-3,-3.647382E-2,1.3450647E-2,2.1430317E-2,3.730624E-2,5.729974E-2,2.1835368E-2,2.2797415E-2,5.4081576E-3,-1.8199174E-2,8.143909E-3,-2.5727442E-2,8.340776E-3,1.1141356E-2,-2.9234488E-2],"categories":[],"categories_nodes":[],"categories_segments":[],"categories_sizes":[],"default_left":[0,0,0,0,0,0,0,0,0,0,0,0,0,0,0,0,0,0,0,0,0,0,0,0,0,0,0,0,0,0,0,0,0,0,0,0,0,0,0,0,0,0,0,0,0,0,0,0,0,0,0,0,0,0,0,0,0,0,0,0,0,0,0],"id":13,"left_children":[1,3,5,7,9,11,13,15,17,19,21,23,25,27,29,31,33,35,37,39,41,43,45,47,49,51,53,55,57,59,61,-1,-1,-1,-1,-1,-1,-1,-1,-1,-1,-1,-1,-1,-1,-1,-1,-1,-1,-1,-1,-1,-1,-1,-1,-1,-1,-1,-1,-1,-1,-1,-1],"loss_changes":[2.2062395E1,4.6826234E0,5.6642113E0,1.1366282E0,2.3515706E0,2.1140537E0,1.8458936E0,2.5659513E-1,1.2949648E0,1.9240724E0,1.3054397E0,1.157978E0,1.3969994E0,1.4231061E0,3.8705897E-1,2.2499561E-2,3.73641E-1,6.866491E-1,8.7563944E-1,1.4168618E0,8.662741E-1,7.463987E-1,4.0712005E-1,8.244667E-1,2.258314E0,1.0557642E0,3.7513256E-2,1.0508466E0,1.1765227E0,1.5874445E-1,4.5126435E-1,0E0,0E0,0E0,0E0,0E0,0E0,0E0,0E0,0E0,0E0,0E0,0E0,0E0,0E0,0E0,0E0,0E0,0E0,0E0,0E0,0E0,0E0,0E0,0E0,0E0,0E0,0E0,0E0,0E0,0E0,0E0,0E0],"parents":[2147483647,0,0,1,1,2,2,3,3,4,4,5,5,6,6,7,7,8,8,9,9,10,10,11,11,12,12,13,13,14,14,15,15,16,16,17,17,18,18,19,19,20,20,21,21,22,22,23,23,24,24,25,25,26,26,27,27,28,28,29,29,30,30],"right_children":[2,4,6,8,10,12,14,16,18,20,22,24,26,28,30,32,34,36,38,40,42,44,46,48,50,52,54,56,58,60,62,-1,-1,-1,-1,-1,-1,-1,-1,-1,-1,-1,-1,-1,-1,-1,-1,-1,-1,-1,-1,-1,-1,-1,-1,-1,-1,-1,-1,-1,-1,-1,-1],"split_conditions":[6.426E0,3.15E0,2.0686707E2,-6.3147507E0,2.136901E2,1.3504114E2,2.1068459E1,-1.1256416E1,1.5596767E1,1.9354716E2,1.6364416E1,1.624394E1,1.8710249E1,2.9827795E2,1.8000001E0,3.557308E2,1.6394829E1,1.6428997E1,2.1642384E2,6.426E0,3.36E0,1.2904882E1,3.024E0,1.21759476E2,8E-1,1.638E1,2.0311928E2,1.405845E1,7.686E0,2.8019936E1,1.4262333E1,-2.5076032E-2,-4.3647173E-3,-1.1984753E-2,-2.4958806E-2,-4.844196E-3,2.7068093E-2,-6.244856E-3,-1.6981205E-2,-2.6944068E-3,1.7089989E-2,-2.0288078E-2,2.4059856E-2,1.1770715E-3,-1.0147224E-2,-1.1767586E-3,5.1632375E-2,2.3223976E-2,-2.5478674E-3,-3.647382E-2,1.3450647E-2,2.1430317E-2,3.730624E-2,5.729974E-2,2.1835368E-2,2.2797415E-2,5.4081576E-3,-1.8199174E-2,8.143909E-3,-2.5727442E-2,8.340776E-3,1.1141356E-2,-2.9234488E-2],"split_indices":[0,0,7,4,7,7,6,4,6,7,4,6,4,7,5,7,6,4,7,2,0,6,2,7,5,0,7,6,2,6,4,0,0,0,0,0,0,0,0,0,0,0,0,0,0,0,0,0,0,0,0,0,0,0,0,0,0,0,0,0,0,0,0],"split_type":[0,0,0,0,0,0,0,0,0,0,0,0,0,0,0,0,0,0,0,0,0,0,0,0,0,0,0,0,0,0,0,0,0,0,0,0,0,0,0,0,0,0,0,0,0,0,0,0,0,0,0,0,0,0,0,0,0,0,0,0,0,0,0],"sum_hessian":[1.952E3,1.334E3,6.18E2,7.37E2,5.97E2,3.75E2,2.43E2,1.71E2,5.66E2,2.79E2,3.18E2,1.58E2,2.17E2,2.08E2,3.5E1,6.4E1,1.07E2,1.99E2,3.67E2,2.14E2,6.5E1,3.12E2,6E0,1.11E2,4.7E1,1.97E2,2E1,1.42E2,6.6E1,2.4E1,1.1E1,6.3E1,1E0,7.3E1,3.4E1,1.93E2,6E0,1.1E2,2.57E2,1.69E2,4.5E1,4E0,6.1E1,7.7E1,2.35E2,2E0,4E0,9.7E1,1.4E1,1.1E1,3.6E1,1.3E2,6.7E1,1.8E1,2E0,6.1E1,8.1E1,3.2E1,3.4E1,2.3E1,1E0,8E0,3E0],"tree_param":{"num_deleted":"0","num_feature":"8","num_nodes":"63","size_leaf_vector":"1"}},{"base_weights":[9.3884347E-4,-9.346539E-2,9.82861E-2,-1.4518224E-1,-6.028406E-2,1.4810644E-1,-3.6089998E-2,-1.5138935E-1,1.039647E-1,-6.3494265E-2,6.0613245E-2,1.3067576E-1,4.0580434E-1,-5.481338E-2,3.944245E-1,-2.4684535E-1,-1.3872269E-1,-4.3400783E-2,3.358631E-1,-9.467047E-3,-1.0110462E-1,7.90899E-2,1.9809338E-1,3.1682962E-1,5.738338E-1,2.3440447E-1,-6.778675E-2,-1.0622919E-3,4.3599153E-1,1.6740728E-3,-2.7430907E-2,-1.155529E-2,-1.7740367E-2,-1.5510723E-2,7.915586E-3,8.396101E-3,3.9184347E-2,-7.937089E-3,5.2098488E-3,-4.1976734E-3,-1.2772183E-2,1.8932803E-2,3.994449E-3,2.1650432E-2,-2.1044577E-3,3.5622325E-2,4.0738177E-3,5.7036877E-3,6.0919996E-2,2.8294092E-2,-1.2547994E-2,-8.145493E-3,1.998355E-2,6.287501E-2,2.6355928E-2],"categories":[],"categories_nodes":[],"categories_segments":[],"categories_sizes":[],"default_left":[0,0,0,0,0,0,0,0,0,0,0,0,0,0,0,0,0,0,0,0,0,0,0,0,0,0,0,0,0,0,0,0,0,0,0,0,0,0,0,0,0,0,0,0,0,0,0,0,0,0,0,0,0,0,0],"id":14,"left_children":[1,3,5,7,9,11,13,15,17,19,-1,21,23,25,27,29,31,33,35,37,39,41,43,45,47,49,51,-1,53,-1,-1,-1,-1,-1,-1,-1,-1,-1,-1,-1,-1,-1,-1,-1,-1,-1,-1,-1,-1,-1,-1,-1,-1,-1,-1],"loss_changes":[1.7957243E1,1.693553E0,6.44561E0,6.1422825E-1,1.334923E0,3.1002493E0,2.1254594E0,4.2280006E-1,3.5631493E-1,1.2263603E0,0E0,2.2762012E0,4.760089E-1,9.576745E-1,1.8983436E-1,3.1587148E-1,2.8063393E-1,1.0811022E-1,2.350673E-2,1.0757482E0,5.5491877E-1,1.610681E0,1.1543999E0,3.226514E-1,2.2113276E-1,2.27646E-1,8.9783335E-1,0E0,1.6666496E-1,0E0,0E0,0E0,0E0,0E0,0E0,0E0,0E0,0E0,0E0,0E0,0E0,0E0,0E0,0E0,0E0,0E0,0E0,0E0,0E0,0E0,0E0,0E0,0E0,0E0,0E0],"parents":[2147483647,0,0,1,1,2,2,3,3,4,4,5,5,6,6,7,7,8,8,9,9,11,11,12,12,13,13,14,14,15,15,16,16,17,17,18,18,19,19,20,20,21,21,22,22,23,23,24,24,25,25,26,26,28,28],"right_children":[2,4,6,8,10,12,14,16,18,20,-1,22,24,26,28,30,32,34,36,38,40,42,44,46,48,50,52,-1,54,-1,-1,-1,-1,-1,-1,-1,-1,-1,-1,-1,-1,-1,-1,-1,-1,-1,-1,-1,-1,-1,-1,-1,-1,-1,-1],"split_conditions":[4.158E0,2.226E0,2.473327E2,1.5645665E1,2.898E1,1.8710249E1,2.2134E1,1.386E0,6E-1,2.2778206E2,6.0613245E-2,9.24E0,1.0000001E0,8.825508E0,3.444E0,1.097262E1,3.0651764E2,1.6364416E1,1.554E0,3.024E0,1.3779114E1,3.444E0,2.2862158E2,2.2134E1,6.485821E1,1.2E0,1.7099833E1,-1.0622919E-3,1.1592E1,1.6740728E-3,-2.7430907E-2,-1.155529E-2,-1.7740367E-2,-1.5510723E-2,7.915586E-3,8.396101E-3,3.9184347E-2,-7.937089E-3,5.2098488E-3,-4.1976734E-3,-1.2772183E-2,1.8932803E-2,3.994449E-3,2.1650432E-2,-2.1044577E-3,3.5622325E-2,4.0738177E-3,5.7036877E-3,6.0919996E-2,2.8294092E-2,-1.2547994E-2,-8.145493E-3,1.998355E-2,6.287501E-2,2.6355928E-2],"split_indices":[0,0,7,4,1,4,0,0,5,7,0,0,5,6,2,6,7,4,0,2,6,1,7,1,7,5,4,0,2,0,0,0,0,0,0,0,0,0,0,0,0,0,0,0,0,0,0,0,0,0,0,0,0,0,0],"split_type":[0,0,0,0,0,0,0,0,0,0,0,0,0,0,0,0,0,0,0,0,0,0,0,0,0,0,0,0,0,0,0,0,0,0,0,0,0,0,0,0,0,0,0,0,0,0,0,0,0,0,0,0,0,0,0],"sum_hessian":[1.952E3,9.91E2,9.61E2,3.86E2,6.05E2,7.01E2,2.6E2,3.77E2,9E0,6.03E2,2E0,6.58E2,4.3E1,2.5E2,1E1,4.2E1,3.35E2,6E0,3E0,2.48E2,3.55E2,3.74E2,2.84E2,3E1,1.3E1,1E1,2.4E2,1E0,9E0,4E0,3.8E1,2.12E2,1.23E2,3E0,3E0,1E0,2E0,1.16E2,1.32E2,1.11E2,2.44E2,9.7E1,2.77E2,2.62E2,2.2E1,2.6E1,4E0,1E0,1.2E1,9E0,1E0,2.29E2,1.1E1,3E0,6E0],"tree_param":{"num_deleted":"0","num_feature":"8","num_nodes":"55","size_leaf_vector":"1"}},{"base_weights":[9.936665E-4,-5.4140862E-2,1.3823748E-1,-1.0147885E-1,-8.8427274E-4,1.9878714E-1,3.7144504E-2,-1.6720799E-1,-8.3429486E-2,-5.157301E-2,6.035341E-2,1.0821579E-1,2.6157385E-1,2.3683487E-1,-1.2072746E-3,-2.0979439E-1,-1.3598111E-1,-2.9040137E-2,-1.16013065E-1,2.4834898E-1,-6.173774E-2,4.518272E-2,3.249129E-1,-9.830631E-2,1.4204577E-1,4.599168E-1,2.2647858E-1,-2.2613493E-1,2.8893307E-1,-9.019373E-2,4.954121E-2,-1.761152E-2,-2.4105174E-2,-9.9405935E-3,-2.1453222E-2,-4.5682886E-3,1.22064585E-2,-4.9338257E-3,-1.4518595E-2,1.5070899E-2,6.611945E-2,-2.621207E-3,-1.2931413E-2,9.061637E-3,-1.6394705E-3,1.4190935E-2,6.0626727E-2,3.6655866E-2,-1.6653202E-2,1.9289375E-3,1.9958656E-2,5.1480234E-2,8.252864E-3,1.511115E-2,3.342901E-2,-3.400218E-2,-7.4832044E-3,1.4172936E-2,3.6280867E-2,-3.576992E-3,-2.4175687E-2,6.8133557E-3,-2.053241E-2],"categories":[],"categories_nodes":[],"categories_segments":[],"categories_sizes":[],"default_left":[0,0,0,0,0,0,0,0,0,0,0,0,0,0,0,0,0,0,0,0,0,0,0,0,0,0,0,0,0,0,0,0,0,0,0,0,0,0,0,0,0,0,0,0,0,0,0,0,0,0,0,0,0,0,0,0,0,0,0,0,0,0,0],"id":15,"left_children":[1,3,5,7,9,11,13,15,17,19,21,23,25,27,29,31,33,35,37,39,41,43,45,47,49,51,53,55,57,59,61,-1,-1,-1,-1,-1,-1,-1,-1,-1,-1,-1,-1,-1,-1,-1,-1,-1,-1,-1,-1,-1,-1,-1,-1,-1,-1,-1,-1,-1,-1,-1,-1],"loss_changes":[1.4785587E1,3.5142674E0,3.420457E0,8.615904E-1,2.0424802E0,1.9620314E0,1.6162254E0,1.8158674E-1,1.0262785E0,1.1128378E0,1.1813573E0,1.0270265E0,1.3297834E0,8.8541436E-1,8.083035E-1,2.5974035E-2,2.4873817E-1,5.563169E-1,6.989064E-1,3.840748E-1,8.3445346E-1,7.932311E-1,7.3778665E-1,7.270743E-1,8.7908745E-1,5.7890844E-1,1.3876886E0,4.3481126E-2,2.8569698E-1,5.275142E-1,5.5418354E-1,0E0,0E0,0E0,0E0,0E0,0E0,0E0,0E0,0E0,0E0,0E0,0E0,0E0,0E0,0E0,0E0,0E0,0E0,0E0,0E0,0E0,0E0,0E0,0E0,0E0,0E0,0E0,0E0,0E0,0E0,0E0,0E0],"parents":[2147483647,0,0,1,1,2,2,3,3,4,4,5,5,6,6,7,7,8,8,9,9,10,10,11,11,12,12,13,13,14,14,15,15,16,16,17,17,18,18,19,19,20,20,21,21,22,22,23,23,24,24,25,25,26,26,27,27,28,28,29,29,30,30],"right_children":[2,4,6,8,10,12,14,16,18,20,22,24,26,28,30,32,34,36,38,40,42,44,46,48,50,52,54,56,58,60,62,-1,-1,-1,-1,-1,-1,-1,-1,-1,-1,-1,-1,-1,-1,-1,-1,-1,-1,-1,-1,-1,-1,-1,-1,-1,-1,-1,-1,-1,-1,-1,-1],"split_conditions":[7.14E0,3.15E0,2.0686707E2,-6.9980836E0,6E-1,1.3504114E2,1.1966953E1,-1.1256416E1,1.5876775E1,8.654987E0,1.6364416E1,5.46E0,5.166E0,-4.498083E0,9.24E0,3.2277252E2,1.6394829E1,3.2999992E0,2.1642384E2,6.570666E0,2.8104623E2,2.136901E2,6.4999995E0,2.184E0,6E-1,2.7112564E1,1.638E1,8.946E0,9.1233355E-1,1.1046E1,2.5050413E1,-1.761152E-2,-2.4105174E-2,-9.9405935E-3,-2.1453222E-2,-4.5682886E-3,1.22064585E-2,-4.9338257E-3,-1.4518595E-2,1.5070899E-2,6.611945E-2,-2.621207E-3,-1.2931413E-2,9.061637E-3,-1.6394705E-3,1.4190935E-2,6.0626727E-2,3.6655866E-2,-1.6653202E-2,1.9289375E-3,1.9958656E-2,5.1480234E-2,8.252864E-3,1.511115E-2,3.342901E-2,-3.400218E-2,-7.4832044E-3,1.4172936E-2,3.6280867E-2,-3.576992E-3,-2.4175687E-2,6.8133557E-3,-2.053241E-2],"split_indices":[0,0,7,4,5,7,6,4,6,6,4,1,1,4,0,7,6,5,7,4,7,7,5,1,5,6,0,0,4,1,6,0,0,0,0,0,0,0,0,0,0,0,0,0,0,0,0,0,0,0,0,0,0,0,0,0,0,0,0,0,0,0,0],"split_type":[0,0,0,0,0,0,0,0,0,0,0,0,0,0,0,0,0,0,0,0,0,0,0,0,0,0,0,0,0,0,0,0,0,0,0,0,0,0,0,0,0,0,0,0,0,0,0,0,0,0,0,0,0,0,0,0,0,0,0,0,0,0,0],"sum_hessian":[1.952E3,1.393E3,5.59E2,7.37E2,6.56E2,3.49E2,2.1E2,1.57E2,5.8E2,3.59E2,2.97E2,1.44E2,2.05E2,3.3E1,1.77E2,6.4E1,9.3E1,2.18E2,3.62E2,1.1E1,3.48E2,2.82E2,1.5E1,2E1,1.24E2,2.9E1,1.76E2,3E0,3E1,6.4E1,1.13E2,3.4E1,3E1,6.5E1,2.8E1,1.97E2,2.1E1,1.11E2,2.51E2,1E1,1E0,2.29E2,1.19E2,1.62E2,1.2E2,1E1,5E0,2E0,1.8E1,4E1,8.4E1,2.5E1,4E0,1.05E2,7.1E1,1E0,2E0,1.1E1,1.9E1,4.8E1,1.6E1,1.06E2,7E0],"tree_param":{"num_deleted":"0","num_feature":"8","num_nodes":"63","size_leaf_vector":"1"}},{"base_weights":[9.867845E-4,-5.2516308E-2,1.1637554E-1,-1.01302005E-1,-1.3508993E-2,1.6450326E-1,7.6678754E-3,-1.06850676E-1,1.1963007E-1,-6.3239746E-2,3.4163386E-2,-8.237154E-3,1.8476772E-1,3.00679E-1,-1.3655098E-2,-1.4521952E-1,-7.786777E-2,-6.598844E-2,3.4119242E-1,2.3898579E-1,-7.511416E-2,8.134707E-4,1.4161518E-1,2.6855236E-1,-1.02901064E-1,1.5587066E-1,3.1443015E-1,2.0936847E-2,4.2268252E-1,-2.5551958E-2,4.05466E-2,-1.856984E-2,-1.1661423E-2,-1.821803E-2,-6.8409257E-3,-2.829338E-2,3.6415067E-3,4.3578915E-2,-1.1319393E-2,1.6073322E-2,6.2813476E-2,-1.968838E-2,-5.8819405E-3,2.2849883E-3,-2.2466725E-2,6.714988E-3,3.5561632E-2,-1.6061503E-2,3.2216895E-2,-2.9375333E-2,-2.5538614E-3,1.8535437E-2,6.067431E-4,3.3774216E-2,-1.4882499E-2,1.4632828E-2,-2.4031444E-2,4.1622757E-3,5.2561063E-2,1.8606583E-3,-1.06334565E-2],"categories":[],"categories_nodes":[],"categories_segments":[],"categories_sizes":[],"default_left":[0,0,0,0,0,0,0,0,0,0,0,0,0,0,0,0,0,0,0,0,0,0,0,0,0,0,0,0,0,0,0,0,0,0,0,0,0,0,0,0,0,0,0,0,0,0,0,0,0,0,0,0,0,0,0,0,0,0,0,0,0],"id":16,"left_children":[1,3,5,7,9,11,13,15,17,19,21,23,25,27,29,31,33,35,37,39,41,43,45,47,49,51,53,55,57,59,-1,-1,-1,-1,-1,-1,-1,-1,-1,-1,-1,-1,-1,-1,-1,-1,-1,-1,-1,-1,-1,-1,-1,-1,-1,-1,-1,-1,-1,-1,-1],"loss_changes":[1.2063261E1,2.5391357E0,3.237256E0,7.3972845E-1,1.7636526E0,1.503233E0,1.1974486E0,6.325636E-1,6.394057E-1,1.3242563E0,1.3616178E0,1.2329253E0,1.3897858E0,4.3483436E-1,9.0289456E-1,2.6550627E-1,3.151021E-1,2.1024671E-1,3.5021287E-1,3.2536465E-1,6.848761E-1,1.4510503E0,1.41033E0,3.2787097E-1,5.09266E-1,1.3945704E0,7.9542255E-1,1.9895814E-1,3.3111846E-1,6.2624586E-1,0E0,0E0,0E0,0E0,0E0,0E0,0E0,0E0,0E0,0E0,0E0,0E0,0E0,0E0,0E0,0E0,0E0,0E0,0E0,0E0,0E0,0E0,0E0,0E0,0E0,0E0,0E0,0E0,0E0,0E0,0E0],"parents":[2147483647,0,0,1,1,2,2,3,3,4,4,5,5,6,6,7,7,8,8,9,9,10,10,11,11,12,12,13,13,14,14,15,15,16,16,17,17,18,18,19,19,20,20,21,21,22,22,23,23,24,24,25,25,26,26,27,27,28,28,29,29],"right_children":[2,4,6,8,10,12,14,16,18,20,22,24,26,28,30,32,34,36,38,40,42,44,46,48,50,52,54,56,58,60,-1,-1,-1,-1,-1,-1,-1,-1,-1,-1,-1,-1,-1,-1,-1,-1,-1,-1,-1,-1,-1,-1,-1,-1,-1,-1,-1,-1,-1,-1,-1],"split_conditions":[6.426E0,2.73E0,2.2549973E2,1.5714416E1,3E-1,4.678987E1,9.957108E0,2.1E0,6E-1,8.654987E0,1.1956081E1,1.0948973E1,2.121E1,-1.5876669E0,1.9495667E1,-5.1730833E0,-1.1256416E1,6.76894E1,9.24E0,6.570666E0,-5.400167E0,1.0799999E1,7.3E0,5.88E0,4E-1,2.1096123E1,2.21E1,1.4448E1,4.284E0,2.9827795E2,4.05466E-2,-1.856984E-2,-1.1661423E-2,-1.821803E-2,-6.8409257E-3,-2.829338E-2,3.6415067E-3,4.3578915E-2,-1.1319393E-2,1.6073322E-2,6.2813476E-2,-1.968838E-2,-5.8819405E-3,2.2849883E-3,-2.2466725E-2,6.714988E-3,3.5561632E-2,-1.6061503E-2,3.2216895E-2,-2.9375333E-2,-2.5538614E-3,1.8535437E-2,6.067431E-4,3.3774216E-2,-1.4882499E-2,1.4632828E-2,-2.4031444E-2,4.1622757E-3,5.2561063E-2,1.8606583E-3,-1.06334565E-2],"split_indices":[0,0,7,4,5,7,6,0,5,6,4,6,0,4,4,4,4,7,1,4,4,5,5,1,5,6,5,0,2,7,0,0,0,0,0,0,0,0,0,0,0,0,0,0,0,0,0,0,0,0,0,0,0,0,0,0,0,0,0,0,0],"split_type":[0,0,0,0,0,0,0,0,0,0,0,0,0,0,0,0,0,0,0,0,0,0,0,0,0,0,0,0,0,0,0,0,0,0,0,0,0,0,0,0,0,0,0,0,0,0,0,0,0,0,0,0,0,0,0,0,0,0,0,0,0],"sum_hessian":[1.952E3,1.334E3,6.18E2,5.92E2,7.42E2,4.28E2,1.9E2,5.78E2,1.4E1,3.63E2,3.79E2,4.5E1,3.83E2,1.2E1,1.78E2,2.47E2,3.31E2,8E0,6E0,1.3E1,3.5E2,2.9E2,8.9E1,1.1E1,3.4E1,3.15E2,6.8E1,4E0,8E0,1.74E2,4E0,1E2,1.47E2,2.6E1,3.05E2,2E0,6E0,5E0,1E0,1.2E1,1E0,4E1,3.1E2,2.65E2,2.5E1,6.7E1,2.2E1,1E0,1E1,9E0,2.5E1,2.63E2,5.2E1,6.5E1,3E0,3E0,1E0,2E0,6E0,1.13E2,6.1E1],"tree_param":{"num_deleted":"0","num_feature":"8","num_nodes":"61","size_leaf_vector":"1"}},{"base_weights":[9.5421297E-4,-6.9218494E-2,7.3314264E-2,-7.103689E-2,5.539245E-2,1.1165369E-1,-3.008648E-2,-8.878176E-2,-1.7008562E-2,9.680576E-2,3.314977E-1,-4.630379E-2,3.426982E-1,-4.2825572E-2,-1.07958026E-1,-5.4174196E-2,1.5020181E-1,2.2865506E-3,1.2002922E-1,2.5623137E-1,4.744805E-1,-2.0131929E-1,-2.7496135E-2,-8.1816316E-4,3.7860432E-1,-1.3843526E-2,-4.6731444E-4,-8.469872E-3,-1.3522553E-2,-9.1709E-3,5.426946E-4,4.615363E-2,4.806235E-3,8.389429E-3,-1.609809E-2,9.669444E-3,2.0905597E-2,2.9332353E-2,4.687476E-4,4.373205E-3,5.04251E-2,-4.8847226E-3,-4.556371E-2,-4.7154864E-3,1.7636357E-2,5.581699E-2,2.219091E-2],"categories":[],"categories_nodes":[],"categories_segments":[],"categories_sizes":[],"default_left":[0,0,0,0,0,0,0,0,0,0,0,0,0,0,0,0,0,0,0,0,0,0,0,0,0,0,0,0,0,0,0,0,0,0,0,0,0,0,0,0,0,0,0,0,0,0,0],"id":17,"left_children":[1,3,5,7,-1,9,11,13,15,17,19,21,23,25,27,29,31,33,35,37,39,41,43,-1,45,-1,-1,-1,-1,-1,-1,-1,-1,-1,-1,-1,-1,-1,-1,-1,-1,-1,-1,-1,-1,-1,-1],"loss_changes":[9.921824E0,1.163404E0,3.8170404E0,9.476285E-1,0E0,2.2593994E0,1.5937605E0,6.519213E-1,1.5368991E0,1.4462719E0,3.5194206E-1,7.262496E-1,1.416837E-1,8.0550396E-1,3.2151365E-1,4.523955E-1,1.4087964E0,1.7589349E0,1.0787401E0,2.8786445E-1,1.5747833E-1,1.024705E0,9.1003144E-1,0E0,1.5750778E-1,0E0,0E0,0E0,0E0,0E0,0E0,0E0,0E0,0E0,0E0,0E0,0E0,0E0,0E0,0E0,0E0,0E0,0E0,0E0,0E0,0E0,0E0],"parents":[2147483647,0,0,1,1,2,2,3,3,5,5,6,6,7,7,8,8,9,9,10,10,11,11,12,12,13,13,14,14,15,15,16,16,17,17,18,18,19,19,20,20,21,21,22,22,24,24],"right_children":[2,4,6,8,-1,10,12,14,16,18,20,22,24,26,28,30,32,34,36,38,40,42,44,-1,46,-1,-1,-1,-1,-1,-1,-1,-1,-1,-1,-1,-1,-1,-1,-1,-1,-1,-1,-1,-1,-1,-1],"split_conditions":[4.158E0,2.898E1,2.473327E2,1.6E0,5.539245E-2,1.8710249E1,2.2134E1,1.3246826E1,1.1089417E1,5.9796844E1,1.0000001E0,2.226E0,3.444E0,-8.198083E0,2.9588293E2,3.0400002E-1,2.184E0,1.6454008E1,1.6044E1,2.2134E1,6.485821E1,2.9588293E2,1.604775E1,-8.1816316E-4,1.1592E1,-1.3843526E-2,-4.6731444E-4,-8.469872E-3,-1.3522553E-2,-9.1709E-3,5.426946E-4,4.615363E-2,4.806235E-3,8.389429E-3,-1.609809E-2,9.669444E-3,2.0905597E-2,2.9332353E-2,4.687476E-4,4.373205E-3,5.04251E-2,-4.8847226E-3,-4.556371E-2,-4.7154864E-3,1.7636357E-2,5.581699E-2,2.219091E-2],"split_indices":[0,1,7,5,0,4,0,6,4,7,5,2,2,4,7,4,1,6,0,1,7,7,4,0,2,0,0,0,0,0,0,0,0,0,0,0,0,0,0,0,0,0,0,0,0,0,0],"split_type":[0,0,0,0,0,0,0,0,0,0,0,0,0,0,0,0,0,0,0,0,0,0,0,0,0,0,0,0,0,0,0,0,0,0,0,0,0,0,0,0,0,0,0,0,0,0,0],"sum_hessian":[1.952E3,9.91E2,9.61E2,9.89E2,2E0,7.01E2,2.6E2,7.44E2,2.45E2,6.58E2,4.3E1,2.5E2,1E1,2.2E2,5.24E2,2.01E2,4.4E1,1.3E2,5.28E2,3E1,1.3E1,2.6E1,2.24E2,1E0,9E0,6.2E1,1.58E2,2.85E2,2.39E2,1.23E2,7.8E1,1E1,3.4E1,8.7E1,4.3E1,4.2E2,1.08E2,2.6E1,4E0,1E0,1.2E1,1.7E1,9E0,2.05E2,1.9E1,3E0,6E0],"tree_param":{"num_deleted":"0","num_feature":"8","num_nodes":"47","size_leaf_vector":"1"}},{"base_weights":[9.655463E-4,-3.972039E-2,1.0224274E-1,-1.6812255E-3,-8.03532E-2,1.499625E-1,2.2602187E-2,-9.999304E-2,2.052107E-2,-5.7789505E-2,-1.2760584E-1,1.08297825E-1,2.5450325E-1,1.1929708E-1,-4.2292837E-2,-1.8638577E-1,-5.9466004E-2,-8.618963E-3,8.0819055E-2,-1.7436615E-1,-4.242903E-2,-2.1901833E-1,-1.14015564E-1,6.0669933E-2,3.094524E-1,4.2631793E-1,1.6213654E-1,2.1756122E-1,8.536522E-3,-2.285645E-1,-1.904638E-2,-1.4562266E-2,-3.4142613E-2,-7.1892734E-3,2.3189515E-2,-7.7155954E-3,1.4948016E-3,2.8652714E-3,2.5563646E-2,-1.5674762E-2,-3.5100628E-2,7.868803E-3,-5.126504E-3,-1.7638495E-2,-3.388377E-2,-1.1913964E-2,1.5531984E-2,1.1889934E-2,-1.50554E-3,3.56735E-2,-8.098146E-3,5.7817526E-2,3.1720597E-2,2.6519863E-2,-4.207512E-3,6.4339787E-3,2.7132839E-2,-2.3776194E-2,1.9290468E-2,-3.2066144E-2,4.8434783E-2,2.1365266E-3,-1.439309E-2],"categories":[],"categories_nodes":[],"categories_segments":[],"categories_sizes":[],"default_left":[0,0,0,0,0,0,0,0,0,0,0,0,0,0,0,0,0,0,0,0,0,0,0,0,0,0,0,0,0,0,0,0,0,0,0,0,0,0,0,0,0,0,0,0,0,0,0,0,0,0,0,0,0,0,0,0,0,0,0,0,0,0,0],"id":18,"left_children":[1,3,5,7,9,11,13,15,17,19,21,23,25,27,29,31,33,35,37,39,41,43,45,47,49,51,53,55,57,59,61,-1,-1,-1,-1,-1,-1,-1,-1,-1,-1,-1,-1,-1,-1,-1,-1,-1,-1,-1,-1,-1,-1,-1,-1,-1,-1,-1,-1,-1,-1,-1,-1],"loss_changes":[8.05151E0,2.154485E0,2.1248498E0,1.5758134E0,7.1124077E-1,1.4969177E0,1.3290741E0,4.545815E-1,1.0356197E0,8.127297E-1,2.4461222E-1,2.395529E0,1.5020037E0,9.23265E-1,5.4557645E-1,2.1571755E-1,3.4977272E-1,6.4400685E-1,1.7436352E0,1.0992384E-1,4.3853182E-1,7.815838E-2,2.8210282E-1,9.057253E-1,9.150038E-1,3.7996054E-1,1.4002259E0,3.5326576E-1,1.9076586E0,1.0745101E0,5.784091E-1,0E0,0E0,0E0,0E0,0E0,0E0,0E0,0E0,0E0,0E0,0E0,0E0,0E0,0E0,0E0,0E0,0E0,0E0,0E0,0E0,0E0,0E0,0E0,0E0,0E0,0E0,0E0,0E0,0E0,0E0,0E0,0E0],"parents":[2147483647,0,0,1,1,2,2,3,3,4,4,5,5,6,6,7,7,8,8,9,9,10,10,11,11,12,12,13,13,14,14,15,15,16,16,17,17,18,18,19,19,20,20,21,21,22,22,23,23,24,24,25,25,26,26,27,27,28,28,29,29,30,30],"right_children":[2,4,6,8,10,12,14,16,18,20,22,24,26,28,30,32,34,36,38,40,42,44,46,48,50,52,54,56,58,60,62,-1,-1,-1,-1,-1,-1,-1,-1,-1,-1,-1,-1,-1,-1,-1,-1,-1,-1,-1,-1,-1,-1,-1,-1,-1,-1,-1,-1,-1,-1,-1,-1],"split_conditions":[7.14E0,2.5329163E2,2.0686707E2,-3.6293335E0,1.9022177E1,1.8439868E2,1.405845E1,2.682713E1,2.3000002E0,-1.1256416E1,1.9829433E1,1.6674E1,5.166E0,2.8104623E2,1.5233148E1,2.0969807E1,1.6600002E1,2.604E0,1.2070667E1,2.898E0,9.779817E0,3.99E0,1.5228997E1,1.4654254E1,1.98E1,9.358167E0,1.9881649E1,6.594E0,1E-1,2.2134E1,2.1068459E1,-1.4562266E-2,-3.4142613E-2,-7.1892734E-3,2.3189515E-2,-7.7155954E-3,1.4948016E-3,2.8652714E-3,2.5563646E-2,-1.5674762E-2,-3.5100628E-2,7.868803E-3,-5.126504E-3,-1.7638495E-2,-3.388377E-2,-1.1913964E-2,1.5531984E-2,1.1889934E-2,-1.50554E-3,3.56735E-2,-8.098146E-3,5.7817526E-2,3.1720597E-2,2.6519863E-2,-4.207512E-3,6.4339787E-3,2.7132839E-2,-2.3776194E-2,1.9290468E-2,-3.2066144E-2,4.8434783E-2,2.1365266E-3,-1.439309E-2],"split_indices":[0,7,7,4,6,7,6,7,5,4,6,2,2,7,6,6,5,0,4,0,6,0,4,6,5,4,6,1,5,0,6,0,0,0,0,0,0,0,0,0,0,0,0,0,0,0,0,0,0,0,0,0,0,0,0,0,0,0,0,0,0,0,0],"split_type":[0,0,0,0,0,0,0,0,0,0,0,0,0,0,0,0,0,0,0,0,0,0,0,0,0,0,0,0,0,0,0,0,0,0,0,0,0,0,0,0,0,0,0,0,0,0,0,0,0,0,0,0,0,0,0,0,0,0,0,0,0,0,0],"sum_hessian":[1.952E3,1.393E3,5.59E2,7.2E2,6.73E2,3.49E2,2.1E2,1.32E2,5.88E2,4.57E2,2.16E2,2.51E2,9.8E1,8.4E1,1.26E2,4.1E1,9.1E1,3.97E2,1.91E2,5.2E1,4.05E2,2.6E1,1.9E2,2.04E2,4.7E1,3.3E1,6.5E1,4.4E1,4E1,1.3E1,1.13E2,3.4E1,7E0,8.8E1,3E0,1.01E2,2.96E2,1.48E2,4.3E1,4.9E1,3E0,2.7E1,3.78E2,2.1E1,5E0,1.87E2,3E0,1.15E2,8.9E1,4.2E1,5E0,1.2E1,2.1E1,4.3E1,2.2E1,1.2E1,3.2E1,1.7E1,2.3E1,1.2E1,1E0,8.6E1,2.7E1],"tree_param":{"num_deleted":"0","num_feature":"8","num_nodes":"63","size_leaf_vector":"1"}},{"base_weights":[9.082E-4,-2.8457126E-2,1.1904657E-1,9.255762E-3,-7.2503135E-2,1.4974578E-1,2.379016E-2,-5.073424E-2,3.9608534E-2,-7.849643E-2,1.8065955E-1,5.128719E-2,1.763761E-1,-3.490322E-2,3.9569724E-2,-7.561322E-2,7.0126444E-2,9.258598E-2,-1.2760074E-2,7.405865E-2,-8.561237E-2,-3.0339707E-2,4.2182618E-1,2.1203232E-1,-9.678299E-2,5.1908827E-1,1.56881E-1,2.5492042E-1,1.6302356E-2,-6.4404956E-3,-3.2247946E-2,-1.28720105E-2,1.704375E-2,5.366774E-3,2.1255776E-2,4.922176E-3,-5.072188E-3,1.1447261E-2,-1.2014727E-2,-1.0910119E-2,-5.936895E-3,1.218251E-2,-1.5208709E-2,5.299259E-2,1.8124497E-2,2.6559928E-2,-1.1963575E-2,-1.9897012E-2,1.34969205E-2,-1.0499609E-2,5.8536835E-2,8.359515E-3,2.0067027E-2,3.3776063E-2,-2.0390058E-2,-1.4616351E-2,8.261948E-3],"categories":[],"categories_nodes":[],"categories_segments":[],"categories_sizes":[],"default_left":[0,0,0,0,0,0,0,0,0,0,0,0,0,0,0,0,0,0,0,0,0,0,0,0,0,0,0,0,0,0,0,0,0,0,0,0,0,0,0,0,0,0,0,0,0,0,0,0,0,0,0,0,0,0,0,0,0],"id":19,"left_children":[1,3,5,7,9,11,13,15,17,19,21,23,25,-1,27,29,31,33,35,37,39,41,43,45,47,49,51,53,55,-1,-1,-1,-1,-1,-1,-1,-1,-1,-1,-1,-1,-1,-1,-1,-1,-1,-1,-1,-1,-1,-1,-1,-1,-1,-1,-1,-1],"loss_changes":[6.77868E0,2.600296E0,1.1339889E0,1.5388178E0,1.1096556E0,7.61817E-1,5.7857656E-1,8.592595E-1,1.5575945E0,7.727556E-1,8.7785965E-1,1.543821E0,1.4619241E0,0E0,4.6183407E-1,6.32229E-1,9.9931765E-1,1.2912688E0,6.6837925E-1,2.6490974E-1,4.0961075E-1,2.037847E-1,1.1200774E-1,5.8253515E-1,8.320459E-1,5.578337E-1,6.892352E-1,4.1094893E-1,9.278888E-1,0E0,0E0,0E0,0E0,0E0,0E0,0E0,0E0,0E0,0E0,0E0,0E0,0E0,0E0,0E0,0E0,0E0,0E0,0E0,0E0,0E0,0E0,0E0,0E0,0E0,0E0,0E0,0E0],"parents":[2147483647,0,0,1,1,2,2,3,3,4,4,5,5,6,6,7,7,8,8,9,9,10,10,11,11,12,12,14,14,15,15,16,16,17,17,18,18,19,19,20,20,21,21,22,22,23,23,24,24,25,25,26,26,27,27,28,28],"right_children":[2,4,6,8,10,12,14,16,18,20,22,24,26,-1,28,30,32,34,36,38,40,42,44,46,48,50,52,54,56,-1,-1,-1,-1,-1,-1,-1,-1,-1,-1,-1,-1,-1,-1,-1,-1,-1,-1,-1,-1,-1,-1,-1,-1,-1,-1,-1,-1],"split_conditions":[9.24E0,2.5329163E2,2.2862158E2,9.450655E1,1.604775E1,3.262333E0,2.226E0,8.316E0,2.042744E2,9.885262E0,3.2227338E2,1.5463246E1,6.1727505E0,-3.490322E-2,3.024E0,1.6600002E1,3.444E0,1.9415019E2,1.4707222E1,8.489417E0,1.2227501E0,1.3358861E1,8.946E0,1.3524E1,1.9755757E2,5.46E0,1.4799481E2,1.575E1,6.426E0,-6.4404956E-3,-3.2247946E-2,-1.28720105E-2,1.704375E-2,5.366774E-3,2.1255776E-2,4.922176E-3,-5.072188E-3,1.1447261E-2,-1.2014727E-2,-1.0910119E-2,-5.936895E-3,1.218251E-2,-1.5208709E-2,5.299259E-2,1.8124497E-2,2.6559928E-2,-1.1963575E-2,-1.9897012E-2,1.34969205E-2,-1.0499609E-2,5.8536835E-2,8.359515E-3,2.0067027E-2,3.3776063E-2,-2.0390058E-2,-1.4616351E-2,8.261948E-3],"split_indices":[0,7,7,7,4,4,2,2,7,6,7,6,4,0,2,5,0,7,6,4,4,6,1,2,7,2,7,0,2,0,0,0,0,0,0,0,0,0,0,0,0,0,0,0,0,0,0,0,0,0,0,0,0,0,0,0,0],"split_type":[0,0,0,0,0,0,0,0,0,0,0,0,0,0,0,0,0,0,0,0,0,0,0,0,0,0,0,0,0,0,0,0,0,0,0,0,0,0,0,0,0,0,0,0,0,0,0,0,0,0,0,0,0,0,0,0,0],"sum_hessian":[1.952E3,1.564E3,3.88E2,8.43E2,7.21E2,2.93E2,9.5E1,2.83E2,5.6E2,7.05E2,1.6E1,6.3E1,2.3E2,3E0,9.2E1,2.35E2,4.8E1,2.78E2,2.82E2,3.1E1,6.74E2,9E0,7E0,3E1,3.3E1,1.1E1,2.19E2,8E0,8.4E1,2.26E2,9E0,1.6E1,3.2E1,2.11E2,6.7E1,1.07E2,1.75E2,2.6E1,5E0,3.54E2,3.2E2,4E0,5E0,4E0,3E0,2.6E1,4E0,2.3E1,1E1,1E0,1E1,8.3E1,1.36E2,7E0,1E0,2.4E1,6E1],"tree_param":{"num_deleted":"0","num_feature":"8","num_nodes":"57","size_leaf_vector":"1"}},{"base_weights":[8.682981E-4,-5.2095916E-2,5.54833E-2,-5.375302E-2,5.121131E-2,9.030134E-2,-8.770221E-3,-1.0099461E-1,-3.7484895E-2,7.758417E-2,2.790696E-1,1.896666E-2,-1.15630046E-1,-1.0870031E-1,1.19993515E-1,-5.1131472E-2,1.1739994E-2,-5.5533573E-3,1.0129784E-1,1.7176366E-1,3.628669E-1,-1.2442115E-1,3.808567E-2,-1.326354E-1,3.0836795E-2,-1.721333E-2,-9.472831E-3,2.8700028E-3,2.930138E-2,-8.6587574E-4,-6.970495E-3,-2.6562773E-3,1.7322136E-2,6.283976E-3,-1.42213395E-2,8.670503E-3,2.5089541E-2,7.4888333E-3,3.271373E-2,3.887818E-2,-7.77154E-3,2.4565991E-3,-2.1504175E-2,-4.6210192E-4,8.906265E-3,-3.45494E-2,-1.1393339E-2],"categories":[],"categories_nodes":[],"categories_segments":[],"categories_sizes":[],"default_left":[0,0,0,0,0,0,0,0,0,0,0,0,0,0,0,0,0,0,0,0,0,0,0,0,0,0,0,0,0,0,0,0,0,0,0,0,0,0,0,0,0,0,0,0,0,0,0],"id":20,"left_children":[1,3,5,7,-1,9,11,13,15,17,19,21,23,25,27,29,31,33,35,37,39,41,43,45,-1,-1,-1,-1,-1,-1,-1,-1,-1,-1,-1,-1,-1,-1,-1,-1,-1,-1,-1,-1,-1,-1,-1],"loss_changes":[5.652218E0,9.549999E-1,2.152961E0,7.57061E-1,0E0,1.4763222E0,1.0069749E0,4.438691E-1,4.9635267E-1,1.1558592E0,2.883587E-1,7.449256E-1,5.456169E-1,2.0083427E-1,1.3375114E-1,4.55361E-1,1.0004158E0,1.2333419E0,9.7371626E-1,2.6148677E-1,2.6998496E-1,4.3732432E-1,5.2072835E-1,2.3133683E-1,0E0,0E0,0E0,0E0,0E0,0E0,0E0,0E0,0E0,0E0,0E0,0E0,0E0,0E0,0E0,0E0,0E0,0E0,0E0,0E0,0E0,0E0,0E0],"parents":[2147483647,0,0,1,1,2,2,3,3,5,5,6,6,7,7,8,8,9,9,10,10,11,11,12,12,13,13,14,14,15,15,16,16,17,17,18,18,19,19,20,20,21,21,22,22,23,23],"right_children":[2,4,6,8,-1,10,12,14,16,18,20,22,24,26,28,30,32,34,36,38,40,42,44,46,-1,-1,-1,-1,-1,-1,-1,-1,-1,-1,-1,-1,-1,-1,-1,-1,-1,-1,-1,-1,-1,-1,-1],"split_conditions":[4.158E0,2.898E1,2.2549973E2,2.1E0,5.121131E-2,1.8710249E1,1.9633205E1,1.5228997E1,2.1999998E0,5.9796844E1,1.2429127E1,-4.20225E0,2.898E1,1.386E0,1.806E0,1.3237038E1,1.1089417E1,1.6454008E1,2.31E1,1.7094E1,2.898E1,4.578E0,3E-1,1.9829433E1,3.0836795E-2,-1.721333E-2,-9.472831E-3,2.8700028E-3,2.930138E-2,-8.6587574E-4,-6.970495E-3,-2.6562773E-3,1.7322136E-2,6.283976E-3,-1.42213395E-2,8.670503E-3,2.5089541E-2,7.4888333E-3,3.271373E-2,3.887818E-2,-7.77154E-3,2.4565991E-3,-2.1504175E-2,-4.6210192E-4,8.906265E-3,-3.45494E-2,-1.1393339E-2],"split_indices":[0,1,7,0,0,4,6,4,5,7,6,4,0,0,0,6,4,6,0,0,0,1,5,6,0,0,0,0,0,0,0,0,0,0,0,0,0,0,0,0,0,0,0,0,0,0,0],"split_type":[0,0,0,0,0,0,0,0,0,0,0,0,0,0,0,0,0,0,0,0,0,0,0,0,0,0,0,0,0,0,0,0,0,0,0,0,0,0,0,0,0,0,0,0,0,0,0],"sum_hessian":[1.952E3,9.91E2,9.61E2,9.89E2,2E0,6.23E2,3.38E2,2.52E2,7.37E2,5.85E2,3.8E1,2.69E2,6.9E1,2.44E2,8E0,5.77E2,1.6E2,1.3E2,4.55E2,1.8E1,2E1,3.1E1,2.38E2,6.7E1,2E0,4.2E1,2.02E2,6E0,2E0,1.76E2,4.01E2,1.3E2,3E1,8.7E1,4.3E1,4.16E2,3.9E1,1.2E1,6E0,1.9E1,1E0,1.2E1,1.9E1,1.3E2,1.08E2,4E0,6.3E1],"tree_param":{"num_deleted":"0","num_feature":"8","num_nodes":"47","size_leaf_vector":"1"}},{"base_weights":[8.50551E-4,-2.343803E-2,9.856464E-2,-3.0481823E-2,1.5375178E-1,7.699771E-2,1.9244961E-1,-5.7762E-3,-6.969526E-2,3.5425216E-1,5.9388477E-2,1.1974994E-1,-9.636469E-3,-1.6629238E-1,2.2758211E-1,-4.5513462E-2,2.4320466E-2,8.145818E-2,-7.691009E-2,9.817106E-2,4.6489182E-1,-1.4286999E-2,2.965787E-1,1.6620192E-1,4.643438E-2,-2.170573E-1,3.525708E-2,-4.729451E-2,5.0957702E-2,3.2825658E-1,1.660991E-1,-5.9777307E-3,2.7359843E-3,3.3011758E-3,-2.0979462E-2,2.5619047E-3,2.726253E-2,-8.087201E-3,1.728719E-2,-2.5929848E-2,2.9301858E-2,5.836981E-2,2.2900147E-2,-8.919781E-3,1.9538602E-2,3.7386443E-2,-8.3761214E-4,-3.034228E-2,1.7968459E-2,1.1739469E-2,-4.687722E-3,4.4227447E-3,-3.4105238E-2,1.114564E-2,-8.3314935E-3,-8.284096E-3,1.6777046E-2,4.5712072E-2,1.3388217E-3,-3.288476E-2,2.2529487E-2],"categories":[],"categories_nodes":[],"categories_segments":[],"categories_sizes":[],"default_left":[0,0,0,0,0,0,0,0,0,0,0,0,0,0,0,0,0,0,0,0,0,0,0,0,0,0,0,0,0,0,0,0,0,0,0,0,0,0,0,0,0,0,0,0,0,0,0,0,0,0,0,0,0,0,0,0,0,0,0,0,0],"id":21,"left_children":[1,3,5,7,9,11,13,15,17,19,21,23,25,27,29,31,33,35,37,39,41,43,45,47,49,51,53,-1,55,57,59,-1,-1,-1,-1,-1,-1,-1,-1,-1,-1,-1,-1,-1,-1,-1,-1,-1,-1,-1,-1,-1,-1,-1,-1,-1,-1,-1,-1,-1,-1],"loss_changes":[4.6374364E0,1.9579445E0,7.728331E-1,1.4585987E0,1.1141541E0,1.1789638E0,9.45297E-1,1.1073692E0,6.409633E-1,4.9268293E-1,7.381915E-1,7.1768665E-1,9.9470973E-1,4.9044243E-1,3.54002E-1,4.1637737E-1,1.0792453E0,2.8122994E-1,5.642059E-1,5.635436E-1,2.3066044E-1,5.357516E-1,2.3881817E-1,8.776531E-1,5.617024E-1,6.306463E-1,8.043755E-1,0E0,9.2045225E-2,9.6768546E-1,1.3339336E0,0E0,0E0,0E0,0E0,0E0,0E0,0E0,0E0,0E0,0E0,0E0,0E0,0E0,0E0,0E0,0E0,0E0,0E0,0E0,0E0,0E0,0E0,0E0,0E0,0E0,0E0,0E0,0E0,0E0,0E0],"parents":[2147483647,0,0,1,1,2,2,3,3,4,4,5,5,6,6,7,7,8,8,9,9,10,10,11,11,12,12,13,13,14,14,15,15,16,16,17,17,18,18,19,19,20,20,21,21,22,22,23,23,24,24,25,25,26,26,28,28,29,29,30,30],"right_children":[2,4,6,8,10,12,14,16,18,20,22,24,26,28,30,32,34,36,38,40,42,44,46,48,50,52,54,-1,56,58,60,-1,-1,-1,-1,-1,-1,-1,-1,-1,-1,-1,-1,-1,-1,-1,-1,-1,-1,-1,-1,-1,-1,-1,-1,-1,-1,-1,-1,-1,-1],"split_conditions":[9.24E0,1.6649832E1,2.31E1,2.7910394E2,1.1753876E1,1.7698677E1,5.241714E1,3.36E0,9.779817E0,4.704E0,1.838525E1,2.0014374E2,4.704E0,1E-1,1.638E1,5.586E0,1.7892E1,3.391374E2,1.604775E1,1.0587917E1,1.1090103E1,1.9022177E1,1.3524E1,8.491227E0,1.405845E1,1.05E1,1.3501916E1,-4.729451E-2,1.1756084E1,3.4146E1,1.9446E1,-5.9777307E-3,2.7359843E-3,3.3011758E-3,-2.0979462E-2,2.5619047E-3,2.726253E-2,-8.087201E-3,1.728719E-2,-2.5929848E-2,2.9301858E-2,5.836981E-2,2.2900147E-2,-8.919781E-3,1.9538602E-2,3.7386443E-2,-8.3761214E-4,-3.034228E-2,1.7968459E-2,1.1739469E-2,-4.687722E-3,4.4227447E-3,-3.4105238E-2,1.114564E-2,-8.3314935E-3,-8.284096E-3,1.6777046E-2,4.5712072E-2,1.3388217E-3,-3.288476E-2,2.2529487E-2],"split_indices":[0,4,0,7,6,6,7,0,6,2,4,7,1,5,1,2,1,7,4,6,6,6,2,7,6,0,4,0,4,0,1,0,0,0,0,0,0,0,0,0,0,0,0,0,0,0,0,0,0,0,0,0,0,0,0,0,0,0,0,0,0],"split_type":[0,0,0,0,0,0,0,0,0,0,0,0,0,0,0,0,0,0,0,0,0,0,0,0,0,0,0,0,0,0,0,0,0,0,0,0,0,0,0,0,0,0,0,0,0,0,0,0,0,0,0,0,0,0,0,0,0,0,0,0,0],"sum_hessian":[1.952E3,1.564E3,3.88E2,1.505E3,5.9E1,3.17E2,7.1E1,9.24E2,5.81E2,1.8E1,4.1E1,2.12E2,1.05E2,6E0,6.5E1,3.98E2,5.26E2,2.6E1,5.55E2,6E0,1.2E1,3.2E1,9E0,1.29E2,8.3E1,1.8E1,8.7E1,2E0,4E0,2.3E1,4.2E1,3.33E2,6.5E1,5.08E2,1.8E1,2.1E1,5E0,5.47E2,8E0,2E0,4E0,7E0,5E0,2.4E1,8E0,7E0,2E0,3E0,1.26E2,4.7E1,3.6E1,6E0,1.2E1,5.3E1,3.4E1,2E0,2E0,1.6E1,7E0,4E0,3.8E1],"tree_param":{"num_deleted":"0","num_feature":"8","num_nodes":"61","size_leaf_vector":"1"}},{"base_weights":[8.2469784E-4,-4.402034E-2,4.360604E-2,-4.641117E-2,2.8605518E-1,7.801117E-2,-5.483121E-3,-8.468892E-2,-3.243031E-2,3.8980052E-1,-1.6820837E-2,-2.4296474E-2,9.802302E-2,-2.100977E-2,1.7394523E-1,-9.148194E-2,1.096422E-1,-3.9757103E-2,4.589635E-2,4.729398E-1,-1.2947917E-3,-4.723642E-2,3.3149883E-1,4.906218E-1,8.9691736E-2,1.4797117E-1,-3.4316145E-2,-2.0377648E-1,2.1850996E-1,-9.875833E-3,5.767935E-4,2.5378687E-3,2.6970968E-2,-4.249615E-3,2.5538221E-2,-1.1858701E-2,1.58846E-2,1.124649E-2,5.3494226E-2,1.0127847E-2,-8.727836E-3,4.370362E-2,-9.809399E-3,5.3974153E-3,5.331411E-2,-7.974581E-3,1.0069049E-2,5.755572E-3,2.8247181E-2,-1.9946834E-3,-1.4058466E-2,-7.271401E-3,-2.9848194E-2,8.900265E-3,3.810193E-2],"categories":[],"categories_nodes":[],"categories_segments":[],"categories_sizes":[],"default_left":[0,0,0,0,0,0,0,0,0,0,0,0,0,0,0,0,0,0,0,0,0,0,0,0,0,0,0,0,0,0,0,0,0,0,0,0,0,0,0,0,0,0,0,0,0,0,0,0,0,0,0,0,0,0,0],"id":22,"left_children":[1,3,5,7,9,11,13,15,17,19,-1,21,23,25,27,29,31,33,35,37,-1,39,41,43,45,47,49,51,53,-1,-1,-1,-1,-1,-1,-1,-1,-1,-1,-1,-1,-1,-1,-1,-1,-1,-1,-1,-1,-1,-1,-1,-1,-1,-1],"loss_changes":[3.74881E0,7.6613E-1,1.6893467E0,5.0458145E-1,3.9546174E-1,1.2062328E0,1.1542398E0,3.4401464E-1,4.0124768E-1,2.0702887E-1,0E0,8.073656E-1,1.5652542E0,8.617654E-1,6.000182E-1,1.7393851E-1,1.1454573E-1,5.2580416E-1,1.1335375E0,5.158949E-2,0E0,5.559472E-1,3.1489915E-1,1.5688372E-1,9.0814924E-1,3.2424825E-1,5.377556E-1,2.7945518E-2,5.974728E-1,0E0,0E0,0E0,0E0,0E0,0E0,0E0,0E0,0E0,0E0,0E0,0E0,0E0,0E0,0E0,0E0,0E0,0E0,0E0,0E0,0E0,0E0,0E0,0E0,0E0,0E0],"parents":[2147483647,0,0,1,1,2,2,3,3,4,4,5,5,6,6,7,7,8,8,9,9,11,11,12,12,13,13,14,14,15,15,16,16,17,17,18,18,19,19,21,21,22,22,23,23,24,24,25,25,26,26,27,27,28,28],"right_children":[2,4,6,8,10,12,14,16,18,20,-1,22,24,26,28,30,32,34,36,38,-1,40,42,44,46,48,50,52,54,-1,-1,-1,-1,-1,-1,-1,-1,-1,-1,-1,-1,-1,-1,-1,-1,-1,-1,-1,-1,-1,-1,-1,-1,-1,-1],"split_conditions":[3.864E0,1.7591497E1,2.1244518E2,2.1E0,3.234E0,4.678987E1,1.6778997E1,1.5228997E1,2.614403E1,1.8710249E1,-1.6820837E-2,1.6364416E1,4.9786045E1,1.0163227E1,2.688E0,3.4629297E2,1.806E0,1.4900001E1,3.0400002E-1,2.226E0,-1.2947917E-3,1.1542478E1,2.226E1,3.906E0,5.7625446E1,6.846E0,1.7094E1,1.1046E1,1E-1,-9.875833E-3,5.767935E-4,2.5378687E-3,2.6970968E-2,-4.249615E-3,2.5538221E-2,-1.1858701E-2,1.58846E-2,1.124649E-2,5.3494226E-2,1.0127847E-2,-8.727836E-3,4.370362E-2,-9.809399E-3,5.3974153E-3,5.331411E-2,-7.974581E-3,1.0069049E-2,5.755572E-3,2.8247181E-2,-1.9946834E-3,-1.4058466E-2,-7.271401E-3,-2.9848194E-2,8.900265E-3,3.810193E-2],"split_indices":[0,4,7,0,0,7,4,4,6,4,0,4,7,6,2,7,0,5,4,0,0,6,1,2,7,0,1,0,5,0,0,0,0,0,0,0,0,0,0,0,0,0,0,0,0,0,0,0,0,0,0,0,0,0,0],"split_type":[0,0,0,0,0,0,0,0,0,0,0,0,0,0,0,0,0,0,0,0,0,0,0,0,0,0,0,0,0,0,0,0,0,0,0,0,0,0,0,0,0,0,0,0,0,0,0,0,0,0,0,0,0,0,0],"sum_hessian":[1.952E3,9.53E2,9.99E2,9.47E2,6E0,5.87E2,4.12E2,2.52E2,6.95E2,5E0,1E0,9.6E1,4.91E2,3.8E2,3.2E1,2.44E2,8E0,6.36E2,5.9E1,4E0,1E0,9.1E1,5E0,9E0,4.82E2,2.7E1,3.53E2,3E0,2.9E1,2.27E2,1.7E1,6E0,2E0,6.31E2,5E0,2.4E1,3.5E1,1E0,3E0,1.9E1,7.2E1,4E0,1E0,1E0,8E0,2.9E1,4.53E2,1.7E1,1E1,3.12E2,4.1E1,2E0,1E0,1.7E1,1.2E1],"tree_param":{"num_deleted":"0","num_feature":"8","num_nodes":"55","size_leaf_vector":"1"}},{"base_weights":[8.528353E-4,-1.6761072E-2,9.534551E-2,1.12142125E-2,-5.1573947E-2,1.5461315E-1,3.3890925E-2,-6.892903E-2,2.5799463E-2,-5.597669E-2,1.3741095E-1,1.4065981E-1,4.315257E-1,-9.975588E-2,7.324472E-2,-1.601392E-1,-4.176854E-2,1.647524E-2,1.23945E-1,6.5218344E-2,-6.135615E-2,-4.4316363E-2,3.4739372E-1,-2.5607967E-1,1.4775142E-1,-5.2458923E-2,6.3561134E-2,-1.6195308E-1,3.0581784E-1,2.1761264E-1,-3.6108345E-2,-1.8411117E-2,-2.557554E-3,-5.1822076E-3,2.3760572E-2,2.2108024E-3,-1.8895088E-2,3.453837E-2,6.9351397E-3,2.1862306E-3,2.4222476E-2,-5.5790762E-3,-1.7012998E-2,9.637845E-3,-1.5417598E-2,4.4814784E-2,1.3460264E-2,-3.8862158E-2,4.5020581E-4,1.0480732E-2,2.468737E-2,-1.4504934E-2,6.6360952E-3,-2.3114216E-2,1.6485846E-2,3.7330646E-2,1.79317E-3,-3.1606143E-3,2.9510576E-2,2.7920146E-2,-7.112545E-3],"categories":[],"categories_nodes":[],"categories_segments":[],"categories_sizes":[],"default_left":[0,0,0,0,0,0,0,0,0,0,0,0,0,0,0,0,0,0,0,0,0,0,0,0,0,0,0,0,0,0,0,0,0,0,0,0,0,0,0,0,0,0,0,0,0,0,0,0,0,0,0,0,0,0,0,0,0,0,0,0,0],"id":23,"left_children":[1,3,5,7,9,11,13,15,17,19,21,23,25,27,29,31,33,35,37,39,41,43,45,47,49,51,-1,53,55,57,59,-1,-1,-1,-1,-1,-1,-1,-1,-1,-1,-1,-1,-1,-1,-1,-1,-1,-1,-1,-1,-1,-1,-1,-1,-1,-1,-1,-1,-1,-1],"loss_changes":[3.2521424E0,1.6045916E0,1.1129365E0,1.0701616E0,6.18418E-1,5.4206276E-1,8.0675197E-1,3.4261245E-1,7.0626926E-1,4.721117E-1,6.6410846E-1,4.5986462E-1,7.247635E-1,9.3242216E-1,1.8707324E0,9.851539E-2,3.2127023E-1,8.23419E-1,7.860192E-1,2.3260762E-1,4.0700173E-1,1.69426E-1,1.1119479E-1,1.0536359E-1,6.0412025E-1,4.2630352E-2,0E0,7.390712E-1,9.045112E-2,9.94277E-1,7.706623E-1,0E0,0E0,0E0,0E0,0E0,0E0,0E0,0E0,0E0,0E0,0E0,0E0,0E0,0E0,0E0,0E0,0E0,0E0,0E0,0E0,0E0,0E0,0E0,0E0,0E0,0E0,0E0,0E0,0E0,0E0],"parents":[2147483647,0,0,1,1,2,2,3,3,4,4,5,5,6,6,7,7,8,8,9,9,10,10,11,11,12,12,13,13,14,14,15,15,16,16,17,17,18,18,19,19,20,20,21,21,22,22,23,23,24,24,25,25,27,27,28,28,29,29,30,30],"right_children":[2,4,6,8,10,12,14,16,18,20,22,24,26,28,30,32,34,36,38,40,42,44,46,48,50,52,-1,54,56,58,60,-1,-1,-1,-1,-1,-1,-1,-1,-1,-1,-1,-1,-1,-1,-1,-1,-1,-1,-1,-1,-1,-1,-1,-1,-1,-1,-1,-1,-1,-1],"split_conditions":[1.092E1,2.5329163E2,1.5725037E1,-3.6293335E0,1.604775E1,1.5546833E1,1.6600974E2,1.9447643E1,1.6649832E1,9.779817E0,3.2227338E2,8.491227E0,1.3272E1,2.898E1,1.9833546E2,2.5E0,6.846E0,1.7094E1,1.1090103E1,3.391374E2,7.896E0,1.3358861E1,8.946E0,1.47E1,1.2E0,1.2474E1,6.3561134E-2,2.6819998E1,1.1089417E1,5.1748333E0,2.370667E0,-1.8411117E-2,-2.557554E-3,-5.1822076E-3,2.3760572E-2,2.2108024E-3,-1.8895088E-2,3.453837E-2,6.9351397E-3,2.1862306E-3,2.4222476E-2,-5.5790762E-3,-1.7012998E-2,9.637845E-3,-1.5417598E-2,4.4814784E-2,1.3460264E-2,-3.8862158E-2,4.5020581E-4,1.0480732E-2,2.468737E-2,-1.4504934E-2,6.6360952E-3,-2.3114216E-2,1.6485846E-2,3.7330646E-2,1.79317E-3,-3.1606143E-3,2.9510576E-2,2.7920146E-2,-7.112545E-3],"split_indices":[0,7,6,4,4,6,7,7,4,6,7,7,0,0,7,5,2,1,6,7,0,6,1,0,5,0,0,6,4,4,4,0,0,0,0,0,0,0,0,0,0,0,0,0,0,0,0,0,0,0,0,0,0,0,0,0,0,0,0,0,0],"split_type":[0,0,0,0,0,0,0,0,0,0,0,0,0,0,0,0,0,0,0,0,0,0,0,0,0,0,0,0,0,0,0,0,0,0,0,0,0,0,0,0,0,0,0,0,0,0,0,0,0,0,0,0,0,0,0,0,0,0,0,0,0],"sum_hessian":[1.952E3,1.646E3,3.06E2,9.13E2,7.33E2,1.55E2,1.51E2,1.4E2,7.73E2,7.17E2,1.6E1,1.49E2,6E0,3.4E1,1.17E2,3.1E1,1.09E2,7.07E2,6.6E1,3E1,6.87E2,9E0,7E0,2E0,1.47E2,2E0,4E0,3E1,4E0,5E1,6.7E1,2.6E1,5E0,1.06E2,3E0,6.89E2,1.8E1,1.2E1,5.4E1,2.5E1,5E0,6.55E2,3.2E1,4E0,5E0,4E0,3E0,1E0,1E0,1.04E2,4.3E1,1E0,1E0,2.5E1,5E0,3E0,1E0,1.2E1,3.8E1,6E0,6.1E1],"tree_param":{"num_deleted":"0","num_feature":"8","num_nodes":"61","size_leaf_vector":"1"}},{"base_weights":[8.754993E-4,-1.7534772E-2,7.494028E-2,-7.149783E-2,-2.835211E-3,6.2486086E-2,2.074011E-1,-8.057503E-2,1.5953547E-1,3.1489335E-2,-2.8319726E-2,5.572804E-2,2.9141748E-1,7.6190606E-2,2.5343043E-1,-7.4886814E-2,-4.273684E-2,-6.2543035E-2,2.3241332E-1,-2.3512505E-2,6.51362E-2,1.4032953E-2,-5.832786E-2,6.992571E-2,-7.3237576E-2,-2.7832855E-2,3.8564797E-2,1.5759808E-1,-3.282383E-2,1.5895376E-1,3.506343E-1,7.900503E-3,-8.115947E-3,-8.391317E-3,7.836819E-5,-4.775551E-3,3.593079E-2,-8.7466865E-4,-2.5411477E-2,9.329878E-3,-2.7146644E-3,2.0921922E-3,-2.7140358E-2,-4.4070887E-3,-1.3855986E-2,5.960911E-3,3.042093E-2,3.4762688E-3,-1.5597591E-2,-1.6202927E-3,2.0957021E-2,-7.898069E-3,2.051912E-2,4.0085305E-2,8.310008E-3],"categories":[],"categories_nodes":[],"categories_segments":[],"categories_sizes":[],"default_left":[0,0,0,0,0,0,0,0,0,0,0,0,0,0,0,0,0,0,0,0,0,0,0,0,0,0,0,0,0,0,0,0,0,0,0,0,0,0,0,0,0,0,0,0,0,0,0,0,0,0,0,0,0,0,0],"id":24,"left_children":[1,3,5,7,9,11,13,15,17,19,21,23,25,27,29,31,-1,33,35,37,39,41,43,45,47,-1,-1,49,-1,51,53,-1,-1,-1,-1,-1,-1,-1,-1,-1,-1,-1,-1,-1,-1,-1,-1,-1,-1,-1,-1,-1,-1,-1,-1],"loss_changes":[2.6643324E0,1.2412074E0,6.287708E-1,7.15395E-1,1.0777022E0,5.360849E-1,1.7999554E-1,6.051574E-1,2.2493571E-1,9.7311735E-1,8.9936244E-1,6.423131E-1,6.442115E-1,3.8096508E-1,1.6466916E-1,3.1434643E-1,0E0,5.4789614E-3,3.7267792E-1,6.787837E-1,8.497815E-1,5.83789E-1,4.674536E-1,7.408074E-1,3.181738E-1,0E0,0E0,8.469093E-2,0E0,1.7022693E-1,1.1447668E-1,0E0,0E0,0E0,0E0,0E0,0E0,0E0,0E0,0E0,0E0,0E0,0E0,0E0,0E0,0E0,0E0,0E0,0E0,0E0,0E0,0E0,0E0,0E0,0E0],"parents":[2147483647,0,0,1,1,2,2,3,3,4,4,5,5,6,6,7,7,8,8,9,9,10,10,11,11,12,12,13,13,14,14,15,15,17,17,18,18,19,19,20,20,21,21,22,22,23,23,24,24,27,27,29,29,30,30],"right_children":[2,4,6,8,10,12,14,16,18,20,22,24,26,28,30,32,-1,34,36,38,40,42,44,46,48,-1,-1,50,-1,52,54,-1,-1,-1,-1,-1,-1,-1,-1,-1,-1,-1,-1,-1,-1,-1,-1,-1,-1,-1,-1,-1,-1,-1,-1],"split_conditions":[9.24E0,-4.20225E0,1.918525E1,1.092E1,2.136901E2,4.032E1,1.4448E1,8.484E0,3.654E0,9.450655E1,1.5876775E1,2.9336243E2,1.3894166E0,1.7094E1,1.6044E1,8.913181E0,-4.273684E-2,2.352E0,-8.037666E0,2.4634367E1,6.72E0,2.604E1,9.324E0,2.750156E2,1.1956081E1,-2.7832855E-2,3.8564797E-2,1.1457958E1,-3.282383E-2,7.98E0,3.108E1,7.900503E-3,-8.115947E-3,-8.391317E-3,7.836819E-5,-4.775551E-3,3.593079E-2,-8.7466865E-4,-2.5411477E-2,9.329878E-3,-2.7146644E-3,2.0921922E-3,-2.7140358E-2,-4.4070887E-3,-1.3855986E-2,5.960911E-3,3.042093E-2,3.4762688E-3,-1.5597591E-2,-1.6202927E-3,2.0957021E-2,-7.898069E-3,2.051912E-2,4.0085305E-2,8.310008E-3],"split_indices":[0,4,4,2,7,0,0,0,1,7,6,7,4,1,2,6,0,0,4,6,1,2,2,7,4,0,0,6,0,1,1,0,0,0,0,0,0,0,0,0,0,0,0,0,0,0,0,0,0,0,0,0,0,0,0],"split_type":[0,0,0,0,0,0,0,0,0,0,0,0,0,0,0,0,0,0,0,0,0,0,0,0,0,0,0,0,0,0,0,0,0,0,0,0,0,0,0,0,0,0,0,0,0,0,0,0,0,0,0,0,0,0,0],"sum_hessian":[1.952E3,1.564E3,3.88E2,3.34E2,1.23E3,3.56E2,3.2E1,3.22E2,1.2E1,5.24E2,7.06E2,3.47E2,9E0,9E0,2.3E1,3.18E2,4E0,3E0,9E0,1.99E2,3.25E2,2.93E2,4.13E2,3.13E2,3.4E1,1E0,8E0,8E0,1E0,1.3E1,1E1,1.2E1,3.06E2,2E0,1E0,3E0,6E0,1.88E2,1.1E1,2.49E2,7.6E1,2.87E2,6E0,3.52E2,6.1E1,3.01E2,1.2E1,1.5E1,1.9E1,2E0,6E0,2E0,1.1E1,8E0,2E0],"tree_param":{"num_deleted":"0","num_feature":"8","num_nodes":"55","size_leaf_vector":"1"}},{"base_weights":[7.8764185E-4,-3.427561E-2,3.42372E-2,-3.572214E-2,4.361818E-2,2.7238607E-2,2.0152238E-1,-1.0871104E-1,-3.0162346E-2,-1.0939607E-2,5.4363247E-2,2.264782E-1,5.1519446E-2,-8.7648645E-2,-1.7588411E-1,-1.3227636E-1,-2.593212E-2,1.38797695E-2,-1.1357703E-1,7.534627E-2,-1.321943E-2,8.9365765E-2,2.7226406E-1,-2.7243912E-2,2.355907E-1,-5.702702E-3,-1.2227366E-2,-1.9780813E-2,-2.2252083E-3,-1.5148175E-3,-1.722381E-2,-2.1893396E-3,-1.397934E-2,-8.783015E-3,4.185542E-3,-3.9877396E-2,-8.427209E-3,5.756007E-3,1.4460282E-2,1.4082923E-2,-5.340768E-3,1.567328E-2,-1.2006823E-2,2.8348524E-2,9.548029E-3,-5.3527593E-3,3.2125216E-2],"categories":[],"categories_nodes":[],"categories_segments":[],"categories_sizes":[],"default_left":[0,0,0,0,0,0,0,0,0,0,0,0,0,0,0,0,0,0,0,0,0,0,0,0,0,0,0,0,0,0,0,0,0,0,0,0,0,0,0,0,0,0,0,0,0,0,0],"id":25,"left_children":[1,3,5,7,-1,9,11,13,15,17,19,21,23,25,27,29,31,33,35,37,39,41,43,-1,45,-1,-1,-1,-1,-1,-1,-1,-1,-1,-1,-1,-1,-1,-1,-1,-1,-1,-1,-1,-1,-1,-1],"loss_changes":[2.29175E0,6.6480756E-1,1.165271E0,3.830459E-1,0E0,9.9577785E-1,1.3806987E-1,7.937735E-2,3.79291E-1,1.0205352E0,7.9796207E-1,1.8911445E-1,4.8160434E-1,4.9221635E-2,4.6121776E-2,1.6121352E-1,3.887353E-1,9.2274076E-1,6.182934E-1,5.201235E-1,8.371081E-1,1.599081E-1,2.2525787E-2,0E0,1.4102736E-1,0E0,0E0,0E0,0E0,0E0,0E0,0E0,0E0,0E0,0E0,0E0,0E0,0E0,0E0,0E0,0E0,0E0,0E0,0E0,0E0,0E0,0E0],"parents":[2147483647,0,0,1,1,2,2,3,3,5,5,6,6,7,7,8,8,9,9,10,10,11,11,12,12,13,13,14,14,15,15,16,16,17,17,18,18,19,19,20,20,21,21,22,22,24,24],"right_children":[2,4,6,8,-1,10,12,14,16,18,20,22,24,26,28,30,32,34,36,38,40,42,44,-1,46,-1,-1,-1,-1,-1,-1,-1,-1,-1,-1,-1,-1,-1,-1,-1,-1,-1,-1,-1,-1,-1,-1],"split_conditions":[3.864E0,2.898E1,1.918525E1,-1.1256416E1,4.361818E-2,3E-1,2.2134E1,2.394E0,1.386E0,2.9827795E2,2.126744E1,6.006E0,1E-1,3.2167014E2,3.4511673E2,1.3246826E1,1.05E1,1.3378122E2,2.226E0,1.5078E1,2.94E0,4.284E0,2.2134E1,-2.7243912E-2,1.1767871E2,-5.702702E-3,-1.2227366E-2,-1.9780813E-2,-2.2252083E-3,-1.5148175E-3,-1.722381E-2,-2.1893396E-3,-1.397934E-2,-8.783015E-3,4.185542E-3,-3.9877396E-2,-8.427209E-3,5.756007E-3,1.4460282E-2,1.4082923E-2,-5.340768E-3,1.567328E-2,-1.2006823E-2,2.8348524E-2,9.548029E-3,-5.3527593E-3,3.2125216E-2],"split_indices":[0,1,4,4,0,5,1,0,0,7,6,2,5,7,7,6,1,7,2,0,2,2,2,0,7,0,0,0,0,0,0,0,0,0,0,0,0,0,0,0,0,0,0,0,0,0,0],"split_type":[0,0,0,0,0,0,0,0,0,0,0,0,0,0,0,0,0,0,0,0,0,0,0,0,0,0,0,0,0,0,0,0,0,0,0,0,0,0,0,0,0,0,0,0,0,0,0],"sum_hessian":[1.952E3,9.53E2,9.99E2,9.51E2,2E0,9.6E2,3.9E1,6.6E1,8.85E2,3.99E2,5.61E2,3.3E1,6E0,5.2E1,1.4E1,3.4E1,8.51E2,3.22E2,7.7E1,4.28E2,1.33E2,9E0,2.4E1,2E0,4E0,2.9E1,2.3E1,1.2E1,2E0,9E0,2.5E1,8.23E2,2.8E1,6.9E1,2.53E2,6E0,7.1E1,3.42E2,8.6E1,2.7E1,1.06E2,7E0,2E0,2.2E1,2E0,1E0,3E0],"tree_param":{"num_deleted":"0","num_feature":"8","num_nodes":"47","size_leaf_vector":"1"}},{"base_weights":[7.0171553E-4,-3.0880729E-2,3.0830666E-2,-3.2228492E-2,4.0710296E-2,5.8860775E-2,-3.5591575E-3,-6.354112E-2,-2.0865174E-2,3.9834283E-2,1.6270207E-1,1.9665956E-2,-8.504372E-2,-6.928291E-2,9.98233E-2,-2.7296197E-2,4.8187338E-2,-1.4134705E-2,7.4348286E-2,3.7865278E-1,7.153044E-2,9.804666E-3,2.2552395E-1,-3.3004007E-1,-6.867507E-2,-6.4671547E-3,-2.1683063E-2,2.7255996E-3,2.3587259E-2,-2.9714596E-3,2.3360359E-2,-9.809081E-3,1.4843086E-2,2.4274762E-3,-1.4775469E-2,5.2335914E-3,2.2514677E-2,-2.3039184E-3,4.1458424E-2,1.3418232E-2,-1.9547991E-2,1.53085E-3,-3.5761084E-2,4.6692736E-2,3.3989192E-3,-3.56697E-2,-9.837771E-3,-2.3542792E-3,-1.6109195E-2],"categories":[],"categories_nodes":[],"categories_segments":[],"categories_sizes":[],"default_left":[0,0,0,0,0,0,0,0,0,0,0,0,0,0,0,0,0,0,0,0,0,0,0,0,0,0,0,0,0,0,0,0,0,0,0,0,0,0,0,0,0,0,0,0,0,0,0,0,0],"id":26,"left_children":[1,3,5,7,-1,9,11,13,15,17,19,21,23,25,27,29,31,33,35,37,39,41,43,45,47,-1,-1,-1,-1,-1,-1,-1,-1,-1,-1,-1,-1,-1,-1,-1,-1,-1,-1,-1,-1,-1,-1,-1,-1],"loss_changes":[1.8593212E0,5.762649E-1,9.6416E-1,3.374105E-1,0E0,1.0821489E0,8.532922E-1,2.4423122E-1,3.121701E-1,8.709251E-1,1.6464438E0,7.103278E-1,3.7836045E-1,1.5267432E-1,8.242562E-2,4.113868E-1,8.9436585E-1,9.4279253E-1,9.342551E-1,3.703859E-1,1.0466807E0,6.8493164E-1,7.239238E-1,1.96141E-3,3.9245087E-1,0E0,0E0,0E0,0E0,0E0,0E0,0E0,0E0,0E0,0E0,0E0,0E0,0E0,0E0,0E0,0E0,0E0,0E0,0E0,0E0,0E0,0E0,0E0,0E0],"parents":[2147483647,0,0,1,1,2,2,3,3,5,5,6,6,7,7,8,8,9,9,10,10,11,11,12,12,13,13,14,14,15,15,16,16,17,17,18,18,19,19,20,20,21,21,22,22,23,23,24,24],"right_children":[2,4,6,8,-1,10,12,14,16,18,20,22,24,26,28,30,32,34,36,38,40,42,44,46,48,-1,-1,-1,-1,-1,-1,-1,-1,-1,-1,-1,-1,-1,-1,-1,-1,-1,-1,-1,-1,-1,-1,-1,-1],"split_conditions":[3.864E0,2.898E1,2.0686707E2,2.1E0,4.0710296E-2,1.9415019E2,1.9633205E1,1.5228997E1,2.614403E1,8.000001E-1,3.444E0,2.2134E1,1.9829433E1,2.9548521E1,1.806E0,1.4900001E1,3.0400002E-1,1.6454008E1,1.9446E1,7.6233345E-1,2.2127556E1,2.898E1,1.0374E1,1.848E1,9.074834E0,-6.4671547E-3,-2.1683063E-2,2.7255996E-3,2.3587259E-2,-2.9714596E-3,2.3360359E-2,-9.809081E-3,1.4843086E-2,2.4274762E-3,-1.4775469E-2,5.2335914E-3,2.2514677E-2,-2.3039184E-3,4.1458424E-2,1.3418232E-2,-1.9547991E-2,1.53085E-3,-3.5761084E-2,4.6692736E-2,3.3989192E-3,-3.56697E-2,-9.837771E-3,-2.3542792E-3,-1.6109195E-2],"split_indices":[0,1,7,0,0,7,6,4,6,5,2,0,6,6,0,5,4,6,1,4,6,1,2,1,4,0,0,0,0,0,0,0,0,0,0,0,0,0,0,0,0,0,0,0,0,0,0,0,0],"split_type":[0,0,0,0,0,0,0,0,0,0,0,0,0,0,0,0,0,0,0,0,0,0,0,0,0,0,0,0,0,0,0,0,0,0,0,0,0,0,0,0,0,0,0,0,0,0,0,0,0],"sum_hessian":[1.952E3,9.53E2,9.99E2,9.51E2,2E0,5.5E2,4.49E2,2.52E2,6.99E2,4.66E2,8.4E1,3.5E2,9.9E1,2.44E2,8E0,6.4E2,5.9E1,1.82E2,2.84E2,2.4E1,6E1,3.35E2,1.5E1,5E0,9.4E1,2.38E2,6E0,6E0,2E0,6.35E2,5E0,2.4E1,3.5E1,1.42E2,4E1,2.49E2,3.5E1,2E0,2.2E1,4.9E1,1.1E1,3.31E2,4E0,6E0,9E0,4E0,1E0,6.4E1,3E1],"tree_param":{"num_deleted":"0","num_feature":"8","num_nodes":"49","size_leaf_vector":"1"}},{"base_weights":[6.646039E-4,-6.9088726E-3,1.124291E-1,-2.8838987E-2,2.031762E-2,7.714433E-2,2.4907099E-1,1.2361517E-1,-3.4415606E-2,5.7301216E-2,-1.7262574E-2,1.2905842E-1,-3.9532455E-3,-1.7013133E-2,2.7362657E-1,1.5265746E-1,-4.4643253E-2,-1.18641905E-1,-1.9510826E-2,4.238205E-2,1.7803346E-1,1.7693942E-2,-9.077965E-2,6.309806E-2,2.8312492E-1,-1.1287776E-1,1.6648838E-1,3.5985893E-1,1.7297924E-1,-9.63764E-3,1.8789977E-2,-6.7091174E-3,-2.87999E-2,6.6787275E-3,-3.6002875E-3,-1.6042453E-3,8.942941E-3,1.3912566E-2,5.4205697E-2,-5.609253E-3,7.914694E-3,-1.798172E-2,-6.0183504E-3,3.704406E-2,-5.0597417E-4,6.6734436E-3,3.6121864E-2,-9.6778723E-4,-2.6670981E-2,3.6229491E-3,2.2240339E-2,4.3666568E-2,9.707898E-3,3.1326257E-2,4.614435E-3],"categories":[],"categories_nodes":[],"categories_segments":[],"categories_sizes":[],"default_left":[0,0,0,0,0,0,0,0,0,0,0,0,0,0,0,0,0,0,0,0,0,0,0,0,0,0,0,0,0,0,0,0,0,0,0,0,0,0,0,0,0,0,0,0,0,0,0,0,0,0,0,0,0,0,0],"id":27,"left_children":[1,3,5,7,9,11,13,15,17,19,21,23,25,-1,27,29,-1,31,33,35,37,39,41,43,45,47,49,51,53,-1,-1,-1,-1,-1,-1,-1,-1,-1,-1,-1,-1,-1,-1,-1,-1,-1,-1,-1,-1,-1,-1,-1,-1,-1,-1],"loss_changes":[1.6538854E0,1.0932425E0,5.786363E-1,8.6633575E-1,1.1364971E0,4.2152083E-1,3.038962E-1,6.64149E-1,1.2266967E0,7.3455894E-1,1.0449859E0,6.020347E-1,7.614037E-1,0E0,1.4604938E-1,3.2528764E-1,0E0,1.2640588E0,1.1879573E0,1.012963E0,5.6193686E-1,1.2559338E0,3.4604895E-1,9.235772E-1,2.8007138E-1,3.9430502E-1,1.08477235E-1,1.9980824E-1,2.168513E-1,0E0,0E0,0E0,0E0,0E0,0E0,0E0,0E0,0E0,0E0,0E0,0E0,0E0,0E0,0E0,0E0,0E0,0E0,0E0,0E0,0E0,0E0,0E0,0E0,0E0,0E0],"parents":[2147483647,0,0,1,1,2,2,3,3,4,4,5,5,6,6,7,7,8,8,9,9,10,10,11,11,12,12,14,14,15,15,17,17,18,18,19,19,20,20,21,21,22,22,23,23,24,24,25,25,26,26,27,27,28,28],"right_children":[2,4,6,8,10,12,14,16,18,20,22,24,26,-1,28,30,-1,32,34,36,38,40,42,44,46,48,50,52,54,-1,-1,-1,-1,-1,-1,-1,-1,-1,-1,-1,-1,-1,-1,-1,-1,-1,-1,-1,-1,-1,-1,-1,-1,-1,-1],"split_conditions":[1.7099833E1,6E-1,1.974E1,8.913181E0,1.7698677E1,1.05E1,1.7212336E1,1.7892E1,1.4503687E2,1.6917128E1,2.2549973E2,7E-1,1.918525E1,-1.7013133E-2,1.8212332E1,-1.3106419E1,-4.4643253E-2,1.18810835E1,2.1048608E2,4.116E0,1.43E1,1.1081666E0,1.9829433E1,1.7408165E1,1.7491497E1,1.1592E1,1.575E1,4.7E0,2.2134E1,-9.63764E-3,1.8789977E-2,-6.7091174E-3,-2.87999E-2,6.6787275E-3,-3.6002875E-3,-1.6042453E-3,8.942941E-3,1.3912566E-2,5.4205697E-2,-5.609253E-3,7.914694E-3,-1.798172E-2,-6.0183504E-3,3.704406E-2,-5.0597417E-4,6.6734436E-3,3.6121864E-2,-9.6778723E-4,-2.6670981E-2,3.6229491E-3,2.2240339E-2,4.3666568E-2,9.707898E-3,3.1326257E-2,4.614435E-3],"split_indices":[4,5,1,6,6,1,4,1,7,6,7,5,4,0,4,4,0,4,7,2,5,4,6,4,4,2,0,5,1,0,0,0,0,0,0,0,0,0,0,0,0,0,0,0,0,0,0,0,0,0,0,0,0,0,0],"split_type":[0,0,0,0,0,0,0,0,0,0,0,0,0,0,0,0,0,0,0,0,0,0,0,0,0,0,0,0,0,0,0,0,0,0,0,0,0,0,0,0,0,0,0,0,0,0,0,0,0,0,0,0,0,0,0],"sum_hessian":[1.952E3,1.829E3,1.23E2,1.013E3,8.16E2,9.9E1,2.4E1,3.5E1,9.78E2,4.11E2,4.05E2,6E1,3.9E1,1E0,2.3E1,3.4E1,1E0,1.46E2,8.32E2,3.67E2,4.4E1,2.75E2,1.3E2,4.3E1,1.7E1,2.4E1,1.5E1,1.1E1,1.2E1,4E0,3E1,1.13E2,3.3E1,1.33E2,6.99E2,1.64E2,2.03E2,4.1E1,3E0,1.25E2,1.5E2,3.2E1,9.8E1,7E0,3.6E1,5E0,1.2E1,1.5E1,9E0,5E0,1E1,8E0,3E0,5E0,7E0],"tree_param":{"num_deleted":"0","num_feature":"8","num_nodes":"55","size_leaf_vector":"1"}},{"base_weights":[6.676107E-4,-1.0903256E-2,6.274106E-2,-1.5959192E-2,9.8329656E-2,1.12727046E-1,1.1026892E-2,-3.46849E-2,9.784487E-3,2.3439215E-1,2.690329E-2,-4.2904218E-4,1.3856922E-1,-1.0611495E-1,4.5678902E-2,-2.5969317E-2,-1.5375385E-1,-2.9059961E-2,3.8536303E-2,1.2021763E-1,4.2401157E-2,-2.748488E-2,1.9689056E-1,3.0452251E-2,-4.559116E-2,1.2117498E-1,4.691572E-1,-4.164429E-1,-4.051219E-2,1.641469E-1,-4.3843843E-2,1.3342212E-2,-3.155423E-3,-3.6440205E-2,-1.0623685E-2,-5.087966E-3,7.3637436E-3,4.832545E-3,-1.7448507E-2,2.8598895E-2,-2.4421192E-3,-8.923377E-3,1.543354E-2,2.7611313E-2,-3.0582815E-3,6.7625414E-3,-1.7271867E-2,1.3058803E-2,-1.8915683E-2,5.0096274E-3,5.429501E-2,-3.5258948E-3,-4.856279E-2,8.035676E-3,-2.9028578E-2,-4.9241325E-3,2.3106743E-2,2.4350734E-2,-7.557956E-3],"categories":[],"categories_nodes":[],"categories_segments":[],"categories_sizes":[],"default_left":[0,0,0,0,0,0,0,0,0,0,