{"learner":{"attributes":{"scikit_learn":"{\"_estimator_type\": \"regressor\"}"},"feature_names":["temperature_2m_mean","precipitation_sum","wind_speed_10m_max","wind_direction_10m_dominant"],"feature_types":["float","float","float","float"],"gradient_booster":{"model":{"gbtree_model_param":{"num_parallel_tree":"1","num_trees":"100"},"iteration_indptr":[0,1,2,3,4,5,6,7,8,9,10,11,12,13,14,15,16,17,18,19,20,21,22,23,24,25,26,27,28,29,30,31,32,33,34,35,36,37,38,39,40,41,42,43,44,45,46,47,48,49,50,51,52,53,54,55,56,57,58,59,60,61,62,63,64,65,66,67,68,69,70,71,72,73,74,75,76,77,78,79,80,81,82,83,84,85,86,87,88,89,90,91,92,93,94,95,96,97,98,99,100],"tree_info":[0,0,0,0,0,0,0,0,0,0,0,0,0,0,0,0,0,0,0,0,0,0,0,0,0,0,0,0,0,0,0,0,0,0,0,0,0,0,0,0,0,0,0,0,0,0,0,0,0,0,0,0,0,0,0,0,0,0,0,0,0,0,0,0,0,0,0,0,0,0,0,0,0,0,0,0,0,0,0,0,0,0,0,0,0,0,0,0,0,0,0,0,0,0,0,0,0,0,0,0],"trees":[{"base_weights":[-4.052509E-8,2.9296095E0,-2.8823102E0,-5.16182E-2,5.538283E0,-3.1750765E0,2.810772E0,-2.581635E0,1.337922E0,4.3961706E0,1.0064461E1,5.877061E-1,-3.3337212E0,6.283891E0,5.914159E-1,3.3230634E0,-2.7521532E0,-2.1984448E-1,2.9509206E0,2.8341722E0,6.076768E0,7.9242015E0,1.32907715E1,-1.6052306E0,3.2353115E0,-1.8449916E0,-3.6037567E0,9.407425E0,4.1186123E0,-3.7192333E-1,3.9474251E0,-7.092526E-1,2.9178493E0,-1.258601E0,-2.409042E0,5.3244815E0,-6.508214E-1,4.2676206E0,-1.6849582E-1,3.6519158E-1,3.605388E0,3.6650846E0,7.8639584E0,6.59617E0,1.2290877E1,1.4880694E1,6.1609597E0,-1.8619715E0,5.679495E-1,6.2918024E0,-7.399723E-1,-2.0564907E0,1.1312968E0,-2.73605E0,-3.7971408E0,1.0246275E1,6.561494E-1,-6.101505E-1,4.800802E0,-1.5480217E0,2.3207884E0,5.0382743E0,-3.8965052E-1,-6.542505E-1,1.5246597E-1,-1.4413016E-1,-8.457337E-1,3.9427646E-2,3.458959E0,-8.1616896E-1,-6.0901877E-2,7.8372884E-1,2.7016182E0,-1.3381496E-1,1.7649494E0,9.6989346E-1,-3.2365382E-1,5.7843494E0,1.0180584E0,2.1773084E-1,1.3767976E0,2.9497833E0,1.10037E0,2.988768E0,1.4886477E0,4.607599E0,2.3452425E-1,3.0554633E0,5.267273E0,2.1058617E0,-1.0615054E-1,-6.863065E-1,1.5577419E-1,4.5518255E-1,2.8456275E0,-3.0782324E-1,-7.680113E-1,-7.37934E-1,7.0096153E-1,-1.1255312E0,-5.7368004E-1,-1.1605856E0,-5.79793E-1,6.939495E-1,3.4110794E0,1.6560891E0,2.4066602E-1,-5.801822E-1,3.0786607E-1,1.3098824E0,-7.6313406E-1,-3.581505E-1,1.957039E0],"categories":[],"categories_nodes":[],"categories_segments":[],"categories_sizes":[],"default_left":[0,0,0,0,0,0,0,0,0,0,0,0,0,0,0,0,0,0,0,0,0,0,0,0,0,0,0,0,0,0,0,0,0,0,0,0,0,0,0,0,0,0,0,0,0,0,0,0,0,0,0,0,0,0,0,0,0,0,0,0,0,0,0,0,0,0,0,0,0,0,0,0,0,0,0,0,0,0,0,0,0,0,0,0,0,0,0,0,0,0,0,0,0,0,0,0,0,0,0,0,0,0,0,0,0,0,0,0,0,0,0,0,0],"id":0,"left_children":[1,3,5,7,9,11,13,15,17,19,21,23,25,27,29,31,33,35,37,39,41,43,45,47,49,51,53,55,57,59,61,63,-1,-1,65,67,69,71,73,75,77,79,81,83,85,87,89,91,-1,93,-1,95,97,99,101,103,-1,-1,105,107,109,111,-1,-1,-1,-1,-1,-1,-1,-1,-1,-1,-1,-1,-1,-1,-1,-1,-1,-1,-1,-1,-1,-1,-1,-1,-1,-1,-1,-1,-1,-1,-1,-1,-1,-1,-1,-1,-1,-1,-1,-1,-1,-1,-1,-1,-1,-1,-1,-1,-1,-1,-1],"loss_changes":[1.6600988E4,7.582908E3,1.660667E3,1.6065494E3,2.6438457E3,5.648789E2,3.7397998E2,1.7225647E2,7.41888E2,1.0774395E3,6.128154E2,2.3162863E2,3.5716895E2,8.975757E1,1.0169038E2,1.3599493E2,6.8130615E1,3.642762E2,5.962827E2,4.13781E2,8.332051E2,2.9586792E2,3.617544E2,2.3285007E1,3.2921893E2,9.108353E1,1.1797949E2,1.9986694E1,6.432684E1,8.276498E1,4.6604042E1,8.274788E0,0E0,0E0,1.0145813E2,3.5295862E2,1.301352E2,7.7634985E2,7.652935E1,2.2297102E2,4.8586694E2,2.3301636E2,9.056411E2,2.3660156E2,4.8229907E2,2.2342285E2,5.282495E1,2.2476097E1,0E0,1.6858444E2,0E0,6.5862854E1,4.902852E1,1.12478516E2,7.555078E1,2.7199097E1,0E0,0E0,3.0095001E1,1.9866726E1,9.07101E1,6.332309E1,0E0,0E0,0E0,0E0,0E0,0E0,0E0,0E0,0E0,0E0,0E0,0E0,0E0,0E0,0E0,0E0,0E0,0E0,0E0,0E0,0E0,0E0,0E0,0E0,0E0,0E0,0E0,0E0,0E0,0E0,0E0,0E0,0E0,0E0,0E0,0E0,0E0,0E0,0E0,0E0,0E0,0E0,0E0,0E0,0E0,0E0,0E0,0E0,0E0,0E0,0E0],"parents":[2147483647,0,0,1,1,2,2,3,3,4,4,5,5,6,6,7,7,8,8,9,9,10,10,11,11,12,12,13,13,14,14,15,15,16,16,17,17,18,18,19,19,20,20,21,21,22,22,23,23,24,24,25,25,26,26,27,27,28,28,29,29,30,30,31,31,34,34,35,35,36,36,37,37,38,38,39,39,40,40,41,41,42,42,43,43,44,44,45,45,46,46,47,47,49,49,51,51,52,52,53,53,54,54,55,55,58,58,59,59,60,60,61,61],"right_children":[2,4,6,8,10,12,14,16,18,20,22,24,26,28,30,32,34,36,38,40,42,44,46,48,50,52,54,56,58,60,62,64,-1,-1,66,68,70,72,74,76,78,80,82,84,86,88,90,92,-1,94,-1,96,98,100,102,104,-1,-1,106,108,110,112,-1,-1,-1,-1,-1,-1,-1,-1,-1,-1,-1,-1,-1,-1,-1,-1,-1,-1,-1,-1,-1,-1,-1,-1,-1,-1,-1,-1,-1,-1,-1,-1,-1,-1,-1,-1,-1,-1,-1,-1,-1,-1,-1,-1,-1,-1,-1,-1,-1,-1,-1],"split_conditions":[2.2373306E2,4.889416E0,1.59748335E1,5.5935112E1,1.7089415E1,9.779817E0,1.3450708E1,8.404285E0,-7.100003E-2,1.4000002E0,1.8710249E1,-1.5751667E0,2.4719025E2,2.3764323E2,1.7862331E1,-4.0293336E0,-8.198083E0,8.913181E0,2.0227364E2,8.9716805E1,1.310284E2,2.0140705E1,2.0381259E2,9.565437E0,8.274832E0,4.7999997E0,1.2815443E1,1.3276144E1,2.4066386E2,3.2225314E2,1.7673029E1,-6.418916E0,2.9178493E0,-1.258601E0,1.1792404E1,2E-1,-5.4605827E0,1.9318375E2,2.2261403E2,1.1497749E1,5.8248334E0,2.9308851E1,1.94699E2,1.0948973E1,2.0227364E2,1.3587718E2,2.1614435E2,3.451021E2,5.679495E-1,1E-1,-7.399723E-1,1.4230248E1,5.1144166E0,-3.7876666E0,1.4833164E1,1.6224833E1,6.561494E-1,-6.101505E-1,5.4999995E0,3.9999998E0,1.7399834E1,2.3764323E2,-3.8965052E-1,-6.542505E-1,1.5246597E-1,-1.4413016E-1,-8.457337E-1,3.9427646E-2,3.458959E0,-8.1616896E-1,-6.0901877E-2,7.8372884E-1,2.7016182E0,-1.3381496E-1,1.7649494E0,9.6989346E-1,-3.2365382E-1,5.7843494E0,1.0180584E0,2.1773084E-1,1.3767976E0,2.9497833E0,1.10037E0,2.988768E0,1.4886477E0,4.607599E0,2.3452425E-1,3.0554633E0,5.267273E0,2.1058617E0,-1.0615054E-1,-6.863065E-1,1.5577419E-1,4.5518255E-1,2.8456275E0,-3.0782324E-1,-7.680113E-1,-7.37934E-1,7.0096153E-1,-1.1255312E0,-5.7368004E-1,-1.1605856E0,-5.79793E-1,6.939495E-1,3.4110794E0,1.6560891E0,2.4066602E-1,-5.801822E-1,3.0786607E-1,1.3098824E0,-7.6313406E-1,-3.581505E-1,1.957039E0],"split_indices":[3,0,0,3,0,2,2,2,0,1,0,0,3,3,0,0,0,2,3,3,3,2,3,2,0,1,2,2,3,3,2,0,0,0,2,1,0,3,3,0,0,3,3,2,3,3,3,3,0,1,0,2,0,0,0,0,0,0,1,1,0,3,0,0,0,0,0,0,0,0,0,0,0,0,0,0,0,0,0,0,0,0,0,0,0,0,0,0,0,0,0,0,0,0,0,0,0,0,0,0,0,0,0,0,0,0,0,0,0,0,0,0,0],"split_type":[0,0,0,0,0,0,0,0,0,0,0,0,0,0,0,0,0,0,0,0,0,0,0,0,0,0,0,0,0,0,0,0,0,0,0,0,0,0,0,0,0,0,0,0,0,0,0,0,0,0,0,0,0,0,0,0,0,0,0,0,0,0,0,0,0,0,0,0,0,0,0,0,0,0,0,0,0,0,0,0,0,0,0,0,0,0,0,0,0,0,0,0,0,0,0,0,0,0,0,0,0,0,0,0,0,0,0,0,0,0,0,0,0],"sum_hessian":[1.964E3,9.74E2,9.9E2,4.55E2,5.19E2,9.42E2,4.8E1,1.61E2,2.94E2,4.16E2,1.03E2,3.8E1,9.04E2,1.8E1,3E1,4E0,1.57E2,1.5E2,1.44E2,2.17E2,1.99E2,6.4E1,3.9E1,2.1E1,1.7E1,1.4E2,7.64E2,6E0,1.2E1,2.4E1,6E0,3E0,1E0,2.8E1,1.29E2,1E1,1.4E2,1.01E2,4.3E1,5.2E1,1.65E2,8.6E1,1.13E2,5.1E1,1.3E1,3.1E1,8E0,2E1,1E0,1.1E1,6E0,1.31E2,9E0,1.42E2,6.22E2,5E0,1E0,1E0,1.1E1,1.7E1,7E0,5E0,1E0,1E0,2E0,2.3E1,1.06E2,6E0,4E0,2.4E1,1.16E2,7.6E1,2.5E1,4.2E1,1E0,1.7E1,3.5E1,1E0,1.64E2,2.1E1,6.5E1,7.6E1,3.7E1,1.5E1,3.6E1,1E1,3E0,1.3E1,1.8E1,7E0,1E0,1.7E1,3E0,5E0,6E0,4.4E1,8.7E1,2E0,7E0,6.2E1,8E1,5.98E2,2.4E1,1E0,4E0,9E0,2E0,1.5E1,2E0,5E0,2E0,1E0,4E0],"tree_param":{"num_deleted":"0","num_feature":"4","num_nodes":"113","size_leaf_vector":"1"}},{"base_weights":[2.3520593E-2,2.184894E0,-1.9446335E0,-2.8120717E-3,4.189179E0,-2.1808908E0,2.5362184E0,-1.6859449E0,1.1939509E0,3.692778E0,9.822194E0,4.7801614E-1,-2.288887E0,8.207605E0,1.7582494E0,4.596218E0,-1.9195869E0,-1.0692738E0,1.9886614E0,1.8592805E0,4.7643795E0,7.194611E0,1.3149681E1,-1.1219606E0,2.406987E0,-1.1664653E0,-2.517632E0,3.474036E0,3.5349493E0,7.540156E0,8.903997E-1,1.5593596E-1,3.139385E0,-2.219421E0,-9.91391E-1,-1.6081479E-1,-2.3937743E0,2.5016682E0,-1.9565057E0,8.302117E0,1.5275912E0,3.8012173E0,7.397709E0,4.974031E0,9.366748E0,-2.6207006E-1,1.4142802E1,-1.3286436E0,4.827571E-1,4.6793294E0,-5.4969376E-1,-1.2325873E0,2.7268283E0,-3.0850585E0,-2.3059015E0,1.5642481E0,-2.619504E-1,3.8342505E0,3.9104526E0,3.8200802E-1,3.3777852E0,-5.5611295E-1,3.3653244E-1,-8.88509E-1,-6.051148E-1,3.4040755E-1,-5.871034E-1,-6.230897E-1,4.537186E-1,-1.3370025E-1,-7.5794625E-1,1.029319E0,-1.1637704E-1,-7.569093E-1,-2.384722E-1,8.1278574E-1,3.3347878E0,-4.8883927E-1,6.277638E-1,2.3794405E0,1.0046486E0,4.6807804E0,1.8127371E0,2.0211897E0,1.358069E-1,3.1016238E0,9.985526E-1,6.283585E-1,4.4561353E0,-4.795994E-1,2.4731113E-1,7.84125E-1,4.1101055E0,-8.303471E-2,-4.5004168E-1,1.4700217E0,-2.4294885E-1,-6.598091E-1,-9.564213E-1,-5.426983E-1,-8.410314E-1,1.8727522E-1,1.72985E0,-5.0672567E-3,1.4326578E0,1.2575761E0,2.6848948E-1],"categories":[],"categories_nodes":[],"categories_segments":[],"categories_sizes":[],"default_left":[0,0,0,0,0,0,0,0,0,0,0,0,0,0,0,0,0,0,0,0,0,0,0,0,0,0,0,0,0,0,0,0,0,0,0,0,0,0,0,0,0,0,0,0,0,0,0,0,0,0,0,0,0,0,0,0,0,0,0,0,0,0,0,0,0,0,0,0,0,0,0,0,0,0,0,0,0,0,0,0,0,0,0,0,0,0,0,0,0,0,0,0,0,0,0,0,0,0,0,0,0,0,0,0,0,0,0],"id":1,"left_children":[1,3,5,7,9,11,13,15,17,19,21,23,25,27,29,31,33,35,37,39,41,43,45,47,49,51,53,55,-1,57,59,61,-1,63,65,67,69,71,73,75,77,79,81,83,85,-1,87,89,-1,91,-1,93,95,97,99,-1,-1,101,-1,103,105,-1,-1,-1,-1,-1,-1,-1,-1,-1,-1,-1,-1,-1,-1,-1,-1,-1,-1,-1,-1,-1,-1,-1,-1,-1,-1,-1,-1,-1,-1,-1,-1,-1,-1,-1,-1,-1,-1,-1,-1,-1,-1,-1,-1,-1,-1],"loss_changes":[8.363194E3,4.1085566E3,1.0948655E3,9.0643854E2,1.3310869E3,2.819292E2,2.1500146E2,2.8329712E2,4.7516046E2,8.772573E2,2.4637964E2,1.2306657E2,2.3840625E2,6.0615784E1,2.2912405E2,1.8076958E2,4.817279E1,8.26396E1,3.9955457E2,3.4633716E2,6.921953E2,6.9171265E1,2.351831E2,1.4556644E1,1.8197049E2,4.480774E1,8.659619E1,3.481153E1,0E0,7.2197876E1,5.1821434E1,1.1784414E1,0E0,1.4455444E1,9.66581E1,1.3779836E2,6.1131287E0,4.6593506E2,1.3130135E1,9.578241E1,2.905682E2,3.6581934E2,7.396992E2,1.08562744E2,3.0148071E1,0E0,9.738013E1,1.3526432E1,0E0,1.8779437E2,0E0,4.0245377E1,2.7026281E1,1.2057007E1,1.3634375E2,0E0,0E0,2.7407715E1,0E0,6.3173157E1,1.0397835E1,0E0,0E0,0E0,0E0,0E0,0E0,0E0,0E0,0E0,0E0,0E0,0E0,0E0,0E0,0E0,0E0,0E0,0E0,0E0,0E0,0E0,0E0,0E0,0E0,0E0,0E0,0E0,0E0,0E0,0E0,0E0,0E0,0E0,0E0,0E0,0E0,0E0,0E0,0E0,0E0,0E0,0E0,0E0,0E0,0E0,0E0],"parents":[2147483647,0,0,1,1,2,2,3,3,4,4,5,5,6,6,7,7,8,8,9,9,10,10,11,11,12,12,13,13,14,14,15,15,16,16,17,17,18,18,19,19,20,20,21,21,22,22,23,23,24,24,25,25,26,26,27,27,29,29,30,30,31,31,33,33,34,34,35,35,36,36,37,37,38,38,39,39,40,40,41,41,42,42,43,43,44,44,46,46,47,47,49,49,51,51,52,52,53,53,54,54,57,57,59,59,60,60],"right_children":[2,4,6,8,10,12,14,16,18,20,22,24,26,28,30,32,34,36,38,40,42,44,46,48,50,52,54,56,-1,58,60,62,-1,64,66,68,70,72,74,76,78,80,82,84,86,-1,88,90,-1,92,-1,94,96,98,100,-1,-1,102,-1,104,106,-1,-1,-1,-1,-1,-1,-1,-1,-1,-1,-1,-1,-1,-1,-1,-1,-1,-1,-1,-1,-1,-1,-1,-1,-1,-1,-1,-1,-1,-1,-1,-1,-1,-1,-1,-1,-1,-1,-1,-1,-1,-1,-1,-1,-1,-1],"split_conditions":[2.1780081E2,5.4248333E0,1.59748335E1,6.493675E1,1.8710249E1,9.779817E0,1.1019764E1,8.654987E0,-2.6022496E0,1.310284E2,2E-1,-1.5751667E0,2.4429007E2,1.6635248E1,2.2840794E2,-4.0293336E0,4.500017E1,1.5161095E2,9.5E0,8.654987E0,3.8E0,1.2429127E1,6.3435013E1,9.565437E0,8.274832E0,2.9548521E1,-4.27725E0,1.2E0,3.5349493E0,1.5815435E1,5.1000004E0,1E-1,3.139385E0,-8.198083E0,1.3237039E1,-5.4605827E0,-7.27725E0,2.0652289E2,2.9940662E1,7.1227508E0,9.237333E0,7.4019165E0,4.5999994E0,2.0529E1,1.5484185E1,-2.6207006E-1,9.957108E0,3.4720605E2,4.827571E-1,7.045667E0,-5.4969376E-1,1.2931218E1,1.1769167E0,2.7799738E2,1.7429354E1,1.5642481E0,-2.619504E-1,2.2261403E2,3.9104526E0,1.9495667E1,1.3797913E1,-5.5611295E-1,3.3653244E-1,-8.88509E-1,-6.051148E-1,3.4040755E-1,-5.871034E-1,-6.230897E-1,4.537186E-1,-1.3370025E-1,-7.5794625E-1,1.029319E0,-1.1637704E-1,-7.569093E-1,-2.384722E-1,8.1278574E-1,3.3347878E0,-4.8883927E-1,6.277638E-1,2.3794405E0,1.0046486E0,4.6807804E0,1.8127371E0,2.0211897E0,1.358069E-1,3.1016238E0,9.985526E-1,6.283585E-1,4.4561353E0,-4.795994E-1,2.4731113E-1,7.84125E-1,4.1101055E0,-8.303471E-2,-4.5004168E-1,1.4700217E0,-2.4294885E-1,-6.598091E-1,-9.564213E-1,-5.426983E-1,-8.410314E-1,1.8727522E-1,1.72985E0,-5.0672567E-3,1.4326578E0,1.2575761E0,2.6848948E-1],"split_indices":[3,0,0,3,0,2,2,2,0,3,1,0,3,0,3,0,3,3,1,2,1,2,3,2,0,2,0,1,0,2,1,1,0,0,2,0,0,3,2,0,0,0,1,0,2,0,2,3,0,0,0,2,0,3,2,0,0,3,0,0,2,0,0,0,0,0,0,0,0,0,0,0,0,0,0,0,0,0,0,0,0,0,0,0,0,0,0,0,0,0,0,0,0,0,0,0,0,0,0,0,0,0,0,0,0,0,0],"split_type":[0,0,0,0,0,0,0,0,0,0,0,0,0,0,0,0,0,0,0,0,0,0,0,0,0,0,0,0,0,0,0,0,0,0,0,0,0,0,0,0,0,0,0,0,0,0,0,0,0,0,0,0,0,0,0,0,0,0,0,0,0,0,0,0,0,0,0,0,0,0,0,0,0,0,0,0,0,0,0,0,0,0,0,0,0,0,0,0,0,0,0,0,0,0,0,0,0,0,0,0,0,0,0,0,0,0,0],"sum_hessian":[1.964E3,9.36E2,1.028E3,4.48E2,4.88E2,9.77E2,5.1E1,1.86E2,2.62E2,4.5E2,3.8E1,3.8E1,9.39E2,5E0,4.6E1,6E0,1.8E2,6.8E1,1.94E2,1.67E2,2.83E2,2.3E1,1.5E1,2.1E1,1.7E1,1.6E2,7.79E2,3E0,2E0,5E0,4.1E1,4E0,2E0,1.35E2,4.5E1,4.1E1,2.7E1,1.72E2,2.2E1,7E0,1.6E2,2.09E2,7.4E1,1.3E1,1E1,1E0,1.4E1,2E1,1E0,1.1E1,6E0,1.58E2,2E0,2.08E2,5.71E2,2E0,1E0,4E0,1E0,3.5E1,6E0,1E0,3E0,2.6E1,1.09E2,1.4E1,3.1E1,1.9E1,2.2E1,2E0,2.5E1,1.3E2,4.2E1,1.4E1,8E0,3E0,4E0,2.4E1,1.36E2,1.9E1,1.9E2,9E0,6.5E1,9E0,4E0,8E0,2E0,1E0,1.3E1,1.8E1,2E0,1E1,1E0,3.5E1,1.23E2,1E0,1E0,2.4E1,1.84E2,2.88E2,2.83E2,2E0,2E0,3.3E1,2E0,4E0,2E0],"tree_param":{"num_deleted":"0","num_feature":"4","num_nodes":"107","size_leaf_vector":"1"}},{"base_weights":[3.7424915E-2,1.647611E0,-1.297192E0,1.1657935E-2,3.0868108E0,-1.4969934E0,2.1688292E0,-1.0442952E0,1.1459657E0,2.7209558E0,7.462464E0,-1.0165482E0,-1.8630695E0,6.229521E-1,3.2871814E0,3.725653E0,-1.2927258E0,1.7995894E0,-5.9182454E-2,1.3519967E0,3.540395E0,6.077902E0,1.1548695E1,1.8268517E0,-1.1069702E0,-9.307306E-1,-2.0072296E0,1.4582988E0,2.5899053E-1,2.8279593E0,2.608893E0,3.6269775E-1,6.4676657E0,-1.5461944E0,-4.870926E-1,-9.943824E-2,3.1751943E0,2.8618717E0,-1.1603503E0,6.329929E0,1.0930316E0,2.2767491E0,4.4265127E0,2.4982893E0,7.563813E0,3.8614419E0,3.4338757E-1,1.7579444E-1,3.4935896E0,-5.896114E-1,-1.3201636E0,-1.1186824E0,8.771771E-1,-2.082513E0,-1.9805251E-1,-3.6131206E-1,8.4373903E-1,6.282011E0,1.5196345E0,-3.507975E-1,4.2631215E-1,3.226435E0,-4.2131355E-1,-3.1253922E-1,-5.7303435E-1,2.6899922E0,-2.5665003E-1,1.0866929E0,-2.385583E-1,1.5469048E0,1.7286833E-1,-1.5513343E-1,1.5472859E0,-4.3126196E-1,7.783815E-1,2.2351153E0,-2.2698842E-1,1.3304316E-1,1.0144918E0,2.1037146E-2,1.6066108E0,2.2713704E0,7.543603E-1,-3.156209E-2,1.2754464E0,2.6731074E0,1.3290608E0,1.2680444E0,-6.2829155E-1,-1.3147452E-1,-6.4378864E-1,-2.3750578E-1,-4.8646995E-1,-4.5021284E-1,-2.0158435E-1,1.5391153E0,-4.186868E-1,-6.9459295E-1,-5.6199515E-1,-3.1115887E-1,2.487723E0,2.5214243E-1,-2.6941755E-1,7.953491E-1,3.0718262E0,7.664163E-1,2.9742105E-2],"categories":[],"categories_nodes":[],"categories_segments":[],"categories_sizes":[],"default_left":[0,0,0,0,0,0,0,0,0,0,0,0,0,0,0,0,0,0,0,0,0,0,0,0,0,0,0,0,0,0,0,0,0,0,0,0,0,0,0,0,0,0,0,0,0,0,0,0,0,0,0,0,0,0,0,0,0,0,0,0,0,0,0,0,0,0,0,0,0,0,0,0,0,0,0,0,0,0,0,0,0,0,0,0,0,0,0,0,0,0,0,0,0,0,0,0,0,0,0,0,0,0,0,0,0,0,0],"id":2,"left_children":[1,3,5,7,9,11,13,15,17,19,21,23,25,27,29,31,33,35,37,39,41,43,45,47,49,51,53,-1,55,-1,57,59,61,63,65,67,69,71,73,75,77,79,81,83,85,-1,-1,87,-1,89,91,93,95,97,99,101,-1,103,105,-1,-1,-1,-1,-1,-1,-1,-1,-1,-1,-1,-1,-1,-1,-1,-1,-1,-1,-1,-1,-1,-1,-1,-1,-1,-1,-1,-1,-1,-1,-1,-1,-1,-1,-1,-1,-1,-1,-1,-1,-1,-1,-1,-1,-1,-1,-1,-1],"loss_changes":[4.2248857E3,2.097791E3,7.477013E2,5.0186703E2,7.385E2,1.7697559E2,9.995352E1,2.619615E2,1.5922464E2,4.8767407E2,1.334834E2,1.1566312E2,7.5549805E1,3.884566E1,1.1699164E2,9.9088104E1,4.1516815E1,3.425285E2,2.349139E2,2.0707361E2,2.9673022E2,1.35354E2,9.536511E1,2.2490424E2,4.6539185E1,2.7825447E1,6.741553E1,0E0,4.0614323E1,0E0,1.1848485E2,1.1390088E1,2.1759402E2,2.682898E1,1.8529509E2,1.4788844E2,3.8834937E2,1.5781296E2,5.8894035E1,6.915851E1,2.3486581E2,7.8086096E2,9.429844E2,4.6091743E1,4.491626E1,0E0,0E0,1.2840308E2,0E0,2.8977417E1,4.6979492E1,1.1279465E1,8.449358E1,1.8941406E1,1.5821992E2,1.4300945E1,0E0,7.3434875E1,3.797541E1,0E0,0E0,0E0,0E0,0E0,0E0,0E0,0E0,0E0,0E0,0E0,0E0,0E0,0E0,0E0,0E0,0E0,0E0,0E0,0E0,0E0,0E0,0E0,0E0,0E0,0E0,0E0,0E0,0E0,0E0,0E0,0E0,0E0,0E0,0E0,0E0,0E0,0E0,0E0,0E0,0E0,0E0,0E0,0E0,0E0,0E0,0E0,0E0],"parents":[2147483647,0,0,1,1,2,2,3,3,4,4,5,5,6,6,7,7,8,8,9,9,10,10,11,11,12,12,13,13,14,14,15,15,16,16,17,17,18,18,19,19,20,20,21,21,22,22,23,23,24,24,25,25,26,26,28,28,30,30,31,31,32,32,33,33,34,34,35,35,36,36,37,37,38,38,39,39,40,40,41,41,42,42,43,43,44,44,47,47,49,49,50,50,51,51,52,52,53,53,54,54,55,55,57,57,58,58],"right_children":[2,4,6,8,10,12,14,16,18,20,22,24,26,28,30,32,34,36,38,40,42,44,46,48,50,52,54,-1,56,-1,58,60,62,64,66,68,70,72,74,76,78,80,82,84,86,-1,-1,88,-1,90,92,94,96,98,100,102,-1,104,106,-1,-1,-1,-1,-1,-1,-1,-1,-1,-1,-1,-1,-1,-1,-1,-1,-1,-1,-1,-1,-1,-1,-1,-1,-1,-1,-1,-1,-1,-1,-1,-1,-1,-1,-1,-1,-1,-1,-1,-1,-1,-1,-1,-1,-1,-1,-1,-1],"split_conditions":[2.119208E2,5.1144166E0,1.59748335E1,9.519434E1,1.8710249E1,2.8435202E2,1.6774832E1,8.654987E0,4.7E0,1.2739257E2,2.1139416E1,9.693296E0,1.1659777E1,8.825508E0,1.1019764E1,-4.0293336E0,-7.100003E-2,-2.6683342E-1,1.8671474E1,8.654987E0,2E-1,1.3587718E2,1.5842863E2,2.8367618E2,2.3351068E2,3.557308E2,1.4710248E1,1.4582988E0,6.4999995E0,2.8279593E0,2.2106111E2,3.547188E1,-1.4585E0,1.498331E1,5.608344E-2,1.2210622E2,1.4519167E0,6.2E0,2.570667E0,7.0000005E-1,7.4999986E0,1.5008166E1,1.0931084E1,2.0028997E1,1.9318375E2,3.8614419E0,3.4338757E-1,-6.2725E-1,3.4935896E0,1.4710248E1,1.4685176E1,-3.7876666E0,8.404285E0,-8.876667E-1,1.4900001E1,1.6224833E1,8.4373903E-1,1E-1,1.722742E1,-3.507975E-1,4.2631215E-1,3.226435E0,-4.2131355E-1,-3.1253922E-1,-5.7303435E-1,2.6899922E0,-2.5665003E-1,1.0866929E0,-2.385583E-1,1.5469048E0,1.7286833E-1,-1.5513343E-1,1.5472859E0,-4.3126196E-1,7.783815E-1,2.2351153E0,-2.2698842E-1,1.3304316E-1,1.0144918E0,2.1037146E-2,1.6066108E0,2.2713704E0,7.543603E-1,-3.156209E-2,1.2754464E0,2.6731074E0,1.3290608E0,1.2680444E0,-6.2829155E-1,-1.3147452E-1,-6.4378864E-1,-2.3750578E-1,-4.8646995E-1,-4.5021284E-1,-2.0158435E-1,1.5391153E0,-4.186868E-1,-6.9459295E-1,-5.6199515E-1,-3.1115887E-1,2.487723E0,2.5214243E-1,-2.6941755E-1,7.953491E-1,3.0718262E0,7.664163E-1,2.9742105E-2],"split_indices":[3,0,0,3,0,3,0,2,1,3,0,2,2,2,2,0,0,0,2,2,1,3,3,3,3,3,0,0,1,0,3,3,0,2,0,3,0,1,0,1,1,0,0,0,3,0,0,0,0,0,2,0,2,0,1,0,0,1,2,0,0,0,0,0,0,0,0,0,0,0,0,0,0,0,0,0,0,0,0,0,0,0,0,0,0,0,0,0,0,0,0,0,0,0,0,0,0,0,0,0,0,0,0,0,0,0,0],"split_type":[0,0,0,0,0,0,0,0,0,0,0,0,0,0,0,0,0,0,0,0,0,0,0,0,0,0,0,0,0,0,0,0,0,0,0,0,0,0,0,0,0,0,0,0,0,0,0,0,0,0,0,0,0,0,0,0,0,0,0,0,0,0,0,0,0,0,0,0,0,0,0,0,0,0,0,0,0,0,0,0,0,0,0,0,0,0,0,0,0,0,0,0,0,0,0,0,0,0,0,0,0,0,0,0,0,0,0],"sum_hessian":[1.964E3,8.9E2,1.074E3,4.17E2,4.73E2,1.016E3,5.8E1,2.16E2,2.01E2,4.38E2,3.5E1,4.41E2,5.75E2,2.5E1,3.3E1,1E1,2.06E2,1.3E2,7.1E1,1.65E2,2.73E2,2.8E1,7E0,1.3E1,4.28E2,7.8E1,4.97E2,1E0,2.4E1,2E0,3.1E1,5E0,5E0,1.56E2,5E1,5.5E1,7.5E1,1.9E1,5.2E1,7E0,1.58E2,1.14E2,1.59E2,9E0,1.9E1,6E0,1E0,1.2E1,1E0,1.26E2,3.02E2,7.1E1,7E0,4.77E2,2E1,2E1,4E0,6E0,2.5E1,2E0,3E0,3E0,2E0,6.7E1,8.9E1,1E0,4.9E1,8E0,4.7E1,4.2E1,3.3E1,8E0,1.1E1,4.9E1,3E0,6E0,1E0,1.24E2,3.4E1,6.7E1,4.7E1,5.9E1,1E2,4E0,5E0,1.2E1,7E0,4E0,8E0,1.16E2,1E1,1.11E2,1.91E2,3.7E1,3.4E1,2E0,5E0,2.21E2,2.56E2,1.9E1,1E0,6E0,1.4E1,4E0,2E0,1.4E1,1.1E1],"tree_param":{"num_deleted":"0","num_feature":"4","num_nodes":"107","size_leaf_vector":"1"}},{"base_weights":[4.6448942E-2,-2.8564546E-1,3.3615675E0,7.759573E-1,-9.862155E-1,3.1324425E0,3.7808044E0,-9.3684715E-1,1.4159343E0,-6.308355E-1,-1.2862616E0,8.754973E0,2.81259E0,3.4295604E-1,-1.3256667E0,-2.1134203E-2,1.9124311E0,-6.753201E-1,1.8463708E0,-1.3829337E0,-2.5072214E-1,1.1531604E1,2.4012847E0,5.963352E0,2.1669593E0,-4.9193043E-1,3.3977404E0,-1.8989815E0,-9.1782534E-1,2.7646868E0,-2.4383081E-1,6.9720893E0,1.7168729E0,-9.238422E-1,-3.3183202E-1,-3.974587E-1,2.969551E0,-1.0445081E0,-1.5688834E0,9.3099445E-1,-1.5169472E0,3.3609138E0,4.4330163E0,1.0820107E0,-1.8224517E-1,3.2012172E0,9.379431E0,3.006361E0,6.72476E-1,-2.535531E-1,3.4281683E-1,-6.4317715E-1,1.5153441E0,-4.5081732E-1,-9.0419656E-1,-8.515322E-1,-2.234363E-1,7.470784E-2,1.5691627E0,-1.0089644E-1,1.6837511E0,2.8836727E0,5.549539E-1,5.6961875E-2,7.022507E-1,-9.994978E-2,-3.37432E-1,6.282599E-1,-1.6833809E-1,-4.961353E-1,3.8169387E-1,-4.9828675E-1,-2.1024135E-1,-4.8093826E-1,8.9686565E-2,1.1882573E-1,1.5234708E0,-4.8878816E-1,1.7690578E-1,-3.7298036E-1,1.8853916E0,-1.14960544E-1,1.9289837E0,1.8491527E0,3.7945457E0,-4.0944524E-2,1.1381903E0,-3.6920673E-1,4.8960993E-1],"categories":[],"categories_nodes":[],"categories_segments":[],"categories_sizes":[],"default_left":[0,0,0,0,0,0,0,0,0,0,0,0,0,0,0,0,0,0,0,0,0,0,0,0,0,0,0,0,0,0,0,0,0,0,0,0,0,0,0,0,0,0,0,0,0,0,0,0,0,0,0,0,0,0,0,0,0,0,0,0,0,0,0,0,0,0,0,0,0,0,0,0,0,0,0,0,0,0,0,0,0,0,0,0,0,0,0,0,0],"id":3,"left_children":[1,3,5,7,9,11,-1,13,15,17,19,21,23,25,27,29,31,33,35,37,39,41,43,45,47,49,51,53,55,57,59,61,63,65,67,69,-1,71,73,75,77,79,-1,-1,-1,81,83,85,87,-1,-1,-1,-1,-1,-1,-1,-1,-1,-1,-1,-1,-1,-1,-1,-1,-1,-1,-1,-1,-1,-1,-1,-1,-1,-1,-1,-1,-1,-1,-1,-1,-1,-1,-1,-1,-1,-1,-1,-1],"loss_changes":[2.1642922E3,1.3298055E3,3.3953235E2,7.8069305E2,1.1402942E2,2.9189075E2,0E0,9.6991455E1,3.6963342E2,5.5794724E1,5.8016113E1,1.3108594E2,3.2882812E2,1.1898976E2,3.3096466E1,8.380677E1,3.6897107E2,4.12659E1,1.6654277E2,3.1903076E1,7.772455E1,1.0942578E2,1.6698303E1,2.3417303E2,1.7485876E2,2.2330917E1,1.0245552E2,2.242241E1,2.7464134E1,6.0730026E1,6.959461E1,1.7154785E2,3.5399377E2,3.3094467E1,1.1576812E2,1.8886343E1,0E0,3.9516037E1,2.2354431E1,5.7885254E1,6.877598E0,4.8197567E1,0E0,0E0,0E0,1.9920691E2,4.817993E1,2.2329688E2,9.697068E1,0E0,0E0,0E0,0E0,0E0,0E0,0E0,0E0,0E0,0E0,0E0,0E0,0E0,0E0,0E0,0E0,0E0,0E0,0E0,0E0,0E0,0E0,0E0,0E0,0E0,0E0,0E0,0E0,0E0,0E0,0E0,0E0,0E0,0E0,0E0,0E0,0E0,0E0,0E0,0E0],"parents":[2147483647,0,0,1,1,2,2,3,3,4,4,5,5,7,7,8,8,9,9,10,10,11,11,12,12,13,13,14,14,15,15,16,16,17,17,18,18,19,19,20,20,21,21,22,22,23,23,24,24,25,25,26,26,27,27,28,28,29,29,30,30,31,31,32,32,33,33,34,34,35,35,37,37,38,38,39,39,40,40,41,41,45,45,46,46,47,47,48,48],"right_children":[2,4,6,8,10,12,-1,14,16,18,20,22,24,26,28,30,32,34,36,38,40,42,44,46,48,50,52,54,56,58,60,62,64,66,68,70,-1,72,74,76,78,80,-1,-1,-1,82,84,86,88,-1,-1,-1,-1,-1,-1,-1,-1,-1,-1,-1,-1,-1,-1,-1,-1,-1,-1,-1,-1,-1,-1,-1,-1,-1,-1,-1,-1,-1,-1,-1,-1,-1,-1,-1,-1,-1,-1,-1,-1],"split_conditions":[1.6418583E1,2.0652289E2,1.59E1,4.6829895E1,2.8435202E2,1.6541502E1,3.7808044E0,1.2144331E1,-7.100003E-2,2.8367618E2,3.8E0,2.1107274E2,1.1019764E1,1.3000002E0,6E-1,8.825508E0,5.256406E1,3E-1,4.5039997E0,1.4255272E1,1.813003E1,1.0648208E2,1.2E0,1.5161095E2,2.0652289E2,5.4248333E0,-4.8230834E0,3.7977498E0,1.2594856E1,2E-1,2.0558841E2,1.0931084E1,2E-1,1.2815443E1,5E-1,1.4869351E1,2.969551E0,-8.037666E0,1.5470666E1,1.4900001E1,1.5862331E1,1E-1,4.4330163E0,1.0820107E0,-1.8224517E-1,1E-1,1.0805998E1,7.121229E1,1.7089415E1,-2.535531E-1,3.4281683E-1,-6.4317715E-1,1.5153441E0,-4.5081732E-1,-9.0419656E-1,-8.515322E-1,-2.234363E-1,7.470784E-2,1.5691627E0,-1.0089644E-1,1.6837511E0,2.8836727E0,5.549539E-1,5.6961875E-2,7.022507E-1,-9.994978E-2,-3.37432E-1,6.282599E-1,-1.6833809E-1,-4.961353E-1,3.8169387E-1,-4.9828675E-1,-2.1024135E-1,-4.8093826E-1,8.9686565E-2,1.1882573E-1,1.5234708E0,-4.8878816E-1,1.7690578E-1,-3.7298036E-1,1.8853916E0,-1.14960544E-1,1.9289837E0,1.8491527E0,3.7945457E0,-4.0944524E-2,1.1381903E0,-3.6920673E-1,4.8960993E-1],"split_indices":[0,3,1,3,3,0,0,2,0,3,1,3,2,1,1,2,3,1,0,2,2,3,1,3,3,0,0,0,2,1,3,0,1,2,1,2,0,0,0,1,0,1,0,0,0,1,2,3,0,0,0,0,0,0,0,0,0,0,0,0,0,0,0,0,0,0,0,0,0,0,0,0,0,0,0,0,0,0,0,0,0,0,0,0,0,0,0,0,0],"split_type":[0,0,0,0,0,0,0,0,0,0,0,0,0,0,0,0,0,0,0,0,0,0,0,0,0,0,0,0,0,0,0,0,0,0,0,0,0,0,0,0,0,0,0,0,0,0,0,0,0,0,0,0,0,0,0,0,0,0,0,0,0,0,0,0,0,0,0,0,0,0,0,0,0,0,0,0,0,0,0,0,0,0,0,0,0,0,0,0,0],"sum_hessian":[1.964E3,1.786E3,1.78E2,7.1E2,1.076E3,1.75E2,3E0,1.93E2,5.17E2,4.94E2,5.82E2,8E0,1.67E2,4.5E1,1.48E2,1.33E2,3.84E2,4.86E2,8E0,5.32E2,5E1,5E0,3E0,2.7E1,1.4E2,3.6E1,9E0,6E1,8.8E1,9E0,1.24E2,1.3E1,3.71E2,2.81E2,2.05E2,7E0,1E0,1.91E2,3.41E2,2.6E1,2.4E1,2E0,3E0,2E0,1E0,1.6E1,1.1E1,8.9E1,5.1E1,3E1,6E0,2E0,7E0,4.6E1,1.4E1,6E0,8.2E1,5E0,4E0,1.23E2,1E0,8E0,5E0,1.08E2,2.63E2,7.2E1,2.09E2,1.7E1,1.88E2,4E0,3E0,6.7E1,1.24E2,3.35E2,6E0,2.4E1,2E0,2.3E1,1E0,1E0,1E0,8E0,8E0,7E0,4E0,1.8E1,7.1E1,1.7E1,3.4E1],"tree_param":{"num_deleted":"0","num_feature":"4","num_nodes":"89","size_leaf_vector":"1"}},{"base_weights":[4.694973E-2,-1.9487944E-1,2.460926E0,5.1748455E-1,-7.177356E-1,2.2808948E0,9.767078E0,-6.6336286E-1,9.2274505E-1,4.9862376E-1,-7.6351416E-1,6.8890586E0,2.020452E0,3.3233836E0,8.751721E-1,2.609698E-1,-9.4427526E-1,3.1564224E-1,1.4952642E0,-5.145493E-1,1.7804581E0,-3.331706E-1,-8.9483726E-1,9.063027E0,1.9058409E0,1.7306553E0,6.4261756E0,-3.4193882E-1,2.4656348E0,-1.5464594E0,-7.315317E-1,5.859565E-1,-1.2414186E0,3.0192618E0,3.059776E-1,-1.0003139E0,2.8953974E0,3.6600137E0,-1.4274802E0,-1.6780151E-1,-8.20828E-1,-9.4016975E-1,-7.58235E-2,2.8567767E0,3.4355874E0,1.0772524E0,1.4722697E-1,1.1431812E0,2.988485E0,8.441923E0,1.2920744E0,-4.610729E-1,-3.564601E-3,-5.1454175E-1,1.1175662E0,-3.5541713E-1,-6.69448E-1,-6.250967E-1,-1.8646374E-1,-1.881521E-1,3.409456E-1,-4.7059658E-1,2.8915303E-2,6.5891606E-1,2.577205E0,-9.8144513E-1,2.1445045E-1,-3.725431E-1,2.3463084E-1,1.3597393E0,-5.6810405E-2,4.0693533E-1,2.8052092E0,-4.8454937E-1,-4.5206167E-2,-8.843005E-2,4.7758648E-1,-5.417341E-1,-1.3320251E-1,-4.7002396E-1,-2.667376E-1,-1.1761793E-1,1.886044E0,-3.1703332E-1,1.6025829E0,2.2116052E-1,-1.5490837E-1,9.198161E-1,2.045427E-1,1.91698E0,4.4646055E-1,3.393726E0,1.5093721E0,-1.1975881E-1,9.548829E-1],"categories":[],"categories_nodes":[],"categories_segments":[],"categories_sizes":[],"default_left":[0,0,0,0,0,0,0,0,0,0,0,0,0,0,0,0,0,0,0,0,0,0,0,0,0,0,0,0,0,0,0,0,0,0,0,0,0,0,0,0,0,0,0,0,0,0,0,0,0,0,0,0,0,0,0,0,0,0,0,0,0,0,0,0,0,0,0,0,0,0,0,0,0,0,0,0,0,0,0,0,0,0,0,0,0,0,0,0,0,0,0,0,0,0,0],"id":4,"left_children":[1,3,5,7,9,11,13,15,17,19,21,23,25,-1,-1,27,29,31,33,35,37,39,41,43,45,47,49,51,53,55,57,59,61,63,65,67,69,71,73,75,77,79,81,83,-1,-1,85,87,89,91,93,-1,-1,-1,-1,-1,-1,-1,-1,-1,-1,-1,-1,-1,-1,-1,-1,-1,-1,-1,-1,-1,-1,-1,-1,-1,-1,-1,-1,-1,-1,-1,-1,-1,-1,-1,-1,-1,-1,-1,-1,-1,-1,-1,-1],"loss_changes":[1.1475875E3,6.6596436E2,2.1316772E2,3.6287512E2,5.77901E1,1.9730951E2,3.5998535E0,5.061978E1,1.9556198E2,5.0267494E1,5.587683E1,8.022757E1,2.03375E2,0E0,0E0,6.198682E1,1.795723E1,1.16473755E2,5.2469244E2,3.933779E1,1.0772606E2,1.8732834E1,2.8183044E1,5.6242096E1,1.1324392E1,1.1407547E2,9.258292E1,1.4574844E1,5.9049706E1,6.772743E0,1.5360954E1,1.5766064E2,1.8100098E1,5.6337366E2,2.4221655E2,9.58017E0,1.6008204E1,1.3151355E2,1.4340534E0,3.9792583E1,2.1096031E1,2.1666931E1,8.496076E1,3.4822742E1,0E0,0E0,1.5551631E0,9.549713E1,2.4564728E2,1.1616913E1,1.4062498E1,0E0,0E0,0E0,0E0,0E0,0E0,0E0,0E0,0E0,0E0,0E0,0E0,0E0,0E0,0E0,0E0,0E0,0E0,0E0,0E0,0E0,0E0,0E0,0E0,0E0,0E0,0E0,0E0,0E0,0E0,0E0,0E0,0E0,0E0,0E0,0E0,0E0,0E0,0E0,0E0,0E0,0E0,0E0,0E0],"parents":[2147483647,0,0,1,1,2,2,3,3,4,4,5,5,6,6,7,7,8,8,9,9,10,10,11,11,12,12,15,15,16,16,17,17,18,18,19,19,20,20,21,21,22,22,23,23,24,24,25,25,26,26,27,27,28,28,29,29,30,30,31,31,32,32,33,33,34,34,35,35,36,36,37,37,38,38,39,39,40,40,41,41,42,42,43,43,46,46,47,47,48,48,49,49,50,50],"right_children":[2,4,6,8,10,12,14,16,18,20,22,24,26,-1,-1,28,30,32,34,36,38,40,42,44,46,48,50,52,54,56,58,60,62,64,66,68,70,72,74,76,78,80,82,84,-1,-1,86,88,90,92,94,-1,-1,-1,-1,-1,-1,-1,-1,-1,-1,-1,-1,-1,-1,-1,-1,-1,-1,-1,-1,-1,-1,-1,-1,-1,-1,-1,-1,-1,-1,-1,-1,-1,-1,-1,-1,-1,-1,-1,-1,-1,-1,-1,-1],"split_conditions":[1.6418583E1,2.119208E2,1.59E1,4.6829895E1,9.693296E0,1.6541502E1,1.9495667E1,1.2144331E1,4.889416E0,1E-1,2.4892105E2,2.1107274E2,2.1139416E1,3.3233836E0,8.751721E-1,1.3000002E0,1E-1,9.5E0,1.1216498E1,9.565437E0,8.274832E0,2.094507E1,1.4833164E1,1.0648208E2,8.825508E0,9E-1,1.5842863E2,-9.673083E0,-4.8230834E0,2.570667E0,1.2594856E1,5E-1,1.6600002E1,1.03914995E1,1.0636766E1,3.451021E2,-1.3980833E0,1.2873334E0,1.3649833E1,4.7999997E0,-6.2725E-1,-1.1256416E1,1.37E1,1E-1,3.4355874E0,1.0772524E0,3E-1,1.0883676E1,1.6000003E0,1.0883676E1,1.2429127E1,-4.610729E-1,-3.564601E-3,-5.1454175E-1,1.1175662E0,-3.5541713E-1,-6.69448E-1,-6.250967E-1,-1.8646374E-1,-1.881521E-1,3.409456E-1,-4.7059658E-1,2.8915303E-2,6.5891606E-1,2.577205E0,-9.8144513E-1,2.1445045E-1,-3.725431E-1,2.3463084E-1,1.3597393E0,-5.6810405E-2,4.0693533E-1,2.8052092E0,-4.8454937E-1,-4.5206167E-2,-8.843005E-2,4.7758648E-1,-5.417341E-1,-1.3320251E-1,-4.7002396E-1,-2.667376E-1,-1.1761793E-1,1.886044E0,-3.1703332E-1,1.6025829E0,2.2116052E-1,-1.5490837E-1,9.198161E-1,2.045427E-1,1.91698E0,4.4646055E-1,3.393726E0,1.5093721E0,-1.1975881E-1,9.548829E-1],"split_indices":[0,3,1,3,2,0,0,2,0,1,3,3,0,0,0,1,1,1,0,2,0,2,0,3,2,1,3,0,0,0,2,1,1,0,2,3,0,0,0,1,0,0,1,1,0,0,1,2,1,2,2,0,0,0,0,0,0,0,0,0,0,0,0,0,0,0,0,0,0,0,0,0,0,0,0,0,0,0,0,0,0,0,0,0,0,0,0,0,0,0,0,0,0,0,0],"split_type":[0,0,0,0,0,0,0,0,0,0,0,0,0,0,0,0,0,0,0,0,0,0,0,0,0,0,0,0,0,0,0,0,0,0,0,0,0,0,0,0,0,0,0,0,0,0,0,0,0,0,0,0,0,0,0,0,0,0,0,0,0,0,0,0,0,0,0,0,0,0,0,0,0,0,0,0,0,0,0,0,0,0,0,0,0,0,0,0,0,0,0,0,0,0,0],"sum_hessian":[1.964E3,1.786E3,1.78E2,7.56E2,1.03E3,1.75E2,3E0,1.93E2,5.63E2,3.7E1,9.93E2,8E0,1.67E2,2E0,1E0,4.5E1,1.48E2,2.74E2,2.89E2,2.1E1,1.6E1,2.33E2,7.6E2,5E0,3E0,1.58E2,9E0,3.6E1,9E0,3.7E1,1.11E2,2.34E2,4E1,1.26E2,1.63E2,1.9E1,2E0,1E1,6E0,1.75E2,5.8E1,7.2E2,4E1,2E0,3E0,1E0,2E0,1.09E2,4.9E1,6E0,3E0,7E0,2.9E1,2E0,7E0,2.6E1,1.1E1,7E0,1.04E2,7.3E1,1.61E2,3.2E1,8E0,1.11E2,1.5E1,1.6E1,1.47E2,1.7E1,2E0,1E0,1E0,8E0,2E0,5E0,1E0,1.64E2,1.1E1,1.5E1,4.3E1,5.2E1,6.68E2,3.9E1,1E0,1E0,1E0,1E0,1E0,2E1,8.9E1,1.4E1,3.5E1,2E0,4E0,2E0,1E0],"tree_param":{"num_deleted":"0","num_feature":"4","num_nodes":"95","size_leaf_vector":"1"}},{"base_weights":[4.526413E-2,-1.3357538E-1,1.830409E0,4.5742348E-1,-4.7594437E-1,1.6823684E0,2.3659782E0,2.0931612E-1,3.1647544E0,-3.5371178E-1,-7.706712E-1,5.473968E0,1.4692329E0,-2.6990095E-1,8.851334E-1,4.7119627E0,-2.7720728E0,-5.61836E-1,4.0600896E-2,9.469092E-1,-8.161435E-1,7.1309752E0,1.6199646E0,1.2333943E0,5.072145E0,1.2894006E-1,-1.1071986E0,7.6182995E0,6.598228E-1,3.7767692E0,6.7387943E0,1.4632187E0,-3.9108787E0,-6.55528E-1,9.9681646E-2,-3.1488051E0,1.1054901E-1,-1.9025422E0,4.984359E0,-3.2184029E0,-7.4491656E-1,3.077536E0,3.047571E0,9.1566455E-1,1.2514274E-1,-1.7983165E0,1.4059241E0,6.609788E0,1.1132331E0,-3.169281E-1,2.7385366E-1,-3.7444416E-1,6.645325E-1,-1.5964827E-1,3.7845027E0,-6.666876E-3,7.7033E-1,6.8177813E-1,3.8021257E0,-4.020466E-1,-1.5565239E0,-1.2501392E-1,-3.054065E-1,4.4929174E-1,-1.1328526E-1,-1.1739285E0,1.0089655E-1,6.367712E-1,-2.4914173E-2,1.9571953E-1,-1.0029336E0,2.3035939E0,4.5801443E-1,-1.8154608E0,-4.633294E-1,8.122892E-1,-2.3603775E-1,-2.6947832E-1,1.4106667E0,1.8798639E-1,-1.3167214E-1,3.692219E-2,-1.0080131E0,-1.7894877E-2,5.2643615E-1,2.7149806E0,1.1471226E0,-9.580708E-2,8.116505E-1],"categories":[],"categories_nodes":[],"categories_segments":[],"categories_sizes":[],"default_left":[0,0,0,0,0,0,0,0,0,0,0,0,0,0,0,0,0,0,0,0,0,0,0,0,0,0,0,0,0,0,0,0,0,0,0,0,0,0,0,0,0,0,0,0,0,0,0,0,0,0,0,0,0,0,0,0,0,0,0,0,0,0,0,0,0,0,0,0,0,0,0,0,0,0,0,0,0,0,0,0,0,0,0,0,0,0,0,0,0],"id":5,"left_children":[1,3,5,7,9,11,-1,13,15,17,19,21,23,25,27,29,31,33,35,37,39,41,43,45,47,49,51,53,55,57,-1,-1,59,61,63,65,67,69,71,73,75,77,-1,-1,79,81,83,85,87,-1,-1,-1,-1,-1,-1,-1,-1,-1,-1,-1,-1,-1,-1,-1,-1,-1,-1,-1,-1,-1,-1,-1,-1,-1,-1,-1,-1,-1,-1,-1,-1,-1,-1,-1,-1,-1,-1,-1,-1],"loss_changes":[6.2757947E2,3.617987E2,1.4721631E2,4.3997845E2,4.0507935E1,1.3418735E2,0E0,1.9520451E2,5.1826495E2,6.583977E1,2.662468E1,4.5923065E1,1.3649466E2,1.18026634E2,3.7423666E2,6.455782E2,1.2361001E2,3.2604263E1,6.236793E1,1.1302361E2,5.286966E1,4.236966E1,8.181875E0,8.5694916E1,5.3515717E1,2.2397612E2,5.614804E1,3.3251697E2,3.1627417E2,5.466505E2,0E0,0E0,2.917279E1,3.939749E1,4.4603634E1,1.7297943E1,1.06515175E2,2.4264463E1,2.5540443E1,3.3337074E1,4.7672546E1,3.0061512E1,0E0,0E0,1.1236053E0,2.741973E1,7.7308624E1,1.2983917E1,9.988293E0,0E0,0E0,0E0,0E0,0E0,0E0,0E0,0E0,0E0,0E0,0E0,0E0,0E0,0E0,0E0,0E0,0E0,0E0,0E0,0E0,0E0,0E0,0E0,0E0,0E0,0E0,0E0,0E0,0E0,0E0,0E0,0E0,0E0,0E0,0E0,0E0,0E0,0E0,0E0,0E0],"parents":[2147483647,0,0,1,1,2,2,3,3,4,4,5,5,7,7,8,8,9,9,10,10,11,11,12,12,13,13,14,14,15,15,16,16,17,17,18,18,19,19,20,20,21,21,22,22,23,23,24,24,25,25,26,26,27,27,28,28,29,29,32,32,33,33,34,34,35,35,36,36,37,37,38,38,39,39,40,40,41,41,44,44,45,45,46,46,47,47,48,48],"right_children":[2,4,6,8,10,12,-1,14,16,18,20,22,24,26,28,30,32,34,36,38,40,42,44,46,48,50,52,54,56,58,-1,-1,60,62,64,66,68,70,72,74,76,78,-1,-1,80,82,84,86,88,-1,-1,-1,-1,-1,-1,-1,-1,-1,-1,-1,-1,-1,-1,-1,-1,-1,-1,-1,-1,-1,-1,-1,-1,-1,-1,-1,-1,-1,-1,-1,-1,-1,-1,-1,-1,-1,-1,-1,-1],"split_conditions":[1.6418583E1,1.987231E2,1.59E1,1.9318375E2,1.9652176E1,1.6541502E1,2.3659782E0,5.4248333E0,2.5671307E1,3E-1,2.0143315E2,2.1107274E2,2.1139416E1,1.8671474E1,6.1644173E0,2.5408068E1,1.9381976E2,1.813003E1,2.0143315E2,2.5053646E1,2.0558841E2,1.1183201E1,8.825508E0,1.6635248E1,1.5842863E2,5E-1,1.9146759E2,1.310284E2,1.9171478E1,1.9791888E2,6.7387943E0,1.4632187E0,1.3894167E0,1.4508715E1,2.4719025E2,3.2E0,2.1518529E2,1.6000001E0,1.4519167E0,2.1868332E1,2.0652289E2,1.0648208E2,3.047571E0,9.1566455E-1,3E-1,1.4007655E1,1.01381386E2,1.0883676E1,1.2429127E1,-3.169281E-1,2.7385366E-1,-3.7444416E-1,6.645325E-1,-1.5964827E-1,3.7845027E0,-6.666876E-3,7.7033E-1,6.8177813E-1,3.8021257E0,-4.020466E-1,-1.5565239E0,-1.2501392E-1,-3.054065E-1,4.4929174E-1,-1.1328526E-1,-1.1739285E0,1.0089655E-1,6.367712E-1,-2.4914173E-2,1.9571953E-1,-1.0029336E0,2.3035939E0,4.5801443E-1,-1.8154608E0,-4.633294E-1,8.122892E-1,-2.3603775E-1,-2.6947832E-1,1.4106667E0,1.8798639E-1,-1.3167214E-1,3.692219E-2,-1.0080131E0,-1.7894877E-2,5.2643615E-1,2.7149806E0,1.1471226E0,-9.580708E-2,8.116505E-1],"split_indices":[0,3,1,3,2,0,0,0,2,1,3,3,0,2,0,2,3,2,3,2,3,2,2,0,3,1,3,3,2,3,0,0,0,2,3,1,3,1,0,2,3,3,0,0,1,2,3,2,2,0,0,0,0,0,0,0,0,0,0,0,0,0,0,0,0,0,0,0,0,0,0,0,0,0,0,0,0,0,0,0,0,0,0,0,0,0,0,0,0],"split_type":[0,0,0,0,0,0,0,0,0,0,0,0,0,0,0,0,0,0,0,0,0,0,0,0,0,0,0,0,0,0,0,0,0,0,0,0,0,0,0,0,0,0,0,0,0,0,0,0,0,0,0,0,0,0,0,0,0,0,0,0,0,0,0,0,0,0,0,0,0,0,0,0,0,0,0,0,0,0,0,0,0,0,0,0,0,0,0,0,0],"sum_hessian":[1.964E3,1.786E3,1.78E2,6.55E2,1.131E3,1.75E2,3E0,6.01E2,5.4E1,8.01E2,3.3E2,8E0,1.67E2,3.52E2,2.49E2,4.3E1,1.1E1,5.24E2,2.77E2,8E0,3.22E2,5E0,3E0,1.58E2,9E0,2.39E2,1.13E2,7E0,2.42E2,4.2E1,1E0,1E0,1E1,4.59E2,6.5E1,5E0,2.72E2,5E0,3E0,8E0,3.14E2,3E0,2E0,1E0,2E0,8E0,1.5E2,6E0,3E0,9.5E1,1.44E2,1.09E2,4E0,3E0,4E0,1.79E2,6.3E1,3.7E1,5E0,4E0,6E0,2.78E2,1.81E2,1.6E1,4.9E1,4E0,1E0,2.3E1,2.49E2,2E0,3E0,1E0,2E0,2E0,6E0,3E0,3.11E2,1E0,2E0,1E0,1E0,4E0,4E0,2.9E1,1.21E2,2E0,4E0,2E0,1E0],"tree_param":{"num_deleted":"0","num_feature":"4","num_nodes":"89","size_leaf_vector":"1"}},{"base_weights":[4.5273326E-2,-1.2072504E-1,1.119988E0,2.9226285E-1,-3.5206926E-1,9.917882E-1,4.6278725E0,2.209852E-1,5.6461024E0,-6.5776706E-1,-2.5719246E-1,9.095376E-1,2.2792966E0,-1.761765E-1,5.35317E0,3.3585715E-1,-1.7180657E0,9.505314E0,-1.1863066E0,-7.1586627E-1,-6.147216E-2,2.8180308E0,-2.7538612E-1,1.1190151E0,-1.0456574E0,2.9959664E0,2.0884147E0,-3.0994613E-2,1.5121686E0,4.5840655E-2,-3.2885292E0,4.581382E0,2.8045166E0,-5.33297E-1,-6.897848E-1,3.0978766E-1,-2.528146E-1,-4.9092308E-1,1.5562924E0,8.793606E-3,-3.921608E-1,-2.709272E-1,1.4510604E0,-2.0705519E0,4.852677E0,1.1341062E0,-2.1237373E-2,5.681543E-2,-5.221556E-1,1.1986315E0,4.6765964E-2,7.009613E-1,-1.8357556E-1,-1.0883532E0,3.719732E-1,-6.998128E-1,1.5883486E0,-3.0461678E-1,-1.8166515E-1,-1.8599067E-2,6.196344E-1,-1.9231918E-1,-2.8596211E-2,3.071889E-1,-2.3091268E-2,-1.4803342E-2,-1.5466672E-1,9.057342E-1,-5.105561E-1,7.90114E-1,2.1746443E-1,-1.3051784E0,-3.4321016E-1,1.917303E0,3.565178E-2],"categories":[],"categories_nodes":[],"categories_segments":[],"categories_sizes":[],"default_left":[0,0,0,0,0,0,0,0,0,0,0,0,0,0,0,0,0,0,0,0,0,0,0,0,0,0,0,0,0,0,0,0,0,0,0,0,0,0,0,0,0,0,0,0,0,0,0,0,0,0,0,0,0,0,0,0,0,0,0,0,0,0,0,0,0,0,0,0,0,0,0,0,0,0,0],"id":6,"left_children":[1,3,5,7,9,11,13,15,17,19,21,23,-1,-1,25,27,29,31,-1,33,35,37,39,41,43,45,-1,47,49,51,53,-1,55,-1,57,59,-1,61,-1,63,65,67,69,71,73,-1,-1,-1,-1,-1,-1,-1,-1,-1,-1,-1,-1,-1,-1,-1,-1,-1,-1,-1,-1,-1,-1,-1,-1,-1,-1,-1,-1,-1,-1],"loss_changes":[3.5069293E2,1.6281154E2,1.1368387E2,2.3229707E2,3.1502777E1,1.3164038E2,3.7186356E1,1.3533626E2,3.3398895E2,8.894211E0,4.749391E1,1.0479112E2,0E0,0E0,9.470993E0,2.4688312E2,9.433587E1,1.889906E2,0E0,5.2816772E0,7.2221227E0,4.175139E1,2.7580177E1,1.0608209E2,1.6117697E2,1.2295242E1,0E0,1.6496667E2,4.5742706E2,2.7044128E1,3.2156387E1,0E0,6.3516846E1,0E0,5.7207794E0,1.1224417E1,0E0,1.1708158E-1,0E0,2.123573E1,2.4890327E1,2.1698938E2,1.5697217E2,4.1497787E1,2.8369362E1,0E0,0E0,0E0,0E0,0E0,0E0,0E0,0E0,0E0,0E0,0E0,0E0,0E0,0E0,0E0,0E0,0E0,0E0,0E0,0E0,0E0,0E0,0E0,0E0,0E0,0E0,0E0,0E0,0E0,0E0],"parents":[2147483647,0,0,1,1,2,2,3,3,4,4,5,5,6,6,7,7,8,8,9,9,10,10,11,11,14,14,15,15,16,16,17,17,19,19,20,20,21,21,22,22,23,23,24,24,25,25,27,27,28,28,29,29,30,30,32,32,34,34,35,35,37,37,39,39,40,40,41,41,42,42,43,43,44,44],"right_children":[2,4,6,8,10,12,14,16,18,20,22,24,-1,-1,26,28,30,32,-1,34,36,38,40,42,44,46,-1,48,50,52,54,-1,56,-1,58,60,-1,62,-1,64,66,68,70,72,74,-1,-1,-1,-1,-1,-1,-1,-1,-1,-1,-1,-1,-1,-1,-1,-1,-1,-1,-1,-1,-1,-1,-1,-1,-1,-1,-1,-1,-1,-1],"split_conditions":[1.5470666E1,1.987231E2,1.7800001E1,1.9791888E2,-3.52725E0,2.804305E1,1.55685835E1,1.4420667E1,2.2218153E1,3.5116586E2,-3.4230833E0,2.1313093E1,2.2792966E0,-1.761765E-1,1.3587718E2,9.008166E0,1.0648208E2,1.4519167E0,-1.1863066E0,2.1269899E2,6E-1,3E-1,1.4291592E1,1.01381386E2,1.7212336E1,6.590626E1,2.0884147E0,1.0500001E1,1.1216498E1,2.4901794E1,1.9557693E2,4.581382E0,8.868583E0,-5.33297E-1,-1.1629334E1,5E-1,-2.528146E-1,1E-1,1.5562924E0,-2.3335001E0,2.3351068E2,5.1555595E1,1.9146759E2,1.779001E2,1.9495667E1,1.1341062E0,-2.1237373E-2,5.681543E-2,-5.221556E-1,1.1986315E0,4.6765964E-2,7.009613E-1,-1.8357556E-1,-1.0883532E0,3.719732E-1,-6.998128E-1,1.5883486E0,-3.0461678E-1,-1.8166515E-1,-1.8599067E-2,6.196344E-1,-1.9231918E-1,-2.8596211E-2,3.071889E-1,-2.3091268E-2,-1.4803342E-2,-1.5466672E-1,9.057342E-1,-5.105561E-1,7.90114E-1,2.1746443E-1,-1.3051784E0,-3.4321016E-1,1.917303E0,3.565178E-2],"split_indices":[0,3,1,3,0,2,0,0,2,3,0,2,0,0,3,0,3,0,0,3,1,1,2,3,0,3,0,1,0,3,3,0,0,0,0,1,0,1,0,0,3,3,3,3,0,0,0,0,0,0,0,0,0,0,0,0,0,0,0,0,0,0,0,0,0,0,0,0,0,0,0,0,0,0,0],"split_type":[0,0,0,0,0,0,0,0,0,0,0,0,0,0,0,0,0,0,0,0,0,0,0,0,0,0,0,0,0,0,0,0,0,0,0,0,0,0,0,0,0,0,0,0,0,0,0,0,0,0,0,0,0,0,0,0,0,0,0,0,0,0,0,0,0,0,0,0,0,0,0,0,0,0,0],"sum_hessian":[1.964E3,1.702E3,2.62E2,6.11E2,1.091E3,2.54E2,8E0,6.04E2,7E0,2.57E2,8.34E2,2.52E2,2E0,1E0,7E0,5.71E2,3.3E1,5E0,2E0,2.34E2,2.3E1,4E0,8.3E2,2.28E2,2.4E1,4E0,3E0,4.36E2,1.35E2,1.6E1,1.7E1,2E0,3E0,4E0,2.3E2,1.6E1,7E0,2E0,2E0,2.42E2,5.88E2,4.4E1,1.84E2,2.1E1,3E0,3E0,1E0,3.87E2,4.9E1,4.7E1,8.8E1,3E0,1.3E1,1.6E1,1E0,1E0,2E0,4.5E1,1.85E2,1.4E1,2E0,1E0,1E0,1.8E1,2.24E2,1.56E2,4.32E2,1.3E1,3.1E1,6.9E1,1.15E2,5E0,1.6E1,2E0,1E0],"tree_param":{"num_deleted":"0","num_feature":"4","num_nodes":"75","size_leaf_vector":"1"}},{"base_weights":[3.813154E-2,-4.4227347E-2,1.2508082E0,-5.115254E-1,7.605633E-2,7.94061E-1,3.921802E0,-5.317725E-1,1.5094595E0,2.3622808E-1,-4.3873698E-1,5.7363772E0,5.488144E-1,5.635552E0,-1.6610582E0,-4.4405544E-1,-9.5773995E-1,4.4903327E-2,5.7384825E-1,-1.4955886E-1,5.755829E-1,-2.3496145E-1,-1.2592936E0,2.7581344E0,2.6474025E0,1.574969E0,-5.07628E-1,-1.6963992E0,6.9989104E0,3.5098713E-2,-8.4105873E-1,-6.973267E-1,-2.1997361E-1,-1.2904978E0,1.8575184E-2,-1.1553735E-1,-2.329504E0,4.5491886E-1,3.198772E0,-3.224654E-1,3.8147964E0,-2.6900346E0,-4.364531E-1,2.3009086E0,-1.4356173E0,1.0804027E0,4.6706324E0,-2.9144585E0,4.557953E-1,-7.9368365E-1,3.0303957E-2,4.0577805E-1,9.151535E0,-1.1872602E-1,1.3452044E-1,-3.428397E-1,-1.4228895E-1,1.0696866E-1,-1.4295731E-1,-3.006098E-1,-5.903597E-1,1.3996863E0,-2.736217E-1,-9.4161846E-2,7.7260345E-2,-6.362429E-2,-8.999894E-1,1.0623518E0,1.1295907E-1,3.7376454E0,-6.0654763E-2,-4.6810593E-2,-4.166396E-1,-6.914656E-3,3.4506035E0,-1.2117158E0,-1.8177482E-1,-2.539384E-1,5.730686E-1,-8.738445E-1,2.2781669E-1,2.0120166E-1,1.130535E0,1.7315894E0,3.8346046E-1,1.0855523E-1,-1.0339023E0,3.2526714E-1,-4.2366803E-1,-1.1343731E0,9.1855997E-1,3.758116E0,5.40112E-1],"categories":[],"categories_nodes":[],"categories_segments":[],"categories_sizes":[],"default_left":[0,0,0,0,0,0,0,0,0,0,0,0,0,0,0,0,0,0,0,0,0,0,0,0,0,0,0,0,0,0,0,0,0,0,0,0,0,0,0,0,0,0,0,0,0,0,0,0,0,0,0,0,0,0,0,0,0,0,0,0,0,0,0,0,0,0,0,0,0,0,0,0,0,0,0,0,0,0,0,0,0,0,0,0,0,0,0,0,0,0,0,0,0],"id":7,"left_children":[1,3,5,7,9,11,13,15,17,19,21,23,25,27,29,31,33,-1,-1,35,37,39,41,43,-1,45,47,49,51,53,-1,55,57,59,61,63,65,67,69,71,73,75,77,-1,79,81,83,85,87,-1,-1,89,91,-1,-1,-1,-1,-1,-1,-1,-1,-1,-1,-1,-1,-1,-1,-1,-1,-1,-1,-1,-1,-1,-1,-1,-1,-1,-1,-1,-1,-1,-1,-1,-1,-1,-1,-1,-1,-1,-1,-1,-1],"loss_changes":[1.9630911E2,1.0351843E2,1.4938194E2,1.6229172E1,1.2090072E2,1.27757095E2,1.8157828E2,1.3549088E1,1.9076614E0,1.4645312E2,5.7892967E1,2.164888E1,1.1354313E2,1.51818E2,9.787449E0,1.7553703E1,2.0491192E1,0E0,0E0,3.8593323E1,1.8687694E2,1.0045369E2,8.005768E1,9.340221E1,0E0,7.609738E1,1.2190583E2,5.385622E0,1.6659692E2,7.1167344E-1,0E0,1.3963623E1,2.4871002E1,7.211792E0,7.777633E1,3.8335407E1,1.0720959E1,1.3656516E2,8.2133673E2,4.8587532E1,1.7727914E2,6.7840515E1,4.491408E1,0E0,1.1939333E1,4.923724E1,1.8775635E1,2.7386223E1,4.614006E1,0E0,0E0,5.606206E1,2.0077246E2,0E0,0E0,0E0,0E0,0E0,0E0,0E0,0E0,0E0,0E0,0E0,0E0,0E0,0E0,0E0,0E0,0E0,0E0,0E0,0E0,0E0,0E0,0E0,0E0,0E0,0E0,0E0,0E0,0E0,0E0,0E0,0E0,0E0,0E0,0E0,0E0,0E0,0E0,0E0,0E0],"parents":[2147483647,0,0,1,1,2,2,3,3,4,4,5,5,6,6,7,7,8,8,9,9,10,10,11,11,12,12,13,13,14,14,15,15,16,16,19,19,20,20,21,21,22,22,23,23,25,25,26,26,27,27,28,28,29,29,31,31,32,32,33,33,34,34,35,35,36,36,37,37,38,38,39,39,40,40,41,41,42,42,44,44,45,45,46,46,47,47,48,48,51,51,52,52],"right_children":[2,4,6,8,10,12,14,16,18,20,22,24,26,28,30,32,34,-1,-1,36,38,40,42,44,-1,46,48,50,52,54,-1,56,58,60,62,64,66,68,70,72,74,76,78,-1,80,82,84,86,88,-1,-1,90,92,-1,-1,-1,-1,-1,-1,-1,-1,-1,-1,-1,-1,-1,-1,-1,-1,-1,-1,-1,-1,-1,-1,-1,-1,-1,-1,-1,-1,-1,-1,-1,-1,-1,-1,-1,-1,-1,-1,-1,-1],"split_conditions":[1.7089415E1,-3.6293335E0,2.0140705E1,2.42E1,2.12522E1,1.7212336E1,2.0227364E2,1.9E0,-4.498083E0,2E-1,1.0793583E1,1.4685176E1,1.779001E2,1.14623566E2,2.0316889E1,-8.198083E0,1.4418384E2,4.4903327E-2,5.7384825E-1,1.6914415E1,2.0771093E1,1.0499833E1,2.2768398E1,1.0829958E1,2.6474025E0,2.1139416E1,1.9717596E2,1.7491497E1,1.7212336E1,1.7862331E1,-8.4105873E-1,2.883975E2,1.298248E1,7.9906555E1,1.5161095E2,9.237333E0,1.5390895E2,8.404285E0,1.7036661E2,1.0900001E1,4.4E0,1.9654384E2,2.9940662E1,2.3009086E0,1E-1,1.720912E2,3E-1,1.0883676E1,1.7673029E1,-7.9368365E-1,3.0303957E-2,2E-1,1.8189417E1,-1.1872602E-1,1.3452044E-1,-3.428397E-1,-1.4228895E-1,1.0696866E-1,-1.4295731E-1,-3.006098E-1,-5.903597E-1,1.3996863E0,-2.736217E-1,-9.4161846E-2,7.7260345E-2,-6.362429E-2,-8.999894E-1,1.0623518E0,1.1295907E-1,3.7376454E0,-6.0654763E-2,-4.6810593E-2,-4.166396E-1,-6.914656E-3,3.4506035E0,-1.2117158E0,-1.8177482E-1,-2.539384E-1,5.730686E-1,-8.738445E-1,2.2781669E-1,2.0120166E-1,1.130535E0,1.7315894E0,3.8346046E-1,1.0855523E-1,-1.0339023E0,3.2526714E-1,-4.2366803E-1,-1.1343731E0,9.1855997E-1,3.758116E0,5.40112E-1],"split_indices":[0,0,2,1,2,0,3,1,0,1,0,2,3,3,2,0,3,0,0,0,2,0,2,2,0,0,3,0,0,0,0,3,2,3,3,0,3,2,3,1,1,3,2,0,1,3,1,2,2,0,0,1,0,0,0,0,0,0,0,0,0,0,0,0,0,0,0,0,0,0,0,0,0,0,0,0,0,0,0,0,0,0,0,0,0,0,0,0,0,0,0,0,0],"split_type":[0,0,0,0,0,0,0,0,0,0,0,0,0,0,0,0,0,0,0,0,0,0,0,0,0,0,0,0,0,0,0,0,0,0,0,0,0,0,0,0,0,0,0,0,0,0,0,0,0,0,0,0,0,0,0,0,0,0,0,0,0,0,0,0,0,0,0,0,0,0,0,0,0,0,0,0,0,0,0,0,0,0,0,0,0,0,0,0,0,0,0,0,0],"sum_hessian":[1.964E3,1.84E3,1.24E2,3.76E2,1.464E3,1.07E2,1.7E1,3.73E2,3E0,1.117E3,3.47E2,4E0,1.03E2,1.3E1,4E0,3.11E2,6.2E1,1E0,2E0,5.23E2,5.94E2,2.79E2,6.8E1,3E0,1E0,5.2E1,5.1E1,2E0,1.1E1,2E0,2E0,1.45E2,1.66E2,4.6E1,1.6E1,5.16E2,7E0,5.69E2,2.5E1,2.74E2,5E0,2.4E1,4.4E1,1E0,2E0,4.6E1,6E0,1.4E1,3.7E1,1E0,1E0,3E0,8E0,1E0,1E0,4.7E1,9.8E1,5.1E1,1.15E2,3.4E1,1.2E1,2E0,1.4E1,3.37E2,1.79E2,2E0,5E0,1.3E1,5.56E2,6E0,1.9E1,2.38E2,3.6E1,4E0,1E0,1.4E1,1E1,3.8E1,6E0,1E0,1E0,4.1E1,5E0,4E0,2E0,2E0,1.2E1,2.8E1,9E0,1E0,2E0,5E0,3E0],"tree_param":{"num_deleted":"0","num_feature":"4","num_nodes":"93","size_leaf_vector":"1"}},{"base_weights":[3.4493364E-2,2.9335365E-1,-2.362549E-1,-3.5535273E-1,4.5496437E-1,6.9965076E-1,-2.7448884E-1,-5.283521E-1,5.748112E-1,2.3048365E0,3.8038245E-1,-2.1540844E-1,1.7283504E0,-2.861465E-1,7.4349153E-1,-2.3946254E-1,-1.5255616E0,-7.643477E-1,1.5313067E0,4.470368E0,-6.440496E-1,-4.730556E-1,5.118961E-1,-7.305336E-1,2.3181324E-1,2.7904367E0,-8.6089504E-1,-3.0174425E-1,9.20529E-1,1.5327933E-2,-5.794521E-1,5.346847E-1,-1.6631325E0,6.519587E-1,-1.4350379E0,5.905151E-1,1.473494E0,3.1937249E0,9.789009E0,-1.5469705E0,8.176734E-1,-7.5636667E-1,3.021223E0,7.4239993E-1,-6.403001E-2,2.2540728E-2,-2.7648595E-1,-2.584203E-1,4.0950552E-1,-1.0678613E0,3.5890238E0,-2.9065493E-1,-4.8168257E-2,-2.921184E-1,-1.9855953E0,-2.9953593E-1,3.435543E0,-2.0598653E-1,7.713459E-2,-2.9130244E-1,9.68593E-2,-4.3025517E-1,-1.1339468E0,-1.1862395E-1,-6.363418E-1,3.3242506E-1,-6.064928E-1,-3.8280842E-1,1.1770217E0,4.0784726E0,3.2658178E-1,1.1417664E-2,-7.037485E-1,8.807724E-1,-5.794653E-2,6.044971E-1,-3.5139686E-1,9.346242E-2,1.1617581E0,1.7817044E-1,9.9377084E-1,-5.7130795E-2,1.1722087E0,4.3300655E-2,-3.3157326E-2,3.385958E-1,3.728675E-2,-1.1948776E-2,-4.6858883E-1,6.177335E-2,1.2953843E0,-3.8574804E-2,-1.11140884E-1,-8.3594984E-1,1.8270308E-1,1.3482185E-1,-1.3479884E-1,2.987968E-1,1.6131307E0],"categories":[],"categories_nodes":[],"categories_segments":[],"categories_sizes":[],"default_left":[0,0,0,0,0,0,0,0,0,0,0,0,0,0,0,0,0,0,0,0,0,0,0,0,0,0,0,0,0,0,0,0,0,0,0,0,0,0,0,0,0,0,0,0,0,0,0,0,0,0,0,0,0,0,0,0,0,0,0,0,0,0,0,0,0,0,0,0,0,0,0,0,0,0,0,0,0,0,0,0,0,0,0,0,0,0,0,0,0,0,0,0,0,0,0,0,0,0,0],"id":8,"left_children":[1,3,5,7,9,11,13,15,17,19,21,23,25,27,-1,29,31,33,35,37,39,41,43,45,47,49,51,53,55,57,59,-1,61,-1,63,65,-1,67,69,71,73,75,77,79,81,83,-1,-1,85,87,89,-1,-1,91,93,95,97,-1,-1,-1,-1,-1,-1,-1,-1,-1,-1,-1,-1,-1,-1,-1,-1,-1,-1,-1,-1,-1,-1,-1,-1,-1,-1,-1,-1,-1,-1,-1,-1,-1,-1,-1,-1,-1,-1,-1,-1,-1,-1],"loss_changes":[1.3778825E2,1.0552376E2,3.457986E1,3.264818E1,1.1018675E2,3.61425E1,3.036132E1,4.860886E1,4.2159233E1,2.0084222E2,8.722719E1,5.007225E0,5.190231E1,1.7612305E1,0E0,1.1530152E1,2.0256577E1,3.070116E1,5.752332E1,9.0956696E1,1.9742401E1,1.05241806E2,8.9257645E1,1.459795E0,2.6838171E0,4.388801E1,2.9806662E-1,1.416967E1,3.7850834E1,1.3245176E1,2.0452026E1,0E0,1.2509735E1,0E0,7.72073E0,2.3871675E1,0E0,5.719026E1,8.453906E1,1.1485197E1,1.3414115E1,1.1390938E2,1.724765E1,1.8123248E2,9.7631584E1,6.457252E-2,0E0,0E0,2.1159587E0,1.4616446E0,2.6237244E1,0E0,0E0,1.1561134E1,1.2087156E1,1.2116115E0,1.35906105E1,0E0,0E0,0E0,0E0,0E0,0E0,0E0,0E0,0E0,0E0,0E0,0E0,0E0,0E0,0E0,0E0,0E0,0E0,0E0,0E0,0E0,0E0,0E0,0E0,0E0,0E0,0E0,0E0,0E0,0E0,0E0,0E0,0E0,0E0,0E0,0E0,0E0,0E0,0E0,0E0,0E0,0E0],"parents":[2147483647,0,0,1,1,2,2,3,3,4,4,5,5,6,6,7,7,8,8,9,9,10,10,11,11,12,12,13,13,15,15,16,16,17,17,18,18,19,19,20,20,21,21,22,22,23,23,24,24,25,25,26,26,27,27,28,28,29,29,30,30,32,32,34,34,35,35,37,37,38,38,39,39,40,40,41,41,42,42,43,43,44,44,45,45,48,48,49,49,50,50,53,53,54,54,55,55,56,56],"right_children":[2,4,6,8,10,12,14,16,18,20,22,24,26,28,-1,30,32,34,36,38,40,42,44,46,48,50,52,54,56,58,60,-1,62,-1,64,66,-1,68,70,72,74,76,78,80,82,84,-1,-1,86,88,90,-1,-1,92,94,96,98,-1,-1,-1,-1,-1,-1,-1,-1,-1,-1,-1,-1,-1,-1,-1,-1,-1,-1,-1,-1,-1,-1,-1,-1,-1,-1,-1,-1,-1,-1,-1,-1,-1,-1,-1,-1,-1,-1,-1,-1,-1,-1],"split_conditions":[2.2840794E2,4.6829895E1,9.693296E0,1.2499833E1,5.256406E1,-1.5751667E0,1.9495667E1,2.570667E0,8E-1,1.5815435E1,1.1159999E1,3.2103952E2,3.8999999E0,1.3000001E1,7.4349153E-1,1.680857E1,9.885262E0,1.3649833E1,1.6345667E1,1.5459054E1,1.8089775E1,5.8E0,2.1313093E1,2.8367618E2,-1.70585E1,2.3496564E2,1.3649833E1,1.8710249E1,1.3247749E1,8.491227E0,2.1915693E1,5.346847E-1,1.4599999E1,6.519587E-1,1.1966953E1,1.5631082E1,1.473494E0,-4.0293336E0,9.639417E0,1.6323528E1,2.0532627E1,8.049845E0,5.4229805E1,2.0380579E1,1.7212336E1,-2.3335001E0,-2.7648595E-1,-2.584203E-1,-6.418916E0,3.5998335E0,7.928178E0,-2.9065493E-1,-4.8168257E-2,1.405845E1,1E-1,1.43E1,1.4900001E1,-2.0598653E-1,7.713459E-2,-2.9130244E-1,9.68593E-2,-4.3025517E-1,-1.1339468E0,-1.1862395E-1,-6.363418E-1,3.3242506E-1,-6.064928E-1,-3.8280842E-1,1.1770217E0,4.0784726E0,3.2658178E-1,1.1417664E-2,-7.037485E-1,8.807724E-1,-5.794653E-2,6.044971E-1,-3.5139686E-1,9.346242E-2,1.1617581E0,1.7817044E-1,9.9377084E-1,-5.7130795E-2,1.1722087E0,4.3300655E-2,-3.3157326E-2,3.385958E-1,3.728675E-2,-1.1948776E-2,-4.6858883E-1,6.177335E-2,1.2953843E0,-3.8574804E-2,-1.11140884E-1,-8.3594984E-1,1.8270308E-1,1.3482185E-1,-1.3479884E-1,2.987968E-1,1.6131307E0],"split_indices":[3,3,2,0,3,0,0,0,1,2,2,3,1,1,0,2,2,0,0,2,2,1,2,3,0,3,0,0,0,3,2,0,1,0,2,0,0,0,0,2,2,2,3,2,0,0,0,0,0,0,2,0,0,2,1,1,1,0,0,0,0,0,0,0,0,0,0,0,0,0,0,0,0,0,0,0,0,0,0,0,0,0,0,0,0,0,0,0,0,0,0,0,0,0,0,0,0,0,0],"split_type":[0,0,0,0,0,0,0,0,0,0,0,0,0,0,0,0,0,0,0,0,0,0,0,0,0,0,0,0,0,0,0,0,0,0,0,0,0,0,0,0,0,0,0,0,0,0,0,0,0,0,0,0,0,0,0,0,0,0,0,0,0,0,0,0,0,0,0,0,0,0,0,0,0,0,0,0,0,0,0,0,0,0,0,0,0,0,0,0,0,0,0,0,0,0,0,0,0,0,0],"sum_hessian":[1.964E3,1.004E3,9.6E2,2E2,8.04E2,3.7E1,9.23E2,1.69E2,3.1E1,3E1,7.74E2,2E1,1.7E1,9.2E2,3E0,1.32E2,3.7E1,1.3E1,1.8E1,1.7E1,1.3E1,1.03E2,6.71E2,9E0,1.1E1,1.2E1,5E0,9.09E2,1.1E1,7.6E1,5.6E1,1E0,3.6E1,2E0,1.1E1,1.5E1,3E0,1.5E1,2E0,8E0,5E0,9.6E1,7E0,4.79E2,1.92E2,2E0,7E0,1E0,1E1,2E0,1E1,4E0,1E0,9.05E2,4E0,8E0,3E0,1.9E1,5.7E1,3.9E1,1.7E1,3.4E1,2E0,5E0,6E0,1.3E1,2E0,2E0,1.3E1,1E0,1E0,3E0,5E0,1E0,4E0,1.2E1,8.4E1,2E0,5E0,4.54E2,2.5E1,1.87E2,5E0,1E0,1E0,2E0,8E0,1E0,1E0,2E0,8E0,2.94E2,6.11E2,3E0,1E0,1E0,7E0,2E0,1E0],"tree_param":{"num_deleted":"0","num_feature":"4","num_nodes":"99","size_leaf_vector":"1"}},{"base_weights":[2.9799376E-2,-3.738818E-2,7.003824E-1,-1.3723756E-1,2.8893924E-1,2.0955036E0,3.9400226E-1,-1.1663024E-1,-2.123401E0,3.533099E0,1.1746983E-1,-2.9351845E-1,3.3608732E0,5.1717978E0,2.2537045E-1,-8.26589E-2,-1.2041827E0,-2.8904054E0,5.1671195E-1,1.0736719E0,1.3717246E1,6.689787E-1,-4.6292394E-1,1.9467971E0,-1.6570259E0,1.0622706E0,5.353942E0,7.253594E0,1.3660688E0,-2.3859587E-1,1.1297663E0,1.2512295E0,-1.0420905E-1,-2.3951173E-1,-3.5155115E0,-1.1375711E0,-1.8335631E0,-3.1791595E-1,4.1862875E-1,5.73593E0,-2.4117501E-1,-5.845226E-1,5.87658E0,4.873266E-1,1.2737779E1,-9.619791E-1,3.3114898E-1,2.1919823E-1,9.076392E-1,-2.630118E-1,-2.4408321E0,-2.3917766E0,2.6565104E0,1.7546535E0,2.084587E0,5.830267E-1,2.6810908E0,8.349939E-2,5.3123164E-1,-6.6816705E-1,1.6599996E0,3.5288343E0,4.241377E-1,-1.9368868E-2,1.1676114E0,-3.5025448E-2,4.114769E-1,-2.838848E-1,3.2019004E-1,-5.9317484E-2,-1.3798413E0,-7.766788E-1,1.0970402E-2,2.4623166E-1,2.1302176E0,3.6406183E-1,-6.2312055E-1,8.9967944E-2,7.977636E-1,9.906307E-1,4.7413697E0,-3.548965E-1,1.3073492E0,-8.613463E-2,7.0178556E-1,8.1163794E-2,1.7475415E-2,-2.0077893E-1,1.4336129E-1,-1.0034857E0,1.7634717E-1,-9.5664763E-1,-9.455681E-5,2.2241714E0,-4.948156E-2,8.150113E-1,1.2305289E-1,-3.9994815E-1,3.3461055E-1,2.3406494E0,-2.65733E-2,2.023315E0,4.439868E-1,-2.293289E-1,4.4379336E-1],"categories":[],"categories_nodes":[],"categories_segments":[],"categories_sizes":[],"default_left":[0,0,0,0,0,0,0,0,0,0,0,0,0,0,0,0,0,0,0,0,0,0,0,0,0,0,0,0,0,0,0,0,0,0,0,0,0,0,0,0,0,0,0,0,0,0,0,0,0,0,0,0,0,0,0,0,0,0,0,0,0,0,0,0,0,0,0,0,0,0,0,0,0,0,0,0,0,0,0,0,0,0,0,0,0,0,0,0,0,0,0,0,0,0,0,0,0,0,0,0,0,0,0,0,0],"id":9,"left_children":[1,3,5,7,9,11,13,15,17,19,21,23,25,27,29,31,33,35,37,39,41,43,45,47,49,51,53,55,57,59,61,63,65,67,69,-1,71,-1,-1,73,75,-1,-1,77,79,81,83,85,-1,87,89,91,93,-1,95,-1,-1,-1,-1,97,99,101,103,-1,-1,-1,-1,-1,-1,-1,-1,-1,-1,-1,-1,-1,-1,-1,-1,-1,-1,-1,-1,-1,-1,-1,-1,-1,-1,-1,-1,-1,-1,-1,-1,-1,-1,-1,-1,-1,-1,-1,-1,-1,-1],"loss_changes":[8.855893E1,5.826653E1,7.568568E1,5.5784832E1,2.3266382E2,9.772235E1,1.18076294E2,4.999872E1,2.98432E1,5.1126263E2,1.2802652E2,3.988214E1,9.0519394E1,2.9704865E1,6.0693283E1,3.795947E1,9.057454E1,3.5274658E0,7.019714E0,1.1172617E2,4.0608112E2,4.432188E2,7.7594376E1,8.654339E0,8.099127E0,6.692615E1,5.6056824E0,9.448715E0,8.277712E-1,7.9405014E1,8.145299E1,7.322114E1,2.4149242E1,2.8718466E1,4.224672E1,0E0,9.983107E0,0E0,0E0,2.1004654E1,4.258111E1,0E0,0E0,8.1840576E1,3.462332E1,1.462425E2,9.5030136E1,9.033084E-3,0E0,1.5237595E0,1.5657583E1,7.6234417E0,1.086048E2,0E0,2.0609436E0,0E0,0E0,0E0,0E0,9.518407E1,1.94012E2,6.2489563E1,5.0042477E1,0E0,0E0,0E0,0E0,0E0,0E0,0E0,0E0,0E0,0E0,0E0,0E0,0E0,0E0,0E0,0E0,0E0,0E0,0E0,0E0,0E0,0E0,0E0,0E0,0E0,0E0,0E0,0E0,0E0,0E0,0E0,0E0,0E0,0E0,0E0,0E0,0E0,0E0,0E0,0E0,0E0,0E0],"parents":[2147483647,0,0,1,1,2,2,3,3,4,4,5,5,6,6,7,7,8,8,9,9,10,10,11,11,12,12,13,13,14,14,15,15,16,16,17,17,18,18,19,19,20,20,21,21,22,22,23,23,24,24,25,25,26,26,27,27,28,28,29,29,30,30,31,31,32,32,33,33,34,34,36,36,39,39,40,40,43,43,44,44,45,45,46,46,47,47,49,49,50,50,51,51,52,52,54,54,59,59,60,60,61,61,62,62],"right_children":[2,4,6,8,10,12,14,16,18,20,22,24,26,28,30,32,34,36,38,40,42,44,46,48,50,52,54,56,58,60,62,64,66,68,70,-1,72,-1,-1,74,76,-1,-1,78,80,82,84,86,-1,88,90,92,94,-1,96,-1,-1,-1,-1,98,100,102,104,-1,-1,-1,-1,-1,-1,-1,-1,-1,-1,-1,-1,-1,-1,-1,-1,-1,-1,-1,-1,-1,-1,-1,-1,-1,-1,-1,-1,-1,-1,-1,-1,-1,-1,-1,-1,-1,-1,-1,-1,-1,-1],"split_conditions":[1.6418583E1,2.8999999E0,1.1019764E1,1.6224833E1,3.2E0,1.0163227E1,1.6541502E1,2.4999998E0,2.4066386E2,3.1999996E0,1.9483284E1,9.565437E0,1E-1,1E-1,9E-1,8.049845E0,7.5519176E0,1.2739257E2,1.6345667E1,1.5484185E1,1.2605142E1,1.9416653E1,2.616509E1,1.462915E2,1.6774832E1,1.0587917E1,9E0,1.1183201E1,3E-1,1.8671474E1,1.5000001E0,4E-1,2.3999999E0,4.331667E-1,5.8338055E1,-1.1375711E0,1.1159999E1,-3.1791595E-1,4.1862875E-1,-4.6480837E0,5.608344E-2,-5.845226E-1,5.87658E0,1.4900001E1,4.7415E0,3.0900002E1,8.545667E0,1.7491497E1,9.076392E-1,1.6699831E1,1.720912E2,1.0648208E2,1.7491497E1,1.7546535E0,1.6541502E1,5.830267E-1,2.6810908E0,8.349939E-2,5.3123164E-1,1.918525E1,1.9171478E1,1.7591497E1,1.88225E2,-1.9368868E-2,1.1676114E0,-3.5025448E-2,4.114769E-1,-2.838848E-1,3.2019004E-1,-5.9317484E-2,-1.3798413E0,-7.766788E-1,1.0970402E-2,2.4623166E-1,2.1302176E0,3.6406183E-1,-6.2312055E-1,8.9967944E-2,7.977636E-1,9.906307E-1,4.7413697E0,-3.548965E-1,1.3073492E0,-8.613463E-2,7.0178556E-1,8.1163794E-2,1.7475415E-2,-2.0077893E-1,1.4336129E-1,-1.0034857E0,1.7634717E-1,-9.5664763E-1,-9.455681E-5,2.2241714E0,-4.948156E-2,8.150113E-1,1.2305289E-1,-3.9994815E-1,3.3461055E-1,2.3406494E0,-2.65733E-2,2.023315E0,4.439868E-1,-2.293289E-1,4.4379336E-1],"split_indices":[0,1,2,0,1,2,0,1,3,1,2,2,1,1,1,2,0,3,0,2,2,2,2,3,0,2,1,2,1,2,1,1,1,0,3,0,2,0,0,0,0,0,0,1,0,1,0,0,0,0,3,3,0,0,0,0,0,0,0,0,2,0,3,0,0,0,0,0,0,0,0,0,0,0,0,0,0,0,0,0,0,0,0,0,0,0,0,0,0,0,0,0,0,0,0,0,0,0,0,0,0,0,0,0,0],"split_type":[0,0,0,0,0,0,0,0,0,0,0,0,0,0,0,0,0,0,0,0,0,0,0,0,0,0,0,0,0,0,0,0,0,0,0,0,0,0,0,0,0,0,0,0,0,0,0,0,0,0,0,0,0,0,0,0,0,0,0,0,0,0,0,0,0,0,0,0,0,0,0,0,0,0,0,0,0,0,0,0,0,0,0,0,0,0,0,0,0,0,0,0,0,0,0,0,0,0,0,0,0,0,0,0,0],"sum_hessian":[1.964E3,1.786E3,1.78E2,1.368E3,4.18E2,3.1E1,1.47E2,1.355E3,1.3E1,2E1,3.98E2,1.1E1,2E1,4E0,1.43E2,1.315E3,4E1,1E1,3E0,1.7E1,3E0,2.04E2,1.94E2,4E0,7E0,1E1,1E1,2E0,2E0,9.5E1,4.8E1,2E1,1.295E3,2.9E1,1.1E1,4E0,6E0,1E0,2E0,3E0,1.4E1,1E0,2E0,2.02E2,2E0,1.19E2,7.5E1,2E0,2E0,3E0,4E0,3E0,7E0,8E0,2E0,1E0,1E0,1E0,1E0,7.8E1,1.7E1,1E1,3.8E1,1.4E1,6E0,1.285E3,1E1,1.9E1,1E1,3E0,8E0,4E0,2E0,1E0,2E0,8E0,6E0,1.87E2,1.5E1,1E0,1E0,1.15E2,4E0,5.8E1,1.7E1,1E0,1E0,2E0,1E0,3E0,1E0,2E0,1E0,2E0,5E0,1E0,1E0,5.7E1,2.1E1,3E0,1.4E1,3E0,7E0,1.8E1,2E1],"tree_param":{"num_deleted":"0","num_feature":"4","num_nodes":"105","size_leaf_vector":"1"}},{"base_weights":[3.4477044E-2,2.581662E-1,-1.0651651E-1,1.2493181E-1,1.7561123E0,-1.4261857E-1,3.4273368E-1,1.9098248E-1,-1.7407005E0,1.2136781E0,3.605828E0,-6.0351205E-1,-1.0212924E-1,6.330564E-1,-2.7122061E0,1.3996984E-1,3.9560328E0,-3.1767566E0,-3.9914448E-2,2.2690914E0,-2.7765927E0,-1.1464299E0,-9.860835E-3,4.251831E0,-1.2328908E-1,4.952702E-1,1.7897288E0,-8.016264E-1,-1.1094686E0,-1.3758235E-1,4.9783698E-1,-2.3036046E0,7.4697857E0,-3.321609E0,-2.157795E-1,1.9600456E0,-3.2318676E0,1.6289222E0,4.8535566E0,3.2459023E0,-4.166674E0,-2.0675552E0,4.5246926E-1,7.1591175E-1,-1.3247073E0,-7.817619E-1,9.692258E0,1.3796618E0,-1.3499047E-1,1.7856917E0,5.020367E-2,-2.8011903E-1,-6.079731E-2,-1.20209575E-1,1.0962623E-1,1.9380184E-1,-6.2953687E-1,-1.5418275E-1,-8.186534E-1,6.728574E-1,2.8567607E0,-1.0759774E0,-3.993395E-1,-1.6797978E-1,1.0752057E0,-1.3138057E0,2.0371057E-1,8.299125E-1,-3.7494427E-1,1.9693108E-1,1.263725E0,-7.3094964E-1,-1.9756069E0,-4.7936577E-1,-1.1039753E0,1.3192441E0,-1.8890952E-1,8.054823E-1,2.5654595E-2,-1.0392398E0,-1.1196081E-2,4.6722823E-1,3.8942878E0,7.9607666E-1,-4.8842394E-1,-4.4480365E-2,3.2783028E-1,1.4593086E0,2.3254798E-1,3.031614E-1,-1.748749E-1],"categories":[],"categories_nodes":[],"categories_segments":[],"categories_sizes":[],"default_left":[0,0,0,0,0,0,0,0,0,0,0,0,0,0,0,0,0,0,0,0,0,0,0,0,0,0,0,0,0,0,0,0,0,0,0,0,0,0,0,0,0,0,0,0,0,0,0,0,0,0,0,0,0,0,0,0,0,0,0,0,0,0,0,0,0,0,0,0,0,0,0,0,0,0,0,0,0,0,0,0,0,0,0,0,0,0,0,0,0,0,0],"id":10,"left_children":[1,3,5,7,9,11,13,15,17,19,-1,21,23,25,27,29,31,33,35,37,39,41,43,45,47,49,-1,51,-1,53,55,57,59,61,-1,63,65,67,-1,69,71,73,75,77,79,-1,81,83,85,87,89,-1,-1,-1,-1,-1,-1,-1,-1,-1,-1,-1,-1,-1,-1,-1,-1,-1,-1,-1,-1,-1,-1,-1,-1,-1,-1,-1,-1,-1,-1,-1,-1,-1,-1,-1,-1,-1,-1,-1,-1],"loss_changes":[6.20011E1,1.5145981E2,1.9608822E1,8.646757E1,3.3057703E2,2.0783003E1,8.153963E1,1.2928227E2,5.8491386E1,2.5898346E2,0E0,2.899604E1,9.5232895E1,5.8031513E1,1.21064E1,6.641881E1,2.151608E2,2.2385254E0,8.293994E1,4.0105713E2,1.22357475E2,7.015645E1,4.293667E1,2.11801E2,1.8194939E1,4.7004875E1,0E0,1.2727618E-1,0E0,5.004172E1,1.1368526E2,1.641676E0,4.3019775E1,1.5550842E0,0E0,3.4745827E1,2.5412243E1,1.573555E2,0E0,4.743082E0,2.9986969E1,1.6838226E1,7.961402E1,3.5767204E1,4.3939003E1,0E0,6.0042175E1,3.4973404E1,1.6740593E1,6.1562317E1,3.8285484E1,0E0,0E0,0E0,0E0,0E0,0E0,0E0,0E0,0E0,0E0,0E0,0E0,0E0,0E0,0E0,0E0,0E0,0E0,0E0,0E0,0E0,0E0,0E0,0E0,0E0,0E0,0E0,0E0,0E0,0E0,0E0,0E0,0E0,0E0,0E0,0E0,0E0,0E0,0E0,0E0],"parents":[2147483647,0,0,1,1,2,2,3,3,4,4,5,5,6,6,7,7,8,8,9,9,11,11,12,12,13,13,14,14,15,15,16,16,17,17,18,18,19,19,20,20,21,21,22,22,23,23,24,24,25,25,27,27,29,29,30,30,31,31,32,32,33,33,35,35,36,36,37,37,39,39,40,40,41,41,42,42,43,43,44,44,46,46,47,47,48,48,49,49,50,50],"right_children":[2,4,6,8,10,12,14,16,18,20,-1,22,24,26,28,30,32,34,36,38,40,42,44,46,48,50,-1,52,-1,54,56,58,60,62,-1,64,66,68,-1,70,72,74,76,78,80,-1,82,84,86,88,90,-1,-1,-1,-1,-1,-1,-1,-1,-1,-1,-1,-1,-1,-1,-1,-1,-1,-1,-1,-1,-1,-1,-1,-1,-1,-1,-1,-1,-1,-1,-1,-1,-1,-1,-1,-1,-1,-1,-1,-1],"split_conditions":[1.987231E2,1.9318375E2,1.59748335E1,1.9043132E2,1.3200001E1,2.1038275E2,2.0532627E1,1.8964795E2,1.2000002E0,3.2E0,3.605828E0,1.7992796E1,2.1107274E2,2.0316889E1,1.6962334E1,1.0648208E2,1.3649833E1,1.7212336E1,3.9999998E0,3.1999996E0,1.9381976E2,1.2837334E1,4.7999997E0,1E-1,2.119208E2,1.6541502E1,1.7897288E0,1.6635248E1,-1.1094686E0,9.237333E0,1.98E1,-2.0085003E0,1.7429354E1,2.2415602E1,-2.157795E-1,-2.6683342E-1,1.6147749E1,8E-1,4.8535566E0,-3.3105838E0,2.2685833E0,1.1001916E1,1.3833167E1,2.027869E2,2.6819998E1,-7.817619E-1,1.7852498E0,7E-1,1.4599999E1,2.1107274E2,1.3797913E1,-2.8011903E-1,-6.079731E-2,-1.20209575E-1,1.0962623E-1,1.9380184E-1,-6.2953687E-1,-1.5418275E-1,-8.186534E-1,6.728574E-1,2.8567607E0,-1.0759774E0,-3.993395E-1,-1.6797978E-1,1.0752057E0,-1.3138057E0,2.0371057E-1,8.299125E-1,-3.7494427E-1,1.9693108E-1,1.263725E0,-7.3094964E-1,-1.9756069E0,-4.7936577E-1,-1.1039753E0,1.3192441E0,-1.8890952E-1,8.054823E-1,2.5654595E-2,-1.0392398E0,-1.1196081E-2,4.6722823E-1,3.8942878E0,7.9607666E-1,-4.8842394E-1,-4.4480365E-2,3.2783028E-1,1.4593086E0,2.3254798E-1,3.031614E-1,-1.748749E-1],"split_indices":[3,3,0,3,1,3,2,3,1,1,0,2,3,2,0,3,0,0,1,1,3,0,1,1,3,0,0,0,0,0,1,0,2,2,0,0,0,1,0,0,0,0,0,3,2,0,0,1,1,3,2,0,0,0,0,0,0,0,0,0,0,0,0,0,0,0,0,0,0,0,0,0,0,0,0,0,0,0,0,0,0,0,0,0,0,0,0,0,0,0,0],"split_type":[0,0,0,0,0,0,0,0,0,0,0,0,0,0,0,0,0,0,0,0,0,0,0,0,0,0,0,0,0,0,0,0,0,0,0,0,0,0,0,0,0,0,0,0,0,0,0,0,0,0,0,0,0,0,0,0,0,0,0,0,0,0,0,0,0,0,0,0,0,0,0,0,0,0,0,0,0,0,0,0,0,0,0,0,0,0,0,0,0,0,0],"sum_hessian":[1.964E3,7.59E2,1.205E3,6.98E2,6.1E1,1.116E3,8.9E1,6.75E2,2.3E1,5.9E1,2E0,8.9E1,1.027E3,8.2E1,7E0,6.67E2,8E0,1.2E1,1.1E1,4.7E1,1.2E1,4.6E1,4.3E1,4E0,1.023E3,8.1E1,1E0,3E0,4E0,3.76E2,2.91E2,3E0,5E0,1.1E1,1E0,7E0,4E0,4.6E1,1E0,2E0,1E1,2.9E1,1.7E1,2.8E1,1.5E1,2E0,2E0,7E0,1.016E3,2E1,6.1E1,2E0,1E0,2.47E2,1.29E2,2.76E2,1.5E1,1E0,2E0,2E0,3E0,9E0,2E0,3E0,4E0,3E0,1E0,3.3E1,1.3E1,1E0,1E0,7E0,3E0,2.4E1,5E0,3E0,1.4E1,6E0,2.2E1,5E0,1E1,1E0,1E0,5E0,2E0,1.006E3,1E1,4E0,1.6E1,2.4E1,3.7E1],"tree_param":{"num_deleted":"0","num_feature":"4","num_nodes":"91","size_leaf_vector":"1"}},{"base_weights":[3.1025983E-2,1.883099E-1,-8.367884E-2,-1.5525252E-2,5.6322426E-1,-1.344354E0,-4.712795E-2,8.706321E-2,-1.640426E0,5.043579E0,3.023979E-1,-2.059506E0,-1.407085E-1,3.1118876E-1,-1.0151621E-1,2.05339E-2,4.2342625E0,-4.2416925E0,-4.3811786E-1,8.145679E-1,1.752697E1,-2.710597E0,4.7309193E-1,-1.0566825E0,-2.41381E0,1.6446203E0,-1.4621166E0,-1.7204161E-1,8.995292E-1,-1.09141424E-1,5.25031E-1,-4.341244E-1,2.7541852E-1,5.4768796E0,1.6224251E0,-4.564093E0,-2.0101276E-1,3.6803784E0,-1.2399112E0,3.7332177E0,-3.2127264E0,6.738345E0,4.086657E-1,1.1250314E0,-3.4399402E0,-1.2511524E0,8.3475316E-1,-1.4307504E0,1.7815883E-1,1.0576816E-1,-2.6537278E0,6.3432455E-1,-1.0565308E-1,4.7386324E-1,-2.1222887E0,-2.9298086E0,-6.513855E-2,7.034811E0,2.813125E-1,4.8774913E-1,-1.3365033E-1,1.1868039E-2,-4.218749E-1,3.956118E-1,1.6110393E-3,4.272652E-1,1.8401973E0,8.013453E-1,-2.2856285E-1,-5.771051E-1,-1.5131053E0,-2.476513E-1,1.6372523E0,-4.9124095E-1,4.676232E-1,1.3862858E0,-3.7213886E-1,-3.4761363E-1,-1.1850168E0,-1.1432362E0,-2.4297161E-1,-6.7344284E-1,5.2538294E-1,1.3219017E0,1.8710163E-1,-5.121462E-1,-7.309914E-3,-9.0538687E-1,-1.3009444E-1,2.341605E-1,-8.2085454E-1,-1.6117191E-1,-1.157242E0,7.790537E-2,-3.31369E-1,5.612425E-1,3.4725635E0,5.733518E-1,-4.7052123E-2,3.6851827E-2,4.9497616E-1,-3.7465483E-2,-5.143482E-1],"categories":[],"categories_nodes":[],"categories_segments":[],"categories_sizes":[],"default_left":[0,0,0,0,0,0,0,0,0,0,0,0,0,0,0,0,0,0,0,0,0,0,0,0,0,0,0,0,0,0,0,0,0,0,0,0,0,0,0,0,0,0,0,0,0,0,0,0,0,0,0,0,0,0,0,0,0,0,0,0,0,0,0,0,0,0,0,0,0,0,0,0,0,0,0,0,0,0,0,0,0,0,0,0,0,0,0,0,0,0,0,0,0,0,0,0,0,0,0,0,0,0,0],"id":11,"left_children":[1,3,5,7,9,11,13,15,17,19,21,23,25,27,29,31,33,35,37,39,41,43,45,47,49,51,53,55,57,59,-1,61,63,65,67,69,-1,71,73,75,77,-1,-1,-1,79,81,83,85,-1,-1,87,-1,-1,-1,89,91,93,95,97,99,101,-1,-1,-1,-1,-1,-1,-1,-1,-1,-1,-1,-1,-1,-1,-1,-1,-1,-1,-1,-1,-1,-1,-1,-1,-1,-1,-1,-1,-1,-1,-1,-1,-1,-1,-1,-1,-1,-1,-1,-1,-1,-1],"loss_changes":[3.5466763E1,6.3361526E1,5.232824E1,8.982531E1,3.397045E2,2.7255463E1,2.1585564E1,1.3979956E2,9.822238E1,8.304015E2,1.4374352E2,4.5554657E0,3.307355E1,4.1663143E1,1.3759374E1,5.8062267E1,1.7078293E1,8.456909E0,8.051355E1,1.6479921E2,2.8844214E2,8.358118E1,1.6504918E2,5.171582E0,1.0227417E1,6.3731575E0,1.9416405E1,2.3689072E1,2.4835468E2,1.4079898E1,0E0,8.2942154E1,9.043084E1,4.579117E0,1.2036999E1,1.694397E0,0E0,3.653533E1,2.4804983E1,4.1054596E1,4.5099297E0,0E0,0E0,0E0,1.056839E1,1.4116696E2,1.6160078E2,2.290781E0,0E0,0E0,9.203278E0,0E0,0E0,0E0,1.4609854E1,4.586117E0,2.6959543E1,1.1902481E2,4.386155E1,1.5912654E1,1.2547924E1,0E0,0E0,0E0,0E0,0E0,0E0,0E0,0E0,0E0,0E0,0E0,0E0,0E0,0E0,0E0,0E0,0E0,0E0,0E0,0E0,0E0,0E0,0E0,0E0,0E0,0E0,0E0,0E0,0E0,0E0,0E0,0E0,0E0,0E0,0E0,0E0,0E0,0E0,0E0,0E0,0E0,0E0],"parents":[2147483647,0,0,1,1,2,2,3,3,4,4,5,5,6,6,7,7,8,8,9,9,10,10,11,11,12,12,13,13,14,14,15,15,16,16,17,17,18,18,19,19,20,20,21,21,22,22,23,23,24,24,25,25,26,26,27,27,28,28,29,29,31,31,32,32,33,33,34,34,35,35,37,37,38,38,39,39,40,40,44,44,45,45,46,46,47,47,50,50,54,54,55,55,56,56,57,57,58,58,59,59,60,60],"right_children":[2,4,6,8,10,12,14,16,18,20,22,24,26,28,30,32,34,36,38,40,42,44,46,48,50,52,54,56,58,60,-1,62,64,66,68,70,-1,72,74,76,78,-1,-1,-1,80,82,84,86,-1,-1,88,-1,-1,-1,90,92,94,96,98,100,102,-1,-1,-1,-1,-1,-1,-1,-1,-1,-1,-1,-1,-1,-1,-1,-1,-1,-1,-1,-1,-1,-1,-1,-1,-1,-1,-1,-1,-1,-1,-1,-1,-1,-1,-1,-1,-1,-1,-1,-1,-1,-1],"split_conditions":[2.0652289E2,1.6711992E2,2.0943929E2,1.5842863E2,1.7036661E2,2.1000001E0,2.2840794E2,1.5667465E2,1.4404499E1,2.0380579E1,1.0495713E1,4.889416E0,2.0789716E2,1.8335276E1,1.9495667E1,5E-1,1.5000001E0,1.8189417E1,6E-1,1.5876775E1,7.4019165E0,8.049845E0,1.1165E0,3.429E0,1.1457958E1,3.372491E1,1.0446206E1,2.0995494E2,1.9137648E1,9.693296E0,5.25031E-1,1.1824833E1,1.1542478E1,1E-1,1.2837334E1,8.913181E0,-2.0101276E-1,-3.3105838E0,3.5188046E1,2.0529E1,1E-1,6.738345E0,4.086657E-1,1.1250314E0,1.6418583E1,1.9791888E2,1.4519167E0,1.9334715E1,1.7815883E-1,1.0576816E-1,1.7724833E1,6.3432455E-1,-1.0565308E-1,4.7386324E-1,3.8999999E0,-3.3105838E0,1.6135872E1,1.8671474E1,2.0316889E1,9.360001E0,1.8710249E1,1.1868039E-2,-4.218749E-1,3.956118E-1,1.6110393E-3,4.272652E-1,1.8401973E0,8.013453E-1,-2.2856285E-1,-5.771051E-1,-1.5131053E0,-2.476513E-1,1.6372523E0,-4.9124095E-1,4.676232E-1,1.3862858E0,-3.7213886E-1,-3.4761363E-1,-1.1850168E0,-1.1432362E0,-2.4297161E-1,-6.7344284E-1,5.2538294E-1,1.3219017E0,1.8710163E-1,-5.121462E-1,-7.309914E-3,-9.0538687E-1,-1.3009444E-1,2.341605E-1,-8.2085454E-1,-1.6117191E-1,-1.157242E0,7.790537E-2,-3.31369E-1,5.612425E-1,3.4725635E0,5.733518E-1,-4.7052123E-2,3.6851827E-2,4.9497616E-1,-3.7465483E-2,-5.143482E-1],"split_indices":[3,3,3,3,3,1,3,3,2,2,2,0,3,2,0,1,1,0,1,2,0,2,0,0,2,2,2,3,2,2,0,0,2,1,0,2,0,0,2,0,1,0,0,0,0,3,0,2,0,0,0,0,0,0,1,0,2,2,2,2,0,0,0,0,0,0,0,0,0,0,0,0,0,0,0,0,0,0,0,0,0,0,0,0,0,0,0,0,0,0,0,0,0,0,0,0,0,0,0,0,0,0,0],"split_type":[0,0,0,0,0,0,0,0,0,0,0,0,0,0,0,0,0,0,0,0,0,0,0,0,0,0,0,0,0,0,0,0,0,0,0,0,0,0,0,0,0,0,0,0,0,0,0,0,0,0,0,0,0,0,0,0,0,0,0,0,0,0,0,0,0,0,0,0,0,0,0,0,0,0,0,0,0,0,0,0,0,0,0,0,0,0,0,0,0,0,0,0,0,0,0,0,0,0,0,0,0,0,0],"sum_hessian":[1.964E3,8.28E2,1.136E3,5.37E2,2.91E2,3.1E1,1.105E3,5.06E2,3.1E1,1.5E1,2.76E2,1.9E1,1.2E1,1.45E2,9.6E2,4.99E2,7E0,9E0,2.2E1,1.2E1,3E0,1.4E1,2.62E2,6E0,1.3E1,5E0,7E0,8E1,6.5E1,9.57E2,3E0,1.79E2,3.2E2,4E0,3E0,8E0,1E0,3E0,1.9E1,7E0,5E0,2E0,1E0,1E0,1.3E1,4.5E1,2.17E2,5E0,1E0,1E0,1.2E1,4E0,1E0,1E0,6E0,2E0,7.8E1,5E0,6E1,3.7E1,9.2E2,1.21E2,5.8E1,6.5E1,2.55E2,1E0,3E0,2E0,1E0,2E0,6E0,1E0,2E0,1.7E1,2E0,6E0,1E0,2E0,3E0,1.1E1,2E0,3.4E1,1.1E1,1.1E1,2.06E2,4E0,1E0,1E1,2E0,1E0,5E0,1E0,1E0,6E1,1.8E1,3E0,2E0,1.2E1,4.8E1,2.9E1,8E0,9.16E2,4E0],"tree_param":{"num_deleted":"0","num_feature":"4","num_nodes":"103","size_leaf_vector":"1"}},{"base_weights":[2.7961817E-2,1.9007089E-2,1.7767106E0,-4.172728E-2,2.2118898E-1,2.253602E0,-3.7729684E-1,5.706267E-3,-5.942365E-1,2.232809E0,1.130763E-1,2.7845874E0,2.6343536E-1,-3.13977E-2,4.2598186E0,-1.1627501E0,1.8658073E-1,8.454557E-1,7.0581903E0,-2.2103736E0,1.9658272E-1,3.1542385E0,8.500214E-2,-9.179518E-1,1.0364977E0,1.7091444E0,-4.154594E-2,-5.8232453E-2,1.291048E1,-2.638944E-1,-2.469507E0,4.6589565E0,-9.104595E-2,4.7155237E0,-1.7490222E-1,4.0725946E0,-5.434994E-1,-2.7802324E0,8.6514735E-1,1.3423108E0,-4.0700086E-3,1.2246808E0,8.654515E-1,-1.1064339E-2,1.3894442E0,-6.122062E-1,-8.931914E-3,5.731058E-1,-4.082752E-1,6.339132E0,9.381042E-1,-2.0347115E-1,5.714131E-1,-1.0093856E0,2.0894635E-1,4.4063103E-1,1.6558995E0,-5.023539E-1,7.76295E-2,2.270867E-1,1.7348183E0,2.4137148E-1,-3.7648425E-1,-1.0984251E0,1.01425074E-1,7.946658E-1,-1.4913765E-2,-1.4175092E-1,1.5963385E-1,-8.49628E-2,4.74416E-1],"categories":[],"categories_nodes":[],"categories_segments":[],"categories_sizes":[],"default_left":[0,0,0,0,0,0,0,0,0,0,0,0,0,0,0,0,0,0,0,0,0,0,0,0,0,0,0,0,0,0,0,0,0,0,0,0,0,0,0,0,0,0,0,0,0,0,0,0,0,0,0,0,0,0,0,0,0,0,0,0,0,0,0,0,0,0,0,0,0,0,0],"id":12,"left_children":[1,3,5,7,9,11,-1,13,15,17,19,21,23,25,27,29,31,33,35,37,39,41,-1,-1,-1,43,45,47,49,51,53,55,57,59,61,-1,-1,63,-1,65,67,-1,69,-1,-1,-1,-1,-1,-1,-1,-1,-1,-1,-1,-1,-1,-1,-1,-1,-1,-1,-1,-1,-1,-1,-1,-1,-1,-1,-1,-1],"loss_changes":[3.0737286E1,2.4027714E1,1.7304893E1,3.9445637E1,9.8049225E1,8.777187E0,0E0,2.1906398E2,5.3041664E1,1.4800632E2,8.38644E1,5.578396E0,4.239098E1,2.4375898E1,4.4899976E2,8.039474E1,6.374838E1,7.585299E1,3.1362363E2,5.15623E1,9.564114E1,9.211376E0,0E0,0E0,0E0,4.0990604E1,3.2159576E1,2.5679844E1,2.5560352E2,3.9030758E1,8.1693146E1,1.3034058E-1,2.7575094E1,1.2521133E1,1.793571E1,0E0,0E0,3.9707222E1,0E0,1.1289625E2,8.941526E1,0E0,2.9149632E0,0E0,0E0,0E0,0E0,0E0,0E0,0E0,0E0,0E0,0E0,0E0,0E0,0E0,0E0,0E0,0E0,0E0,0E0,0E0,0E0,0E0,0E0,0E0,0E0,0E0,0E0,0E0,0E0],"parents":[2147483647,0,0,1,1,2,2,3,3,4,4,5,5,7,7,8,8,9,9,10,10,11,11,12,12,13,13,14,14,15,15,16,16,17,17,18,18,19,19,20,20,21,21,25,25,26,26,27,27,28,28,29,29,30,30,31,31,32,32,33,33,34,34,37,37,39,39,40,40,42,42],"right_children":[2,4,6,8,10,12,-1,14,16,18,20,22,24,26,28,30,32,34,36,38,40,42,-1,-1,-1,44,46,48,50,52,54,56,58,60,62,-1,-1,64,-1,66,68,-1,70,-1,-1,-1,-1,-1,-1,-1,-1,-1,-1,-1,-1,-1,-1,-1,-1,-1,-1,-1,-1,-1,-1,-1,-1,-1,-1,-1,-1],"split_conditions":[2.1139416E1,2.8999999E0,2.1269899E2,1.9E0,3.2E0,3E-1,-3.7729684E-1,1.8000001E0,2.027869E2,3.1999996E0,3.4E0,1.353236E1,5E-1,7.2805495E0,2.9810836E0,5.8248334E0,2.0700839E2,1.5484185E1,1.9791888E2,2.3977188E1,4.4E0,1.5842863E2,8.500214E-2,-9.179518E-1,1.0364977E0,2E-1,7.928178E0,-3.1272497E0,1.7036661E2,1.6539999E0,1.6345667E1,6.5435834E0,1.2605142E1,-4.6480837E0,5.608344E-2,4.0725946E0,-5.434994E-1,1.9654384E2,8.6514735E-1,1.9381976E2,7.5519176E0,1.2246808E0,1.0805998E1,-1.1064339E-2,1.3894442E0,-6.122062E-1,-8.931914E-3,5.731058E-1,-4.082752E-1,6.339132E0,9.381042E-1,-2.0347115E-1,5.714131E-1,-1.0093856E0,2.0894635E-1,4.4063103E-1,1.6558995E0,-5.023539E-1,7.76295E-2,2.270867E-1,1.7348183E0,2.4137148E-1,-3.7648425E-1,-1.0984251E0,1.01425074E-1,7.946658E-1,-1.4913765E-2,-1.4175092E-1,1.5963385E-1,-8.49628E-2,4.74416E-1],"split_indices":[0,1,3,1,1,1,0,1,3,1,1,2,1,2,0,0,3,2,3,2,1,3,0,0,0,1,2,0,3,0,0,0,2,0,0,0,0,3,0,3,0,0,2,0,0,0,0,0,0,0,0,0,0,0,0,0,0,0,0,0,0,0,0,0,0,0,0,0,0,0,0],"split_type":[0,0,0,0,0,0,0,0,0,0,0,0,0,0,0,0,0,0,0,0,0,0,0,0,0,0,0,0,0,0,0,0,0,0,0,0,0,0,0,0,0,0,0,0,0,0,0,0,0,0,0,0,0,0,0,0,0,0,0,0,0,0,0,0,0,0,0,0,0,0,0],"sum_hessian":[1.964E3,1.955E3,9E0,1.504E3,4.51E2,8E0,1E0,1.386E3,1.18E2,2.2E1,4.29E2,6E0,2E0,1.375E3,1.1E1,6.8E1,5E1,1.8E1,4E0,1.4E1,4.15E2,5E0,1E0,1E0,1E0,7E0,1.368E3,8E0,3E0,4.1E1,2.7E1,2E0,4.8E1,3E0,1.5E1,2E0,2E0,1.3E1,1E0,6.1E1,3.54E2,3E0,2E0,5E0,2E0,7E0,1.361E3,3E0,5E0,1E0,2E0,3.5E1,6E0,2.1E1,6E0,1E0,1E0,8E0,4E1,1E0,2E0,8E0,7E0,1E1,3E0,3.1E1,3E1,1.89E2,1.65E2,1E0,1E0],"tree_param":{"num_deleted":"0","num_feature":"4","num_nodes":"71","size_leaf_vector":"1"}},{"base_weights":[2.817419E-2,9.138465E-2,-1.5671901E-1,-5.0137705E-1,1.2553295E-1,-1.3504851E-1,-1.9220278E0,-8.76769E-1,-1.7431158E-1,1.03472956E-1,7.659009E-1,-1.5528812E-1,1.8835385E0,1.12999536E-1,-2.4570994E0,-1.0199809E0,-1.1729235E-1,-4.0233922E-1,9.459197E-2,1.272345E-1,-1.7546171E0,3.9441317E-1,1.7855816E0,1.5372309E-1,-2.3253892E-1,1.3192724E0,1.5563595E-1,-9.6538055E-1,8.793655E-2,-5.361903E-1,-1.4400227E0,-5.7984974E-2,4.845659E-2,-2.4883048E-1,-3.3230257E-1,7.878115E-1,-3.0829006E-1,1.9533019E-1,-1.12227984E-1,4.78202E-1,-2.0635314E0,8.092521E-1,-1.7455168E0,1.1801523E0,6.324018E-1,1.154325E-2,9.4916064E-1,-3.347413E-1,8.1635115E-4,-5.2821904E-1,1.3813347E0,-1.9185361E-1,-1.9904085E-2,4.792791E-2,-5.039924E-1,3.345144E-3,1.8460322E-2,-1.337918E-1,9.550615E-2,3.3156353E-1,1.12898745E-1,-1.4722209E-1,1.5728223E-1,4.075714E-2,2.8571853E-1,-3.0211642E-1,-7.5965864E-3,6.6012196E-2,-7.21642E-1,3.4389442E-1,-7.828791E-2,-7.3619944E-1,-6.5710835E-2,-1.8329799E-1,4.067795E-1,2.8326878E-2,-2.3939294E-1,3.5939563E-2,7.751776E-1,-8.537164E-2,-3.9602822E-1,-5.552212E-2,6.248111E-1,9.8631196E-2,5.229694E-1],"categories":[],"categories_nodes":[],"categories_segments":[],"categories_sizes":[],"default_left":[0,0,0,0,0,0,0,0,0,0,0,0,0,0,0,0,0,0,0,0,0,0,0,0,0,0,0,0,0,0,0,0,0,0,0,0,0,0,0,0,0,0,0,0,0,0,0,0,0,0,0,0,0,0,0,0,0,0,0,0,0,0,0,0,0,0,0,0,0,0,0,0,0,0,0,0,0,0,0,0,0,0,0,0,0],"id":13,"left_children":[1,3,5,7,9,11,13,15,17,19,21,23,25,-1,27,29,31,33,35,37,39,41,43,45,47,-1,49,-1,-1,51,53,-1,55,57,-1,59,61,63,65,-1,67,69,71,-1,73,75,77,79,81,-1,83,-1,-1,-1,-1,-1,-1,-1,-1,-1,-1,-1,-1,-1,-1,-1,-1,-1,-1,-1,-1,-1,-1,-1,-1,-1,-1,-1,-1,-1,-1,-1,-1,-1,-1],"loss_changes":[2.2979637E1,2.971719E1,1.8906258E1,9.66939E0,1.95001E1,2.0556774E1,8.305294E0,3.904707E0,2.7360253E0,5.942988E1,1.672049E1,1.1780459E1,2.1035625E1,0E0,1.1405582E1,5.5274544E0,9.7533725E-2,2.3229818E0,6.1078744E0,2.1627846E1,2.0874725E1,3.2482983E1,2.7240181E1,1.1185468E1,9.396963E0,0E0,1.1827706E1,0E0,0E0,7.342911E-1,6.4103203E0,0E0,7.7750953E-4,2.4901123E0,0E0,6.289134E-1,2.3839035E0,4.633638E1,2.2837654E1,0E0,1.3022888E1,1.1120996E1,5.9513836E0,0E0,8.925165E0,5.7782288E0,2.0027624E1,1.3169344E1,4.721272E1,0E0,5.696349E-1,0E0,0E0,0E0,0E0,0E0,0E0,0E0,0E0,0E0,0E0,0E0,0E0,0E0,0E0,0E0,0E0,0E0,0E0,0E0,0E0,0E0,0E0,0E0,0E0,0E0,0E0,0E0,0E0,0E0,0E0,0E0,0E0,0E0,0E0],"parents":[2147483647,0,0,1,1,2,2,3,3,4,4,5,5,6,6,7,7,8,8,9,9,10,10,11,11,12,12,14,14,15,15,16,16,17,17,18,18,19,19,20,20,21,21,22,22,23,23,24,24,26,26,29,29,30,30,32,32,33,33,35,35,36,36,37,37,38,38,40,40,41,41,42,42,44,44,45,45,46,46,47,47,48,48,50,50],"right_children":[2,4,6,8,10,12,14,16,18,20,22,24,26,-1,28,30,32,34,36,38,40,42,44,46,48,-1,50,-1,-1,52,54,-1,56,58,-1,60,62,64,66,-1,68,70,72,-1,74,76,78,80,82,-1,84,-1,-1,-1,-1,-1,-1,-1,-1,-1,-1,-1,-1,-1,-1,-1,-1,-1,-1,-1,-1,-1,-1,-1,-1,-1,-1,-1,-1,-1,-1,-1,-1,-1,-1],"split_conditions":[2.975745E2,-7.27725E0,1.7724833E1,1.4372974E1,1.8710249E1,1.7089415E1,2.983312E2,2.7432843E2,1E-1,1.8189417E1,1.3000001E0,1.2429127E1,1.7399834E1,1.12999536E-1,1.918525E1,4.3792606E1,-1.1256416E1,-7.8418326E0,1.3000001E0,2.167487E1,3.1814192E1,3E-1,1.3237039E1,1.1988594E1,3.3794568E2,1.3192724E0,1.7491497E1,-9.6538055E-1,8.793655E-2,-8.998084E0,8.654987E0,-5.7984974E-2,-8.704333E0,-8.423083E0,-3.3230257E-1,-8.998084E0,9.1E0,2.0316889E1,2.2049082E1,4.78202E-1,9.957108E0,2.1269899E2,1.1E0,1.1801523E0,1.57908325E1,3.8999999E0,1E-1,1.5470666E1,1.34227495E1,-5.2821904E-1,1.7591497E1,-1.9185361E-1,-1.9904085E-2,4.792791E-2,-5.039924E-1,3.345144E-3,1.8460322E-2,-1.337918E-1,9.550615E-2,3.3156353E-1,1.12898745E-1,-1.4722209E-1,1.5728223E-1,4.075714E-2,2.8571853E-1,-3.0211642E-1,-7.5965864E-3,6.6012196E-2,-7.21642E-1,3.4389442E-1,-7.828791E-2,-7.3619944E-1,-6.5710835E-2,-1.8329799E-1,4.067795E-1,2.8326878E-2,-2.3939294E-1,3.5939563E-2,7.751776E-1,-8.537164E-2,-3.9602822E-1,-5.552212E-2,6.248111E-1,9.8631196E-2,5.229694E-1],"split_indices":[3,0,0,2,0,0,3,3,1,0,1,2,0,0,0,3,0,0,1,2,3,1,2,2,3,0,0,0,0,0,2,0,0,0,0,0,1,2,2,0,2,3,1,0,2,1,1,0,0,0,0,0,0,0,0,0,0,0,0,0,0,0,0,0,0,0,0,0,0,0,0,0,0,0,0,0,0,0,0,0,0,0,0,0,0],"split_type":[0,0,0,0,0,0,0,0,0,0,0,0,0,0,0,0,0,0,0,0,0,0,0,0,0,0,0,0,0,0,0,0,0,0,0,0,0,0,0,0,0,0,0,0,0,0,0,0,0,0,0,0,0,0,0,0,0,0,0,0,0,0,0,0,0,0,0,0,0,0,0,0,0,0,0,0,0,0,0,0,0,0,0,0,0],"sum_hessian":[1.964E3,1.464E3,5E2,7.9E1,1.385E3,4.95E2,5E0,3.6E1,4.3E1,1.34E3,4.5E1,4.91E2,4E0,1E0,4E0,3E1,6E0,2.3E1,2E1,1.324E3,1.6E1,3.4E1,1.1E1,9.8E1,3.93E2,1E0,3E0,3E0,1E0,1.5E1,1.5E1,4E0,2E0,2E1,3E0,7E0,1.3E1,1.031E3,2.93E2,1E0,1.5E1,2.9E1,5E0,3E0,8E0,8.4E1,1.4E1,2.73E2,1.2E2,1E0,2E0,1.2E1,3E0,2E0,1.3E1,1E0,1E0,1.5E1,5E0,3E0,4E0,1.1E1,2E0,9.57E2,7.4E1,2.5E1,2.68E2,2E0,1.3E1,2.2E1,7E0,3E0,2E0,3E0,5E0,7.7E1,7E0,1E1,4E0,2.61E2,1.2E1,1.11E2,9E0,1E0,1E0],"tree_param":{"num_deleted":"0","num_feature":"4","num_nodes":"85","size_leaf_vector":"1"}},{"base_weights":[2.0445988E-2,1.7374635E-2,9.0788746E-1,2.945293E-2,-8.18805E-1,8.716466E-3,1.0940627E0,1.6211723E0,-2.492977E0,3.0434301E-2,-1.2215669E0,2.9136053E-1,7.6435156E0,-3.3648295E0,4.5347767E0,-4.460007E-3,-4.234493E0,4.4153303E-2,-7.11287E-1,-2.2335608E0,1.4172973E-1,-9.568366E-1,2.6594584E0,-7.811221E-2,3.109481E0,4.2712379E-1,-1.4753729E0,2.9764695E0,2.3478694E0,-4.2216313E-1,1.7500929E0,-5.1738048E0,-3.1816292E-1,9.436959E-3,5.4666364E-1,-7.1541524E-1,-3.1399634E-2,4.199334E-1,-9.8873097E-1,-5.9130466E-1,1.3002808E-1,6.570892E-2,-9.566894E-1,2.8071637E0,1.152559E-1,7.706788E-1,1.5322652E-1,1.4016381E-1,6.065946E-1,-1.9437109E0,-6.7464423E-1,1.1437555E-1,-2.5754887E-1],"categories":[],"categories_nodes":[],"categories_segments":[],"categories_sizes":[],"default_left":[0,0,0,0,0,0,0,0,0,0,0,0,0,0,0,0,0,0,0,0,0,0,0,0,0,0,0,0,0,0,0,0,0,0,0,0,0,0,0,0,0,0,0,0,0,0,0,0,0,0,0,0,0],"id":14,"left_children":[1,3,-1,5,7,9,11,13,15,17,19,21,23,25,27,29,31,33,35,37,39,41,43,-1,-1,-1,-1,-1,45,-1,47,49,51,-1,-1,-1,-1,-1,-1,-1,-1,-1,-1,-1,-1,-1,-1,-1,-1,-1,-1,-1,-1],"loss_changes":[1.8088322E1,1.9859777E1,0E0,4.2752144E1,1.1841989E2,5.0830173E1,1.9229161E2,1.895856E2,7.365558E1,1.9049744E1,4.5844936E1,1.0304366E2,8.873801E1,4.4187065E1,7.094873E1,2.2152346E1,3.514044E1,4.1391502E1,3.4265125E1,7.794127E1,1.0098518E1,6.1066216E1,1.7927563E2,0E0,0E0,0E0,0E0,0E0,1.5306892E0,0E0,4.5051003E-1,1.5972168E1,1.4610544E0,0E0,0E0,0E0,0E0,0E0,0E0,0E0,0E0,0E0,0E0,0E0,0E0,0E0,0E0,0E0,0E0,0E0,0E0,0E0,0E0],"parents":[2147483647,0,0,1,1,3,3,4,4,5,5,6,6,7,7,8,8,9,9,10,10,11,11,12,12,13,13,14,14,15,15,16,16,17,17,18,18,19,19,20,20,21,21,22,22,28,28,30,30,31,31,32,32],"right_children":[2,4,-1,6,8,10,12,14,16,18,20,22,24,26,28,30,32,34,36,38,40,42,44,-1,-1,-1,-1,-1,46,-1,48,50,52,-1,-1,-1,-1,-1,-1,-1,-1,-1,-1,-1,-1,-1,-1,-1,-1,-1,-1,-1,-1],"split_conditions":[8.9E1,2.21E1,9.0788746E-1,1.4599999E1,2.3576563E1,1.15E1,2.9940662E1,9.324833E0,2.370667E0,3.0599998E1,2.1470612E1,1.9230518E2,-8.876667E-1,-3.7876666E0,9.837333E0,6.493675E1,1.8887816E2,2.9548521E1,1.987231E2,1.4230248E1,1.1700001E1,1.3992946E2,1.94699E2,-7.811221E-2,3.109481E0,4.2712379E-1,-1.4753729E0,2.9764695E0,1.5793583E1,-4.2216313E-1,-4.498083E0,2.8600004E1,5.629E0,9.436959E-3,5.4666364E-1,-7.1541524E-1,-3.1399634E-2,4.199334E-1,-9.8873097E-1,-5.9130466E-1,1.3002808E-1,6.570892E-2,-9.566894E-1,2.8071637E0,1.152559E-1,7.706788E-1,1.5322652E-1,1.4016381E-1,6.065946E-1,-1.9437109E0,-6.7464423E-1,1.1437555E-1,-2.5754887E-1],"split_indices":[1,1,0,1,2,1,2,0,0,2,2,3,0,0,0,3,3,2,3,2,1,3,3,0,0,0,0,0,0,0,0,1,0,0,0,0,0,0,0,0,0,0,0,0,0,0,0,0,0,0,0,0,0],"split_type":[0,0,0,0,0,0,0,0,0,0,0,0,0,0,0,0,0,0,0,0,0,0,0,0,0,0,0,0,0,0,0,0,0,0,0,0,0,0,0,0,0,0,0,0,0,0,0,0,0,0,0,0,0],"sum_hessian":[1.964E3,1.963E3,1E0,1.936E3,2.7E1,1.9E3,3.6E1,1.1E1,1.6E1,1.868E3,3.2E1,3.3E1,3E0,4E0,7E0,7E0,9E0,1.835E3,3.3E1,1.8E1,1.4E1,2.2E1,1.1E1,1E0,2E0,1E0,3E0,1E0,6E0,4E0,3E0,7E0,2E0,1.823E3,1.2E1,8E0,2.5E1,4E0,1.4E1,1E0,1.3E1,1.5E1,7E0,2E0,9E0,5E0,1E0,1E0,2E0,4E0,3E0,1E0,1E0],"tree_param":{"num_deleted":"0","num_feature":"4","num_nodes":"53","size_leaf_vector":"1"}},{"base_weights":[1.6940802E-2,1.3799973E-1,-5.9362452E-2,9.908931E-2,3.7831929E0,-3.9717525E-1,-2.3390274E-2,-2.0223056E-1,4.0335903E-1,6.373437E0,-7.975079E-1,-5.802189E-1,1.0977259E0,2.5074112E0,-4.4400267E-2,-1.22927E-2,-1.0865338E0,4.02355E0,1.9884446E-1,3.3199759E0,1.2602162E0,-4.5368412E-1,-2.0419257E0,2.8722398E0,-1.0084788E-2,1.6832948E-1,7.129465E0,-5.0982133E-2,1.3848464E0,-8.302736E-2,1.6264324E0,-3.774964E0,-4.9103922E-1,6.130108E0,7.6774544E-1,-2.1259907E-1,9.157586E-1,-7.609296E-1,1.0113729E0,8.248239E-1,-6.268052E-1,-7.092395E-1,3.202715E-2,4.048644E0,-2.7500668E-1,-1.1915684E0,4.97706E-1,4.7005277E0,-7.753967E-1,4.251883E-1,2.783071E0,-5.8537733E-2,8.537987E-1,6.658373E-1,8.8619865E-2,3.7133975E-3,-7.798155E-1,-2.6319754E-1,9.9028397E-1,-6.1264676E-1,-1.4162843E0,1.5557125E0,-2.3919623E-1,7.181473E-1,3.9012659E0,-7.634633E-1,1.1780459E0,5.2763447E-2,-2.914971E-1,1.3400269E0,8.030677E-2,-5.121342E-1,5.5754477E-1,-7.605296E-1,-1.2768783E-1,1.6755248E0,-8.4100485E-2,-4.546452E-1,-8.156061E-2,-3.418688E-1,2.8815338E-1,2.0421557E0,7.308197E-2,-1.2882496E-2,-2.2113824E-1,-1.4437214E-1,1.1052872E0,-3.1037465E-1,3.5025358E-1],"categories":[],"categories_nodes":[],"categories_segments":[],"categories_sizes":[],"default_left":[0,0,0,0,0,0,0,0,0,0,0,0,0,0,0,0,0,0,0,0,0,0,0,0,0,0,0,0,0,0,0,0,0,0,0,0,0,0,0,0,0,0,0,0,0,0,0,0,0,0,0,0,0,0,0,0,0,0,0,0,0,0,0,0,0,0,0,0,0,0,0,0,0,0,0,0,0,0,0,0,0,0,0,0,0,0,0,0,0],"id":15,"left_children":[1,3,5,7,9,11,13,15,17,19,-1,21,23,25,27,29,31,33,35,-1,37,39,41,43,45,47,49,51,53,55,57,59,61,63,65,67,69,-1,-1,71,73,-1,-1,75,-1,77,79,81,-1,-1,-1,83,85,-1,87,-1,-1,-1,-1,-1,-1,-1,-1,-1,-1,-1,-1,-1,-1,-1,-1,-1,-1,-1,-1,-1,-1,-1,-1,-1,-1,-1,-1,-1,-1,-1,-1,-1,-1],"loss_changes":[1.8159271E1,1.0742049E2,1.4645855E1,6.911849E1,1.5042441E2,3.237825E1,5.8122116E1,6.3644493E1,2.768431E2,1.3003635E2,0E0,1.8309116E1,2.5584698E1,9.610216E1,1.0258503E1,3.6416325E1,1.05409676E2,1.3246442E2,1.0520389E2,0E0,4.0610226E1,2.1986662E1,5.790928E0,2.599791E1,5.992569E0,9.948876E1,2.365149E1,7.426196E0,5.2125387E0,7.229443E1,5.739951E1,1.0029602E1,1.0150091E2,2.7707376E2,1.0417667E2,6.71079E1,2.979723E2,0E0,0E0,3.4578556E1,3.1937153E1,0E0,0E0,2.8170525E1,0E0,4.8170233E-1,6.3987174E0,2.6509338E1,0E0,0E0,0E0,1.13031025E1,3.5782387E1,0E0,4.843328E0,0E0,0E0,0E0,0E0,0E0,0E0,0E0,0E0,0E0,0E0,0E0,0E0,0E0,0E0,0E0,0E0,0E0,0E0,0E0,0E0,0E0,0E0,0E0,0E0,0E0,0E0,0E0,0E0,0E0,0E0,0E0,0E0,0E0,0E0],"parents":[2147483647,0,0,1,1,2,2,3,3,4,4,5,5,6,6,7,7,8,8,9,9,11,11,12,12,13,13,14,14,15,15,16,16,17,17,18,18,20,20,21,21,22,22,23,23,24,24,25,25,26,26,27,27,28,28,29,29,30,30,31,31,32,32,33,33,34,34,35,35,36,36,39,39,40,40,43,43,45,45,46,46,47,47,51,51,52,52,54,54],"right_children":[2,4,6,8,10,12,14,16,18,20,-1,22,24,26,28,30,32,34,36,-1,38,40,42,44,46,48,50,52,54,56,58,60,62,64,66,68,70,-1,-1,72,74,-1,-1,76,-1,78,80,82,-1,-1,-1,84,86,-1,88,-1,-1,-1,-1,-1,-1,-1,-1,-1,-1,-1,-1,-1,-1,-1,-1,-1,-1,-1,-1,-1,-1,-1,-1,-1,-1,-1,-1,-1,-1,-1,-1,-1,-1],"split_conditions":[1.987231E2,1.9791888E2,2.1038275E2,1.53771E1,2.2218153E1,1.7724833E1,2.1107274E2,1.7516965E2,1.5716793E1,1.4519167E0,-7.975079E-1,1.6914415E1,1.7862331E1,4E-1,2.0529E1,1.6711992E2,1.7922466E2,1.6711992E2,1.6711992E2,3.3199759E0,8.868583E0,1.2522619E1,8E0,1E-1,1.8710249E1,1.5034041E1,1.7852498E0,1.4900001E1,2.1139416E1,1.6111884E2,1.1457958E1,1.2522619E1,1.80507E2,1.5629971E1,1.82717E2,6.662333E0,1.7555305E1,-7.609296E-1,1.0113729E0,1.7352501E0,1.4154915E1,-7.092395E-1,3.202715E-2,2.0558841E2,-2.7500668E-1,1.838525E1,1.1183201E1,1.6541502E1,-7.753967E-1,4.251883E-1,2.783071E0,9E0,1.3247749E1,6.658373E-1,1.2429127E1,3.7133975E-3,-7.798155E-1,-2.6319754E-1,9.9028397E-1,-6.1264676E-1,-1.4162843E0,1.5557125E0,-2.3919623E-1,7.181473E-1,3.9012659E0,-7.634633E-1,1.1780459E0,5.2763447E-2,-2.914971E-1,1.3400269E0,8.030677E-2,-5.121342E-1,5.5754477E-1,-7.605296E-1,-1.2768783E-1,1.6755248E0,-8.4100485E-2,-4.546452E-1,-8.156061E-2,-3.418688E-1,2.8815338E-1,2.0421557E0,7.308197E-2,-1.2882496E-2,-2.2113824E-1,-1.4437214E-1,1.1052872E0,-3.1037465E-1,3.5025358E-1],"split_indices":[3,3,3,2,2,0,3,3,2,0,0,0,0,1,0,3,3,3,3,0,0,2,1,1,0,2,0,1,0,3,2,2,3,2,3,0,2,0,0,0,2,0,0,3,0,0,2,0,0,0,0,1,0,0,2,0,0,0,0,0,0,0,0,0,0,0,0,0,0,0,0,0,0,0,0,0,0,0,0,0,0,0,0,0,0,0,0,0,0],"split_type":[0,0,0,0,0,0,0,0,0,0,0,0,0,0,0,0,0,0,0,0,0,0,0,0,0,0,0,0,0,0,0,0,0,0,0,0,0,0,0,0,0,0,0,0,0,0,0,0,0,0,0,0,0,0,0,0,0,0,0,0,0,0,0,0,0,0,0,0,0,0,0,0,0,0,0,0,0,0,0,0,0,0,0,0,0,0,0,0,0],"sum_hessian":[1.964E3,7.59E2,1.205E3,7.52E2,7E0,1.15E2,1.09E3,3.78E2,3.74E2,5E0,2E0,1.03E2,1.2E1,8E0,1.082E3,3.12E2,6.6E1,1.9E1,3.55E2,2E0,3E0,9.6E1,7E0,4E0,8E0,6E0,2E0,1.078E3,4E0,3E2,1.2E1,1.1E1,5.5E1,1.1E1,8E0,2.26E2,1.29E2,1E0,2E0,1.1E1,8.5E1,6E0,1E0,3E0,1E0,2E0,6E0,2E0,4E0,1E0,1E0,1.07E3,8E0,2E0,2E0,2.9E2,1E1,5E0,7E0,5E0,6E0,2E0,5.3E1,8E0,3E0,4E0,4E0,1.5E2,7.6E1,1.9E1,1.1E2,3E0,8E0,7E0,7.8E1,2E0,1E0,1E0,1E0,1E0,5E0,1E0,1E0,1.047E3,2.3E1,6E0,2E0,1E0,1E0],"tree_param":{"num_deleted":"0","num_feature":"4","num_nodes":"89","size_leaf_vector":"1"}},{"base_weights":[1.8685132E-2,1.2125988E-2,1.1827255E0,2.3916418E-2,-1.1905156E0,-1.2676756E0,4.376742E0,7.4995635E-3,8.667414E-1,-2.3527136E0,7.0159584E-1,3.1091028E-1,-7.1896994E-1,2.5179532E0,1.2743391E0,2.1101775E-2,-1.3409458E0,2.2507246E-1,6.1042423E0,2.5327992E-1,-4.2503204E0,1.9286119E0,-5.9589046E-1,-1.129454E-1,8.154289E-1,-6.7773764E-3,3.764578E-1,-3.3363554E0,-1.6334485E-1,2.6232796E0,-6.137328E-1,-4.473957E-2,2.4715233E0,-2.4000053E-1,4.7196868E-1,-1.5272373E0,1.1887504E-1,1.6949601E-1,2.0883396E0,-1.4361084E-1,9.278541E-2,2.481833E-3,-2.8975028E-1,4.1227168E-1,-5.8422368E-2,-1.3593364E-1,-1.3197091E0,-1.4356482E-1,1.9965081E-1,-4.4729212E-1,1.8638631E0,3.7307415E-2,-4.894577E-1,6.9614387E-1,1.7396708E-1],"categories":[],"categories_nodes":[],"categories_segments":[],"categories_sizes":[],"default_left":[0,0,0,0,0,0,0,0,0,0,0,0,0,0,0,0,0,0,0,0,0,0,0,0,0,0,0,0,0,0,0,0,0,0,0,0,0,0,0,0,0,0,0,0,0,0,0,0,0,0,0,0,0,0,0],"id":16,"left_children":[1,3,5,7,9,11,13,15,17,19,21,-1,-1,-1,23,25,27,29,31,33,35,37,-1,39,-1,41,43,45,47,49,51,-1,-1,-1,-1,-1,-1,-1,53,-1,-1,-1,-1,-1,-1,-1,-1,-1,-1,-1,-1,-1,-1,-1,-1],"loss_changes":[1.498865E1,2.7749716E1,9.164113E1,2.6794868E1,4.3431816E1,2.0690819E1,5.160724E1,3.4896133E1,1.2297353E2,6.0418327E1,3.021555E1,0E0,0E0,0E0,8.3186035E0,1.8657476E1,4.410116E1,7.000537E1,5.4611633E1,9.600254E0,2.9354362E1,1.2697029E-1,0E0,6.1135674E-1,0E0,2.5224108E1,7.834825E1,1.9454391E1,3.7148104E0,1.4217987E2,1.9734707E1,0E0,0E0,0E0,0E0,0E0,0E0,0E0,4.0523148E-1,0E0,0E0,0E0,0E0,0E0,0E0,0E0,0E0,0E0,0E0,0E0,0E0,0E0,0E0,0E0,0E0],"parents":[2147483647,0,0,1,1,2,2,3,3,4,4,5,5,6,6,7,7,8,8,9,9,10,10,14,14,15,15,16,16,17,17,18,18,19,19,20,20,21,21,23,23,25,25,26,26,27,27,28,28,29,29,30,30,38,38],"right_children":[2,4,6,8,10,12,14,16,18,20,22,-1,-1,-1,24,26,28,30,32,34,36,38,-1,40,-1,42,44,46,48,50,52,-1,-1,-1,-1,-1,-1,-1,54,-1,-1,-1,-1,-1,-1,-1,-1,-1,-1,-1,-1,-1,-1,-1,-1],"split_conditions":[2.8600004E1,2.21E1,8.545667E0,1.4599999E1,1.0931084E1,-3.7876666E0,9.837333E0,1.3000001E1,2.9940662E1,2.370667E0,2.3110205E1,3.1091028E-1,-7.1896994E-1,2.5179532E0,1.5631082E1,7.3E0,1.858451E1,1.5300001E1,-8.876667E-1,6.493675E1,1.7516965E2,1.1159999E1,-5.9589046E-1,1.4710248E1,8.154289E-1,6.3999996E0,1.179794E2,1.1609651E1,1.9791888E2,7.5519176E0,1.6923386E2,-4.473957E-2,2.4715233E0,-2.4000053E-1,4.7196868E-1,-1.5272373E0,1.1887504E-1,1.6949601E-1,1.5793583E1,-1.4361084E-1,9.278541E-2,2.481833E-3,-2.8975028E-1,4.1227168E-1,-5.8422368E-2,-1.3593364E-1,-1.3197091E0,-1.4356482E-1,1.9965081E-1,-4.4729212E-1,1.8638631E0,3.7307415E-2,-4.894577E-1,6.9614387E-1,1.7396708E-1],"split_indices":[1,1,0,1,0,0,0,1,2,0,2,0,0,0,0,1,2,1,0,3,3,2,0,0,0,1,3,2,3,0,3,0,0,0,0,0,0,0,0,0,0,0,0,0,0,0,0,0,0,0,0,0,0,0,0],"split_type":[0,0,0,0,0,0,0,0,0,0,0,0,0,0,0,0,0,0,0,0,0,0,0,0,0,0,0,0,0,0,0,0,0,0,0,0,0,0,0,0,0,0,0,0,0,0,0,0,0,0,0,0,0,0,0],"sum_hessian":[1.964E3,1.954E3,1E1,1.936E3,1.8E1,6E0,4E0,1.9E3,3.6E1,1.1E1,7E0,2E0,4E0,1E0,3E0,1.882E3,1.8E1,3.3E1,3E0,5E0,6E0,5E0,2E0,2E0,1E0,1.746E3,1.36E2,6E0,1.2E1,8E0,2.5E1,1E0,2E0,3E0,2E0,5E0,1E0,1E0,4E0,1E0,1E0,1.72E3,2.6E1,4.9E1,8.7E1,2E0,4E0,9E0,3E0,4E0,4E0,1.5E1,1E1,3E0,1E0],"tree_param":{"num_deleted":"0","num_feature":"4","num_nodes":"55","size_leaf_vector":"1"}},{"base_weights":[1.5217027E-2,-3.026553E-2,1.675298E-1,-2.9663482E-1,2.857045E-2,1.8269999E0,7.837784E-2,1.7613325E-1,-9.820327E-1,9.719012E-1,-2.4395874E-2,6.798757E-1,5.820672E0,-1.5299476E0,1.3618194E-1,-1.5932009E-1,2.22495E0,-5.477366E-1,-3.2195935E0,1.573128E-1,9.091566E0,4.2551223E-2,-2.940827E-1,3.6311698E0,-1.00440085E-1,3.2734942E0,-1.2105271E0,-1.9833634E0,7.22681E-1,8.882291E-1,4.454886E-3,-3.9178127E-1,5.04673E-1,3.5870928E-1,3.399054E0,-1.0717056E0,9.622449E-1,-1.2654289E0,-3.8738546E0,6.45833E-1,-2.1219456E0,3.6793137E-1,5.307768E0,1.8239605E-3,2.0230863E0,-3.9862406E-1,1.1552076E0,1.8456525E-1,1.3294244E0,-8.667674E-1,1.0086619E0,-4.3552166E-1,-1.0921551E-1,-5.879998E-1,-3.7458482E0,-2.0294218E0,1.3580556E0,6.9864863E-1,-1.8398504E-1,-2.3964066E-2,-2.4176228E-1,-3.2788992E-1,2.3653781E-1,8.967814E-1,-2.0177706E-1,2.467028E0,1.9408883E-1,-4.312585E-1,2.5590446E-2,9.310081E-1,-2.0161676E-1,-4.658486E-1,-1.3812594E-1,-2.6573554E-1,-1.3009843E0,-1.4406185E-1,4.350202E-1,-9.4133425E-1,4.8986235E-1,7.07953E-3,1.4245287E-1,4.2612824E-1,-3.630322E-3,3.6307948E0,3.760047E-2,-5.2063596E-1,-5.068751E-2,1.4388391E0,1.7782123E-1,-3.932103E-1,3.8042434E-2,6.075074E-1,-7.634274E-1,-5.6045678E-2,-3.1283137E-1,-1.3989384E0,1.2608272E-1,-1.0975664E-1,-8.4006876E-1,1.7637451E0,9.695668E-2,1.3486607E-1,1.9830335E0,-3.5900718E-1,6.062361E-3],"categories":[],"categories_nodes":[],"categories_segments":[],"categories_sizes":[],"default_left":[0,0,0,0,0,0,0,0,0,0,0,0,0,0,0,0,0,0,0,0,0,0,0,0,0,0,0,0,0,0,0,0,0,0,0,0,0,0,0,0,0,0,0,0,0,0,0,0,0,0,0,0,0,0,0,0,0,0,0,0,0,0,0,0,0,0,0,0,0,0,0,0,0,0,0,0,0,0,0,0,0,0,0,0,0,0,0,0,0,0,0,0,0,0,0,0,0,0,0,0,0,0,0,0,0],"id":17,"left_children":[1,3,5,7,9,11,13,15,17,19,21,23,25,27,29,31,33,35,37,39,41,43,45,47,49,-1,51,53,-1,55,57,59,61,63,65,67,69,71,73,75,77,79,-1,81,83,85,87,-1,-1,89,91,-1,-1,93,95,97,99,101,103,-1,-1,-1,-1,-1,-1,-1,-1,-1,-1,-1,-1,-1,-1,-1,-1,-1,-1,-1,-1,-1,-1,-1,-1,-1,-1,-1,-1,-1,-1,-1,-1,-1,-1,-1,-1,-1,-1,-1,-1,-1,-1,-1,-1,-1,-1],"loss_changes":[1.3617754E1,2.3736034E1,6.672795E1,8.895834E1,6.2029984E1,1.0141114E2,4.018451E1,1.12381516E2,1.0707407E2,4.35106E2,2.1244896E1,4.4120598E1,1.9218713E2,3.1567081E1,4.120706E1,2.1961441E1,4.9177437E1,7.619367E1,1.8111526E1,6.929172E1,4.436818E2,7.606035E1,3.5914024E1,6.927719E0,1.4473236E1,0E0,8.4031105E-2,3.2227737E1,0E0,8.774502E1,4.6567448E1,1.3497013E1,1.7637123E1,2.9139523E1,1.8055933E2,3.0174042E1,8.956629E1,6.7320347E-1,1.4134552E1,4.6881897E1,4.7080654E1,1.36047E-1,0E0,1.8289732E1,3.6192465E2,6.694499E1,2.9923721E1,0E0,0E0,4.577023E0,3.0434143E1,0E0,0E0,1.447201E0,2.488881E1,1.0516121E1,2.5075133E2,1.0893965E2,5.7924625E1,0E0,0E0,0E0,0E0,0E0,0E0,0E0,0E0,0E0,0E0,0E0,0E0,0E0,0E0,0E0,0E0,0E0,0E0,0E0,0E0,0E0,0E0,0E0,0E0,0E0,0E0,0E0,0E0,0E0,0E0,0E0,0E0,0E0,0E0,0E0,0E0,0E0,0E0,0E0,0E0,0E0,0E0,0E0,0E0,0E0,0E0],"parents":[2147483647,0,0,1,1,2,2,3,3,4,4,5,5,6,6,7,7,8,8,9,9,10,10,11,11,12,12,13,13,14,14,15,15,16,16,17,17,18,18,19,19,20,20,21,21,22,22,23,23,24,24,26,26,27,27,29,29,30,30,31,31,32,32,33,33,34,34,35,35,36,36,37,37,38,38,39,39,40,40,41,41,43,43,44,44,45,45,46,46,49,49,50,50,53,53,54,54,55,55,56,56,57,57,58,58],"right_children":[2,4,6,8,10,12,14,16,18,20,22,24,26,28,30,32,34,36,38,40,42,44,46,48,50,-1,52,54,-1,56,58,60,62,64,66,68,70,72,74,76,78,80,-1,82,84,86,88,-1,-1,90,92,-1,-1,94,96,98,100,102,104,-1,-1,-1,-1,-1,-1,-1,-1,-1,-1,-1,-1,-1,-1,-1,-1,-1,-1,-1,-1,-1,-1,-1,-1,-1,-1,-1,-1,-1,-1,-1,-1,-1,-1,-1,-1,-1,-1,-1,-1,-1,-1,-1,-1,-1,-1],"split_conditions":[2.8999999E0,1.3587718E2,3.2E0,5.256406E1,1.720912E2,3.1999996E0,3.4E0,4.6829895E1,1.7000002E0,2.0380579E1,8E-1,1.5484185E1,1.9791888E2,2.3977188E1,4.4E0,9E-1,4.0123334E0,5E-1,6.3435013E1,1.5876775E1,6.998332E-1,7.0000005E-1,1.6345667E1,-4.6480837E0,1.9416653E1,3.2734942E0,1.2873334E0,3.6956663E0,7.22681E-1,9.519434E1,1.4685176E1,1.0414999E0,4.939843E0,4.8020973E1,1.0931084E1,1.7491497E1,1.1304229E1,-2.3335001E0,-3.0189168E0,2E-1,9.837333E0,-5.0293336E0,5.307768E0,1.7618596E2,2.0143315E2,1.9654384E2,1.7618596E2,1.8456525E-1,1.3294244E0,5.1144166E0,2.7698954E1,-4.3552166E-1,-1.0921551E-1,1.7673029E1,1.1924832E1,3.6999996E0,1.3587718E2,1.457889E1,1.6870138E1,-2.3964066E-2,-2.4176228E-1,-3.2788992E-1,2.3653781E-1,8.967814E-1,-2.0177706E-1,2.467028E0,1.9408883E-1,-4.312585E-1,2.5590446E-2,9.310081E-1,-2.0161676E-1,-4.658486E-1,-1.3812594E-1,-2.6573554E-1,-1.3009843E0,-1.4406185E-1,4.350202E-1,-9.4133425E-1,4.8986235E-1,7.07953E-3,1.4245287E-1,4.2612824E-1,-3.630322E-3,3.6307948E0,3.760047E-2,-5.2063596E-1,-5.068751E-2,1.4388391E0,1.7782123E-1,-3.932103E-1,3.8042434E-2,6.075074E-1,-7.634274E-1,-5.6045678E-2,-3.1283137E-1,-1.3989384E0,1.2608272E-1,-1.0975664E-1,-8.4006876E-1,1.7637451E0,9.695668E-2,1.3486607E-1,1.9830335E0,-3.5900718E-1,6.062361E-3],"split_indices":[1,3,1,3,3,1,1,3,1,2,1,2,3,2,1,1,0,1,3,2,0,1,0,0,2,0,0,0,0,3,2,0,3,3,0,0,2,0,0,1,0,0,0,3,3,3,3,0,0,0,2,0,0,2,0,1,3,2,2,0,0,0,0,0,0,0,0,0,0,0,0,0,0,0,0,0,0,0,0,0,0,0,0,0,0,0,0,0,0,0,0,0,0,0,0,0,0,0,0,0,0,0,0,0,0],"split_type":[0,0,0,0,0,0,0,0,0,0,0,0,0,0,0,0,0,0,0,0,0,0,0,0,0,0,0,0,0,0,0,0,0,0,0,0,0,0,0,0,0,0,0,0,0,0,0,0,0,0,0,0,0,0,0,0,0,0,0,0,0,0,0,0,0,0,0,0,0,0,0,0,0,0,0,0,0,0,0,0,0,0,0,0,0,0,0,0,0,0,0,0,0,0,0,0,0,0,0,0,0,0,0,0,0],"sum_hessian":[1.964E3,1.513E3,4.51E2,2.73E2,1.24E3,2.2E1,4.29E2,1.62E2,1.11E2,6.5E1,1.175E3,1.8E1,4E0,1.4E1,4.15E2,1.4E2,2.2E1,9.4E1,1.7E1,6E1,5E0,9.42E2,2.33E2,3E0,1.5E1,2E0,2E0,1.3E1,1E0,6.1E1,3.54E2,1.04E2,3.6E1,9E0,1.3E1,7E1,2.4E1,5E0,1.2E1,5E1,1E1,3E0,2E0,9.24E2,1.8E1,2.18E2,1.5E1,1E0,2E0,9E0,6E0,1E0,1E0,8E0,5E0,8E0,5.3E1,7.5E1,2.79E2,6E1,4.4E1,5E0,3.1E1,2E0,7E0,4E0,9E0,5.3E1,1.7E1,1E1,1.4E1,3E0,2E0,2E0,1E1,2.1E1,2.9E1,8E0,2E0,1E0,2E0,8E0,9.16E2,2E0,1.6E1,3.1E1,1.87E2,1E0,1.4E1,6E0,3E0,5E0,1E0,5E0,3E0,4E0,1E0,3E0,5E0,9E0,4.4E1,7.3E1,2E0,4.6E1,2.33E2],"tree_param":{"num_deleted":"0","num_feature":"4","num_nodes":"105","size_leaf_vector":"1"}},{"base_weights":[1.9340746E-2,1.398056E-2,1.3288286E0,8.715166E-3,1.0388077E0,-5.478721E-1,4.9404573E0,1.6478192E-2,-6.720043E-1,1.3495243E0,-2.6364613E-1,1.3271856E-1,1.887704E0,2.7761932E-3,8.032209E-1,1.8115614E-1,-1.9244756E0,1.772827E0,-8.8023506E-2,2.2188889E-2,-4.2152992E-1,4.1655784E0,5.4029327E-2,-4.5739308E-1,1.1087873E0,-1.2425398E0,-1.2551387E-1,2.0522048E0,1.448393E-2,-6.760125E-1,6.3640195E-1,-2.4471506E-3,2.1205638E-1,-1.9419938E-1,2.9052165E-1,-2.4259483E-2,1.892705E0,-1.24395885E-1,1.9062676E0,1.6156399E-1,-5.510863E-1,4.4835487E-1,-1.22978576E-1,3.019625E-1,-4.77925E-1,8.191315E-1,1.3914767E-1],"categories":[],"categories_nodes":[],"categories_segments":[],"categories_sizes":[],"default_left":[0,0,0,0,0,0,0,0,0,0,0,0,0,0,0,0,0,0,0,0,0,0,0,0,0,0,0,0,0,0,0,0,0,0,0,0,0,0,0,0,0,0,0,0,0,0,0],"id":18,"left_children":[1,3,5,7,9,-1,11,13,15,17,-1,-1,-1,19,21,23,25,27,29,31,33,35,37,39,41,-1,43,45,-1,-1,-1,-1,-1,-1,-1,-1,-1,-1,-1,-1,-1,-1,-1,-1,-1,-1,-1],"loss_changes":[1.3773949E1,1.0556548E1,1.0018198E2,1.03104515E1,7.1443768E0,0E0,2.1539818E1,2.0781507E1,2.3856926E1,5.6327133E0,0E0,0E0,0E0,1.5626564E1,8.290358E1,8.799886E0,3.538007E1,3.2735214E0,1.9132318E1,3.7695076E1,2.6676363E1,5.512211E1,8.531293E1,1.3354923E1,4.12752E0,0E0,1.1571724E1,5.1973057E0,0E0,0E0,0E0,0E0,0E0,0E0,0E0,0E0,0E0,0E0,0E0,0E0,0E0,0E0,0E0,0E0,0E0,0E0,0E0],"parents":[2147483647,0,0,1,1,2,2,3,3,4,4,6,6,7,7,8,8,9,9,13,13,14,14,15,15,16,16,17,17,18,18,19,19,20,20,21,21,22,22,23,23,24,24,26,26,27,27],"right_children":[2,4,6,8,10,-1,12,14,16,18,-1,-1,-1,20,22,24,26,28,30,32,34,36,38,40,42,-1,44,46,-1,-1,-1,-1,-1,-1,-1,-1,-1,-1,-1,-1,-1,-1,-1,-1,-1,-1,-1],"split_conditions":[3.0900002E1,2.1139416E1,8.545667E0,2.21E1,2.1269899E2,-5.478721E-1,1.4869351E1,1.4900001E1,1.4418384E2,3E-1,-2.6364613E-1,1.3271856E-1,1.887704E0,9.5E0,1.5300001E1,1.0931084E1,1.7516965E2,1.353236E1,5E-1,7.3E0,2.8694056E1,5.2274996E-1,3.1355152E1,-2.4522498E0,2.8600004E1,-1.2425398E0,1.4249832E1,1.5842863E2,1.448393E-2,-6.760125E-1,6.3640195E-1,-2.4471506E-3,2.1205638E-1,-1.9419938E-1,2.9052165E-1,-2.4259483E-2,1.892705E0,-1.24395885E-1,1.9062676E0,1.6156399E-1,-5.510863E-1,4.4835487E-1,-1.22978576E-1,3.019625E-1,-4.77925E-1,8.191315E-1,1.3914767E-1],"split_indices":[1,0,0,1,3,0,2,1,3,1,0,0,0,1,1,0,3,2,1,1,2,0,2,0,1,0,0,3,0,0,0,0,0,0,0,0,0,0,0,0,0,0,0,0,0,0,0],"split_type":[0,0,0,0,0,0,0,0,0,0,0,0,0,0,0,0,0,0,0,0,0,0,0,0,0,0,0,0,0,0,0,0,0,0,0,0,0,0,0,0,0,0,0,0,0,0,0],"sum_hessian":[1.964E3,1.957E3,7E0,1.948E3,9E0,4E0,3E0,1.927E3,2.1E1,8E0,1E0,1E0,2E0,1.895E3,3.2E1,1.3E1,8E0,6E0,2E0,1.813E3,8.2E1,5E0,2.7E1,8E0,5E0,3E0,5E0,5E0,1E0,1E0,1E0,1.737E3,7.6E1,7.1E1,1.1E1,2E0,3E0,2.6E1,1E0,5E0,3E0,4E0,1E0,3E0,2E0,3E0,2E0],"tree_param":{"num_deleted":"0","num_feature":"4","num_nodes":"47","size_leaf_vector":"1"}},{"base_weights":[1.5887447E-2,-3.6220166E-1,2.9838052E-2,-7.262301E-1,-2.5822613E-1,6.889227E-2,-9.7659834E-2,-3.635141E-1,-4.136878E-1,-2.922397E-1,2.570099E-1,4.8614934E-2,3.3146236E0,-1.3612661E-1,1.5892572E0,-4.736415E-1,1.1066402E-1,-3.1482118E-1,1.3229966E-1,4.4223666E-2,1.343053E-1,3.3575498E-2,1.0661169E0,4.5357723E0,-5.0858513E-2,-1.804233E-2,-6.613761E-1,2.6743913E0,-2.1518925E-1,-1.6299756E-1,-1.2993793E-1,-2.7358902E-1,-5.4080087E-1,2.468101E-2,-4.780358E-3,4.6354834E-2,-2.2341614E0,4.686329E0,2.0239669E-1,1.3548138E0,-2.8452504E0,5.700046E-1,-1.9545996E-1,-1.4360222E0,-8.6922035E-2,-8.257283E-1,1.5121679E0,4.220313E-2,-1.006752E-1,-1.7595868E-1,-6.894607E-2,-1.897326E-1,-6.2339667E-2,4.7299103E-4,1.0013131E-1,-9.204618E-1,5.359442E-2,3.4871435E-1,2.2887259E0,-3.1624776E-1,3.2935676E-1,-9.561432E-3,1.2432361E0,-1.668018E-1,-1.1135609E0,5.403839E-2,7.436019E-1,-6.042997E-1,-3.3613075E-2,3.4912246E-1,-5.4643464E-1,1.436756E-1,-1.8120557E-1,5.690473E-1,-6.1667062E-2],"categories":[],"categories_nodes":[],"categories_segments":[],"categories_sizes":[],"default_left":[0,0,0,0,0,0,0,0,0,0,0,0,0,0,0,0,0,0,0,0,0,0,0,0,0,0,0,0,0,0,0,0,0,0,0,0,0,0,0,0,0,0,0,0,0,0,0,0,0,0,0,0,0,0,0,0,0,0,0,0,0,0,0,0,0,0,0,0,0,0,0,0,0,0,0],"id":19,"left_children":[1,3,5,7,9,11,13,15,-1,17,19,21,23,25,27,29,-1,31,-1,33,-1,35,37,-1,39,41,43,-1,45,-1,47,49,51,-1,-1,53,55,57,59,61,63,65,67,69,71,-1,73,-1,-1,-1,-1,-1,-1,-1,-1,-1,-1,-1,-1,-1,-1,-1,-1,-1,-1,-1,-1,-1,-1,-1,-1,-1,-1,-1,-1],"loss_changes":[1.0375341E1,2.4619713E0,9.447538E0,3.0500574E0,1.056509E0,9.5401924E1,2.9092499E1,1.0619403E0,0E0,1.0163894E0,1.4249334E-1,2.2061237E1,3.5832297E2,2.7030403E1,1.341009E2,1.6890669E-1,0E0,3.3655977E-1,0E0,8.177334E-3,0E0,4.1371323E1,6.471535E1,0E0,3.5278786E1,3.7357185E1,3.547506E1,0E0,4.3606583E1,0E0,2.1416171E-1,4.9526548E-1,8.2196E-2,0E0,0E0,1.8236235E1,1.6647251E1,3.261258E1,2.1410816E1,2.333942E1,3.887888E0,6.1317566E1,4.149834E1,3.61883E1,1.4041207E1,0E0,4.354308E0,0E0,0E0,0E0,0E0,0E0,0E0,0E0,0E0,0E0,0E0,0E0,0E0,0E0,0E0,0E0,0E0,0E0,0E0,0E0,0E0,0E0,0E0,0E0,0E0,0E0,0E0,0E0,0E0],"parents":[2147483647,0,0,1,1,2,2,3,3,4,4,5,5,6,6,7,7,9,9,10,10,11,11,12,12,13,13,14,14,15,15,17,17,19,19,21,21,22,22,24,24,25,25,26,26,28,28,30,30,31,31,32,32,35,35,36,36,37,37,38,38,39,39,40,40,41,41,42,42,43,43,44,44,46,46],"right_children":[2,4,6,8,10,12,14,16,-1,18,20,22,24,26,28,30,-1,32,-1,34,-1,36,38,-1,40,42,44,-1,46,-1,48,50,52,-1,-1,54,56,58,60,62,64,66,68,70,72,-1,74,-1,-1,-1,-1,-1,-1,-1,-1,-1,-1,-1,-1,-1,-1,-1,-1,-1,-1,-1,-1,-1,-1,-1,-1,-1,-1,-1,-1],"split_conditions":[-1.1256416E1,1.1112753E2,2.094507E1,4.158632E1,1.8335276E1,2.0771093E1,1.7212336E1,-1.2146E1,-4.136878E-1,1.6E0,-1.2748085E1,1.4900001E1,1.7036661E2,1.0793583E1,1.7399834E1,-1.2748085E1,1.1066402E-1,4E-1,1.3229966E-1,-1.4664749E1,1.343053E-1,1.37E1,1.5300001E1,4.5357723E0,1.03914995E1,1.7298244E2,2.2768398E1,2.6743913E0,2.1313093E1,-1.6299756E-1,1E-1,1.0446206E1,9E-1,2.468101E-2,-4.780358E-3,4.2E0,1.858451E1,1.609969E1,1.0683166E1,9.964417E0,1.17352495E1,2.9810836E0,1.80507E2,2.9308851E1,2.472495E1,-8.257283E-1,1.9495667E1,4.220313E-2,-1.006752E-1,-1.7595868E-1,-6.894607E-2,-1.897326E-1,-6.2339667E-2,4.7299103E-4,1.0013131E-1,-9.204618E-1,5.359442E-2,3.4871435E-1,2.2887259E0,-3.1624776E-1,3.2935676E-1,-9.561432E-3,1.2432361E0,-1.668018E-1,-1.1135609E0,5.403839E-2,7.436019E-1,-6.042997E-1,-3.3613075E-2,3.4912246E-1,-5.4643464E-1,1.436756E-1,-1.8120557E-1,5.690473E-1,-6.1667062E-2],"split_indices":[0,3,2,3,2,2,0,0,0,1,0,1,3,0,0,0,0,1,0,0,0,1,1,0,0,3,2,0,2,0,1,2,1,0,0,1,2,2,0,0,0,0,3,3,2,0,0,0,0,0,0,0,0,0,0,0,0,0,0,0,0,0,0,0,0,0,0,0,0,0,0,0,0,0,0],"split_type":[0,0,0,0,0,0,0,0,0,0,0,0,0,0,0,0,0,0,0,0,0,0,0,0,0,0,0,0,0,0,0,0,0,0,0,0,0,0,0,0,0,0,0,0,0,0,0,0,0,0,0,0,0,0,0,0,0,0,0,0,0,0,0,0,0,0,0,0,0,0,0,0,0,0,0],"sum_hessian":[1.964E3,6.9E1,1.895E3,1.4E1,5.5E1,1.451E3,4.44E2,1E1,4E0,5.2E1,3E0,1.443E3,8E0,4.35E2,9E0,9E0,1E0,5.1E1,1E0,2E0,1E0,1.423E3,2E1,1E0,7E0,3.56E2,7.9E1,1E0,8E0,7E0,2E0,4.5E1,6E0,1E0,1E0,1.416E3,7E0,3E0,1.7E1,5E0,2E0,8.2E1,2.74E2,3.3E1,4.6E1,3E0,5E0,1E0,1E0,4E0,4.1E1,4E0,2E0,1.226E3,1.9E2,5E0,2E0,2E0,1E0,7E0,1E1,4E0,1E0,1E0,1E0,6.9E1,1.3E1,1.1E1,2.63E2,4E0,2.9E1,2.2E1,2.4E1,4E0,1E0],"tree_param":{"num_deleted":"0","num_feature":"4","num_nodes":"75","size_leaf_vector":"1"}},{"base_weights":[1.5151379E-2,-1.2432304E-1,4.8233006E-2,-1.4736381E-2,-1.0736963E0,2.2545247E0,1.4389305E-2,-1.7577095E-1,3.266739E-1,1.2565004E0,-1.3223901E0,4.0178278E-1,4.4076033E0,-1.734307E0,4.1579407E-2,7.8617856E-2,-1.0982307E0,2.4908624E0,9.998908E-2,-1.4904945E0,